%YAML:1.0
---
opencv_ml_dtree:
   format: 3
   is_classifier: 1
   var_all: 421
   var_count: 420
   ord_var_count: 420
   cat_var_count: 1
   training_params:
      use_surrogates: 0
      max_categories: 15
      regression_accuracy: 9.9999997764825821e-03
      max_depth: 10
      min_sample_count: 10
      cross_validation_folds: 0
   global_var_idx: 1
   var_idx: [ 0, 1, 2, 3, 4, 5, 6, 7, 8, 9, 10, 11, 12, 13, 14, 15, 16,
       17, 18, 19, 20, 21, 22, 23, 24, 25, 26, 27, 28, 29, 30, 31, 32,
       33, 34, 35, 36, 37, 38, 39, 40, 41, 42, 43, 44, 45, 46, 47, 48,
       49, 50, 51, 52, 53, 54, 55, 56, 57, 58, 59, 60, 61, 62, 63, 64,
       65, 66, 67, 68, 69, 70, 71, 72, 73, 74, 75, 76, 77, 78, 79, 80,
       81, 82, 83, 84, 85, 86, 87, 88, 89, 90, 91, 92, 93, 94, 95, 96,
       97, 98, 99, 100, 101, 102, 103, 104, 105, 106, 107, 108, 109, 110,
       111, 112, 113, 114, 115, 116, 117, 118, 119, 120, 121, 122, 123,
       124, 125, 126, 127, 128, 129, 130, 131, 132, 133, 134, 135, 136,
       137, 138, 139, 140, 141, 142, 143, 144, 145, 146, 147, 148, 149,
       150, 151, 152, 153, 154, 155, 156, 157, 158, 159, 160, 161, 162,
       163, 164, 165, 166, 167, 168, 169, 170, 171, 172, 173, 174, 175,
       176, 177, 178, 179, 180, 181, 182, 183, 184, 185, 186, 187, 188,
       189, 190, 191, 192, 193, 194, 195, 196, 197, 198, 199, 200, 201,
       202, 203, 204, 205, 206, 207, 208, 209, 210, 211, 212, 213, 214,
       215, 216, 217, 218, 219, 220, 221, 222, 223, 224, 225, 226, 227,
       228, 229, 230, 231, 232, 233, 234, 235, 236, 237, 238, 239, 240,
       241, 242, 243, 244, 245, 246, 247, 248, 249, 250, 251, 252, 253,
       254, 255, 256, 257, 258, 259, 260, 261, 262, 263, 264, 265, 266,
       267, 268, 269, 270, 271, 272, 273, 274, 275, 276, 277, 278, 279,
       280, 281, 282, 283, 284, 285, 286, 287, 288, 289, 290, 291, 292,
       293, 294, 295, 296, 297, 298, 299, 300, 301, 302, 303, 304, 305,
       306, 307, 308, 309, 310, 311, 312, 313, 314, 315, 316, 317, 318,
       319, 320, 321, 322, 323, 324, 325, 326, 327, 328, 329, 330, 331,
       332, 333, 334, 335, 336, 337, 338, 339, 340, 341, 342, 343, 344,
       345, 346, 347, 348, 349, 350, 351, 352, 353, 354, 355, 356, 357,
       358, 359, 360, 361, 362, 363, 364, 365, 366, 367, 368, 369, 370,
       371, 372, 373, 374, 375, 376, 377, 378, 379, 380, 381, 382, 383,
       384, 385, 386, 387, 388, 389, 390, 391, 392, 393, 394, 395, 396,
       397, 398, 399, 400, 401, 402, 403, 404, 405, 406, 407, 408, 409,
       410, 411, 412, 413, 414, 415, 416, 417, 418, 419 ]
   var_type: [ 0, 0, 0, 0, 0, 0, 0, 0, 0, 0, 0, 0, 0, 0, 0, 0, 0, 0, 0,
       0, 0, 0, 0, 0, 0, 0, 0, 0, 0, 0, 0, 0, 0, 0, 0, 0, 0, 0, 0, 0, 0,
       0, 0, 0, 0, 0, 0, 0, 0, 0, 0, 0, 0, 0, 0, 0, 0, 0, 0, 0, 0, 0, 0,
       0, 0, 0, 0, 0, 0, 0, 0, 0, 0, 0, 0, 0, 0, 0, 0, 0, 0, 0, 0, 0, 0,
       0, 0, 0, 0, 0, 0, 0, 0, 0, 0, 0, 0, 0, 0, 0, 0, 0, 0, 0, 0, 0, 0,
       0, 0, 0, 0, 0, 0, 0, 0, 0, 0, 0, 0, 0, 0, 0, 0, 0, 0, 0, 0, 0, 0,
       0, 0, 0, 0, 0, 0, 0, 0, 0, 0, 0, 0, 0, 0, 0, 0, 0, 0, 0, 0, 0, 0,
       0, 0, 0, 0, 0, 0, 0, 0, 0, 0, 0, 0, 0, 0, 0, 0, 0, 0, 0, 0, 0, 0,
       0, 0, 0, 0, 0, 0, 0, 0, 0, 0, 0, 0, 0, 0, 0, 0, 0, 0, 0, 0, 0, 0,
       0, 0, 0, 0, 0, 0, 0, 0, 0, 0, 0, 0, 0, 0, 0, 0, 0, 0, 0, 0, 0, 0,
       0, 0, 0, 0, 0, 0, 0, 0, 0, 0, 0, 0, 0, 0, 0, 0, 0, 0, 0, 0, 0, 0,
       0, 0, 0, 0, 0, 0, 0, 0, 0, 0, 0, 0, 0, 0, 0, 0, 0, 0, 0, 0, 0, 0,
       0, 0, 0, 0, 0, 0, 0, 0, 0, 0, 0, 0, 0, 0, 0, 0, 0, 0, 0, 0, 0, 0,
       0, 0, 0, 0, 0, 0, 0, 0, 0, 0, 0, 0, 0, 0, 0, 0, 0, 0, 0, 0, 0, 0,
       0, 0, 0, 0, 0, 0, 0, 0, 0, 0, 0, 0, 0, 0, 0, 0, 0, 0, 0, 0, 0, 0,
       0, 0, 0, 0, 0, 0, 0, 0, 0, 0, 0, 0, 0, 0, 0, 0, 0, 0, 0, 0, 0, 0,
       0, 0, 0, 0, 0, 0, 0, 0, 0, 0, 0, 0, 0, 0, 0, 0, 0, 0, 0, 0, 0, 0,
       0, 0, 0, 0, 0, 0, 0, 0, 0, 0, 0, 0, 0, 0, 0, 0, 0, 0, 0, 0, 0, 0,
       0, 0, 0, 0, 0, 0, 0, 0, 0, 0, 0, 0, 0, 0, 0, 0, 0, 0, 0, 0, 0, 0,
       0, 0, 0, 0, 0, 1 ]
   cat_ofs: [ 0, 0, 0, 0, 0, 0, 0, 0, 0, 0, 0, 0, 0, 0, 0, 0, 0, 0, 0, 0,
       0, 0, 0, 0, 0, 0, 0, 0, 0, 0, 0, 0, 0, 0, 0, 0, 0, 0, 0, 0, 0, 0,
       0, 0, 0, 0, 0, 0, 0, 0, 0, 0, 0, 0, 0, 0, 0, 0, 0, 0, 0, 0, 0, 0,
       0, 0, 0, 0, 0, 0, 0, 0, 0, 0, 0, 0, 0, 0, 0, 0, 0, 0, 0, 0, 0, 0,
       0, 0, 0, 0, 0, 0, 0, 0, 0, 0, 0, 0, 0, 0, 0, 0, 0, 0, 0, 0, 0, 0,
       0, 0, 0, 0, 0, 0, 0, 0, 0, 0, 0, 0, 0, 0, 0, 0, 0, 0, 0, 0, 0, 0,
       0, 0, 0, 0, 0, 0, 0, 0, 0, 0, 0, 0, 0, 0, 0, 0, 0, 0, 0, 0, 0, 0,
       0, 0, 0, 0, 0, 0, 0, 0, 0, 0, 0, 0, 0, 0, 0, 0, 0, 0, 0, 0, 0, 0,
       0, 0, 0, 0, 0, 0, 0, 0, 0, 0, 0, 0, 0, 0, 0, 0, 0, 0, 0, 0, 0, 0,
       0, 0, 0, 0, 0, 0, 0, 0, 0, 0, 0, 0, 0, 0, 0, 0, 0, 0, 0, 0, 0, 0,
       0, 0, 0, 0, 0, 0, 0, 0, 0, 0, 0, 0, 0, 0, 0, 0, 0, 0, 0, 0, 0, 0,
       0, 0, 0, 0, 0, 0, 0, 0, 0, 0, 0, 0, 0, 0, 0, 0, 0, 0, 0, 0, 0, 0,
       0, 0, 0, 0, 0, 0, 0, 0, 0, 0, 0, 0, 0, 0, 0, 0, 0, 0, 0, 0, 0, 0,
       0, 0, 0, 0, 0, 0, 0, 0, 0, 0, 0, 0, 0, 0, 0, 0, 0, 0, 0, 0, 0, 0,
       0, 0, 0, 0, 0, 0, 0, 0, 0, 0, 0, 0, 0, 0, 0, 0, 0, 0, 0, 0, 0, 0,
       0, 0, 0, 0, 0, 0, 0, 0, 0, 0, 0, 0, 0, 0, 0, 0, 0, 0, 0, 0, 0, 0,
       0, 0, 0, 0, 0, 0, 0, 0, 0, 0, 0, 0, 0, 0, 0, 0, 0, 0, 0, 0, 0, 0,
       0, 0, 0, 0, 0, 0, 0, 0, 0, 0, 0, 0, 0, 0, 0, 0, 0, 0, 0, 0, 0, 0,
       0, 0, 0, 0, 0, 0, 0, 0, 0, 0, 0, 0, 0, 0, 0, 0, 0, 0, 0, 0, 0, 0,
       0, 0, 0, 0, 0, 0, 0, 0, 0, 0, 0, 0, 0, 0, 0, 0, 0, 0, 0, 0, 0, 0,
       0, 0, 0, 0, 0, 0, 0, 0, 0, 0, 0, 0, 0, 0, 0, 0, 0, 0, 0, 0, 0, 0,
       0, 0, 0, 0, 0, 0, 0, 0, 0, 0, 0, 0, 0, 0, 0, 0, 0, 0, 0, 0, 0, 0,
       0, 0, 0, 0, 0, 0, 0, 0, 0, 0, 0, 0, 0, 0, 0, 0, 0, 0, 0, 0, 0, 0,
       0, 0, 0, 0, 0, 0, 0, 0, 0, 0, 0, 0, 0, 0, 0, 0, 0, 0, 0, 0, 0, 0,
       0, 0, 0, 0, 0, 0, 0, 0, 0, 0, 0, 0, 0, 0, 0, 0, 0, 0, 0, 0, 0, 0,
       0, 0, 0, 0, 0, 0, 0, 0, 0, 0, 0, 0, 0, 0, 0, 0, 0, 0, 0, 0, 0, 0,
       0, 0, 0, 0, 0, 0, 0, 0, 0, 0, 0, 0, 0, 0, 0, 0, 0, 0, 0, 0, 0, 0,
       0, 0, 0, 0, 0, 0, 0, 0, 0, 0, 0, 0, 0, 0, 0, 0, 0, 0, 0, 0, 0, 0,
       0, 0, 0, 0, 0, 0, 0, 0, 0, 0, 0, 0, 0, 0, 0, 0, 0, 0, 0, 0, 0, 0,
       0, 0, 0, 0, 0, 0, 0, 0, 0, 0, 0, 0, 0, 0, 0, 0, 0, 0, 0, 0, 0, 0,
       0, 0, 0, 0, 0, 0, 0, 0, 0, 0, 0, 0, 0, 0, 0, 0, 0, 0, 0, 0, 0, 0,
       0, 0, 0, 0, 0, 0, 0, 0, 0, 0, 0, 0, 0, 0, 0, 0, 0, 0, 0, 0, 0, 0,
       0, 0, 0, 0, 0, 0, 0, 0, 0, 0, 0, 0, 0, 0, 0, 0, 0, 0, 0, 0, 0, 0,
       0, 0, 0, 0, 0, 0, 0, 0, 0, 0, 0, 0, 0, 0, 0, 0, 0, 0, 0, 0, 0, 0,
       0, 0, 0, 0, 0, 0, 0, 0, 0, 0, 0, 0, 0, 0, 0, 0, 0, 0, 0, 0, 0, 0,
       0, 0, 0, 0, 0, 0, 0, 0, 0, 0, 0, 0, 0, 0, 0, 0, 0, 0, 0, 0, 0, 0,
       0, 0, 0, 0, 0, 0, 0, 0, 0, 0, 0, 0, 0, 0, 0, 0, 0, 0, 0, 0, 0, 0,
       0, 0, 0, 0, 0, 0, 0, 0, 0, 0, 0, 0, 0, 0, 0, 0, 0, 0, 0, 0, 0, 0,
       0, 0, 0, 0, 0, 0 ]
   class_labels: [ -1, 99, 100, 108, 109 ]
   missing_subst: [ 0., 0., 0., 0., 0., 0., 0., 0., 0., 0., 0., 0., 0.,
       0., 0., 0., 0., 0., 0., 0., 0., 0., 0., 0., 0., 0., 0., 0., 0.,
       0., 0., 0., 0., 0., 0., 0., 0., 0., 0., 0., 0., 0., 0., 0., 0.,
       0., 0., 0., 0., 0., 0., 0., 0., 0., 0., 0., 0., 0., 0., 0., 0.,
       0., 0., 0., 0., 0., 0., 0., 0., 0., 0., 0., 0., 0., 0., 0., 0.,
       0., 0., 0., 0., 0., 0., 0., 0., 0., 0., 0., 0., 0., 0., 0., 0.,
       0., 0., 0., 0., 0., 0., 0., 0., 0., 0., 0., 0., 0., 0., 0., 0.,
       0., 0., 0., 0., 0., 0., 0., 0., 0., 0., 0., 0., 0., 0., 0., 0.,
       0., 0., 0., 0., 0., 0., 0., 0., 0., 0., 0., 0., 0., 0., 0., 0.,
       0., 0., 0., 0., 0., 0., 0., 0., 0., 0., 0., 0., 0., 0., 0., 0.,
       0., 0., 0., 0., 0., 0., 0., 0., 0., 0., 0., 0., 0., 0., 0., 0.,
       0., 0., 0., 0., 0., 0., 0., 0., 0., 0., 0., 0., 0., 0., 0., 0.,
       0., 0., 0., 0., 0., 0., 0., 0., 0., 0., 0., 0., 0., 0., 0., 0.,
       0., 0., 0., 0., 0., 0., 0., 0., 0., 0., 0., 0., 0., 0., 0., 0.,
       0., 0., 0., 0., 0., 0., 0., 0., 0., 0., 0., 0., 0., 0., 0., 0.,
       0., 0., 0., 0., 0., 0., 0., 0., 0., 0., 0., 0., 0., 0., 0., 0.,
       0., 0., 0., 0., 0., 0., 0., 0., 0., 0., 0., 0., 0., 0., 0., 0.,
       0., 0., 0., 0., 0., 0., 0., 0., 0., 0., 0., 0., 0., 0., 0., 0.,
       0., 0., 0., 0., 0., 0., 0., 0., 0., 0., 0., 0., 0., 0., 0., 0.,
       0., 0., 0., 0., 0., 0., 0., 0., 0., 0., 0., 0., 0., 0., 0., 0.,
       0., 0., 0., 0., 0., 0., 0., 0., 0., 0., 0., 0., 0., 0., 0., 0.,
       0., 0., 0., 0., 0., 0., 0., 0., 0., 0., 0., 0., 0., 0., 0., 0.,
       0., 0., 0., 0., 0., 0., 0., 0., 0., 0., 0., 0., 0., 0., 0., 0.,
       0., 0., 0., 0., 0., 0., 0., 0., 0., 0., 0., 0., 0., 0., 0., 0.,
       0., 0., 0., 0., 0., 0., 0., 0., 0., 0., 0., 0., 0., 0., 0., 0.,
       0., 0., 0., 0., 0., 0., 0., 0., 0., 0., 0., 0., 0., 0., 0., 0.,
       0., 0., 0., 0., 0., 0., 0., 0. ]
   nodes:
      -
         depth: 0
         value: 100.
         norm_class_idx: 2
         splits:
            - { var:400, quality:3.1396201171875000e+03,
                le:1.1500000000000000e+01 }
      -
         depth: 1
         value: 100.
         norm_class_idx: 2
         splits:
            - { var:401, quality:2.0757041015625000e+03,
                le:1.0500000000000000e+01 }
      -
         depth: 2
         value: 100.
         norm_class_idx: 2
         splits:
            - { var:400, quality:1.9288406982421875e+03,
                le:8.5000000000000000e+00 }
      -
         depth: 3
         value: 100.
         norm_class_idx: 2
         splits:
            - { var:401, quality:1.7212849121093750e+03,
                le:7.5000000000000000e+00 }
      -
         depth: 4
         value: 100.
         norm_class_idx: 2
         splits:
            - { var:402, quality:1.5152174072265625e+03,
                le:6.5150000000000000e+02 }
      -
         depth: 5
         value: 100.
         norm_class_idx: 2
         splits:
            - { var:400, quality:1.5146422119140625e+03,
                le:6.5000000000000000e+00 }
      -
         depth: 6
         value: 100.
         norm_class_idx: 2
         splits:
            - { var:401, quality:1.3170867919921875e+03,
                le:6.5000000000000000e+00 }
      -
         depth: 7
         value: 100.
         norm_class_idx: 2
         splits:
            - { var:35, quality:1.2415858154296875e+03,
                le:2.5000000000000000e+00 }
      -
         depth: 8
         value: 100.
         norm_class_idx: 2
         splits:
            - { var:145, quality:5.1464286804199219e+01,
                le:3.6500000000000000e+01 }
      -
         depth: 9
         value: 99.
         norm_class_idx: 1
      -
         depth: 9
         value: 100.
         norm_class_idx: 2
         splits:
            - { var:55, quality:5.0327274322509766e+01, le:21. }
      -
         depth: 10
         value: 100.
         norm_class_idx: 2
      -
         depth: 10
         value: 108.
         norm_class_idx: 3
      -
         depth: 8
         value: 100.
         norm_class_idx: 2
         splits:
            - { var:254, quality:1.1954378662109375e+03,
                le:4.3500000000000000e+01 }
      -
         depth: 9
         value: 100.
         norm_class_idx: 2
         splits:
            - { var:253, quality:1.0330357360839844e+02,
                le:5.2500000000000000e+01 }
      -
         depth: 10
         value: 100.
         norm_class_idx: 2
      -
         depth: 10
         value: -1.
         norm_class_idx: 0
      -
         depth: 9
         value: 100.
         norm_class_idx: 2
         splits:
            - { var:284, quality:1.0941867675781250e+03,
                le:5.0000000000000000e-01 }
      -
         depth: 10
         value: 100.
         norm_class_idx: 2
      -
         depth: 10
         value: 100.
         norm_class_idx: 2
      -
         depth: 7
         value: 100.
         norm_class_idx: 2
         splits:
            - { var:170, quality:7.9588233947753906e+01, le:5. }
      -
         depth: 8
         value: 99.
         norm_class_idx: 1
      -
         depth: 8
         value: 100.
         norm_class_idx: 2
         splits:
            - { var:317, quality:7.7380950927734375e+01, le:42. }
      -
         depth: 9
         value: 99.
         norm_class_idx: 1
      -
         depth: 9
         value: 100.
         norm_class_idx: 2
         splits:
            - { var:61, quality:7.7219512939453125e+01,
                le:1.3500000000000000e+01 }
      -
         depth: 10
         value: 99.
         norm_class_idx: 1
      -
         depth: 10
         value: 100.
         norm_class_idx: 2
      -
         depth: 6
         value: 100.
         norm_class_idx: 2
         splits:
            - { var:43, quality:2.0420086669921875e+02, le:13. }
      -
         depth: 7
         value: 108.
         norm_class_idx: 3
      -
         depth: 7
         value: 100.
         norm_class_idx: 2
         splits:
            - { var:324, quality:2.0616667175292969e+02, le:8. }
      -
         depth: 8
         value: 108.
         norm_class_idx: 3
      -
         depth: 8
         value: 100.
         norm_class_idx: 2
         splits:
            - { var:68, quality:2.0508680725097656e+02,
                le:3.9500000000000000e+01 }
      -
         depth: 9
         value: 100.
         norm_class_idx: 2
         splits:
            - { var:67, quality:2.8851612091064453e+01,
                le:4.7500000000000000e+01 }
      -
         depth: 10
         value: 100.
         norm_class_idx: 2
      -
         depth: 10
         value: 108.
         norm_class_idx: 3
      -
         depth: 9
         value: 100.
         norm_class_idx: 2
         splits:
            - { var:216, quality:1.8413612365722656e+02, le:24. }
      -
         depth: 10
         value: 109.
         norm_class_idx: 4
      -
         depth: 10
         value: 100.
         norm_class_idx: 2
      -
         depth: 5
         value: 100.
         norm_class_idx: 2
      -
         depth: 4
         value: 100.
         norm_class_idx: 2
         splits:
            - { var:137, quality:2.1416458129882812e+02, le:96. }
      -
         depth: 5
         value: 99.
         norm_class_idx: 1
         splits:
            - { var:400, quality:1.1333333015441895e+01,
                le:5.5000000000000000e+00 }
      -
         depth: 6
         value: 99.
         norm_class_idx: 1
      -
         depth: 6
         value: 100.
         norm_class_idx: 2
      -
         depth: 5
         value: 100.
         norm_class_idx: 2
         splits:
            - { var:316, quality:2.1514859008789062e+02,
                le:1.1500000000000000e+01 }
      -
         depth: 6
         value: 99.
         norm_class_idx: 1
      -
         depth: 6
         value: 100.
         norm_class_idx: 2
         splits:
            - { var:191, quality:2.1557798767089844e+02, le:10. }
      -
         depth: 7
         value: 100.
         norm_class_idx: 2
         splits:
            - { var:208, quality:1.9333333969116211e+01,
                le:3.1500000000000000e+01 }
      -
         depth: 8
         value: 99.
         norm_class_idx: 1
         splits:
            - { var:236, quality:11., le:220. }
      -
         depth: 9
         value: 109.
         norm_class_idx: 4
      -
         depth: 9
         value: 99.
         norm_class_idx: 1
         splits:
            - { var:69, quality:1.0888889312744141e+01, le:229. }
      -
         depth: 10
         value: 100.
         norm_class_idx: 2
      -
         depth: 10
         value: 99.
         norm_class_idx: 1
      -
         depth: 8
         value: 100.
         norm_class_idx: 2
      -
         depth: 7
         value: 100.
         norm_class_idx: 2
         splits:
            - { var:40, quality:2.0250714111328125e+02, le:1. }
      -
         depth: 8
         value: 100.
         norm_class_idx: 2
      -
         depth: 8
         value: 100.
         norm_class_idx: 2
         splits:
            - { var:122, quality:1.9918269348144531e+02,
                le:4.6500000000000000e+01 }
      -
         depth: 9
         value: 99.
         norm_class_idx: 1
      -
         depth: 9
         value: 100.
         norm_class_idx: 2
         splits:
            - { var:350, quality:1.9912622070312500e+02, le:5. }
      -
         depth: 10
         value: 99.
         norm_class_idx: 1
      -
         depth: 10
         value: 100.
         norm_class_idx: 2
      -
         depth: 3
         value: 100.
         norm_class_idx: 2
         splits:
            - { var:65, quality:2.4901675415039062e+02,
                le:2.2150000000000000e+02 }
      -
         depth: 4
         value: 100.
         norm_class_idx: 2
         splits:
            - { var:401, quality:9.8491058349609375e+01,
                le:5.5000000000000000e+00 }
      -
         depth: 5
         value: 108.
         norm_class_idx: 3
         splits:
            - { var:403, quality:5.5026668548583984e+01, le:17. }
      -
         depth: 6
         value: 100.
         norm_class_idx: 2
      -
         depth: 6
         value: 108.
         norm_class_idx: 3
         splits:
            - { var:403, quality:5.3984127044677734e+01, le:75. }
      -
         depth: 7
         value: 108.
         norm_class_idx: 3
         splits:
            - { var:109, quality:4.7474575042724609e+01,
                le:1.2150000000000000e+02 }
      -
         depth: 8
         value: 108.
         norm_class_idx: 3
         splits:
            - { var:402, quality:4.6627273559570312e+01, le:599. }
      -
         depth: 9
         value: 108.
         norm_class_idx: 3
         splits:
            - { var:403, quality:4.6880001068115234e+01,
                le:2.6500000000000000e+01 }
      -
         depth: 10
         value: 100.
         norm_class_idx: 2
      -
         depth: 10
         value: 108.
         norm_class_idx: 3
      -
         depth: 9
         value: 100.
         norm_class_idx: 2
      -
         depth: 8
         value: 100.
         norm_class_idx: 2
      -
         depth: 7
         value: 100.
         norm_class_idx: 2
      -
         depth: 5
         value: 109.
         norm_class_idx: 4
         splits:
            - { var:307, quality:6.7803115844726562e+01,
                le:2.0650000000000000e+02 }
      -
         depth: 6
         value: 109.
         norm_class_idx: 4
         splits:
            - { var:190, quality:5.7370452880859375e+01, le:231. }
      -
         depth: 7
         value: 109.
         norm_class_idx: 4
         splits:
            - { var:403, quality:5.6184661865234375e+01,
                le:7.8500000000000000e+01 }
      -
         depth: 8
         value: 109.
         norm_class_idx: 4
         splits:
            - { var:109, quality:5.3959819793701172e+01,
                le:3.5500000000000000e+01 }
      -
         depth: 9
         value: 108.
         norm_class_idx: 3
      -
         depth: 9
         value: 109.
         norm_class_idx: 4
         splits:
            - { var:60, quality:5.4806449890136719e+01, le:254. }
      -
         depth: 10
         value: 100.
         norm_class_idx: 2
      -
         depth: 10
         value: 109.
         norm_class_idx: 4
      -
         depth: 8
         value: 100.
         norm_class_idx: 2
      -
         depth: 7
         value: 100.
         norm_class_idx: 2
         splits:
            - { var:79, quality:10., le:254. }
      -
         depth: 8
         value: 99.
         norm_class_idx: 1
      -
         depth: 8
         value: 100.
         norm_class_idx: 2
      -
         depth: 6
         value: 100.
         norm_class_idx: 2
         splits:
            - { var:397, quality:2.0347826004028320e+01,
                le:2.5500000000000000e+01 }
      -
         depth: 7
         value: 108.
         norm_class_idx: 3
      -
         depth: 7
         value: 100.
         norm_class_idx: 2
         splits:
            - { var:47, quality:2.1090909957885742e+01, le:21. }
      -
         depth: 8
         value: 109.
         norm_class_idx: 4
      -
         depth: 8
         value: 100.
         norm_class_idx: 2
         splits:
            - { var:64, quality:2.0666666030883789e+01,
                le:2.3050000000000000e+02 }
      -
         depth: 9
         value: 100.
         norm_class_idx: 2
      -
         depth: 9
         value: 100.
         norm_class_idx: 2
      -
         depth: 4
         value: 100.
         norm_class_idx: 2
         splits:
            - { var:403, quality:1.8695899963378906e+02,
                le:2.4500000000000000e+01 }
      -
         depth: 5
         value: 100.
         norm_class_idx: 2
         splits:
            - { var:403, quality:2.3095237731933594e+01,
                le:6.5000000000000000e+00 }
      -
         depth: 6
         value: 100.
         norm_class_idx: 2
      -
         depth: 6
         value: 109.
         norm_class_idx: 4
         splits:
            - { var:348, quality:1.4981818199157715e+01,
                le:1.6850000000000000e+02 }
      -
         depth: 7
         value: 109.
         norm_class_idx: 4
         splits:
            - { var:12, quality:11., le:254. }
      -
         depth: 8
         value: 100.
         norm_class_idx: 2
      -
         depth: 8
         value: 109.
         norm_class_idx: 4
      -
         depth: 7
         value: 100.
         norm_class_idx: 2
      -
         depth: 5
         value: 100.
         norm_class_idx: 2
         splits:
            - { var:291, quality:1.7352972412109375e+02, le:2. }
      -
         depth: 6
         value: 108.
         norm_class_idx: 3
      -
         depth: 6
         value: 100.
         norm_class_idx: 2
         splits:
            - { var:355, quality:1.7339131164550781e+02, le:12. }
      -
         depth: 7
         value: 109.
         norm_class_idx: 4
      -
         depth: 7
         value: 100.
         norm_class_idx: 2
         splits:
            - { var:183, quality:1.7364877319335938e+02,
                le:1.2250000000000000e+02 }
      -
         depth: 8
         value: 100.
         norm_class_idx: 2
         splits:
            - { var:165, quality:1.6444444656372070e+01,
                le:1.3350000000000000e+02 }
      -
         depth: 9
         value: 100.
         norm_class_idx: 2
         splits:
            - { var:263, quality:1.6666666030883789e+01,
                le:7.5000000000000000e+00 }
      -
         depth: 10
         value: 109.
         norm_class_idx: 4
      -
         depth: 10
         value: 100.
         norm_class_idx: 2
      -
         depth: 9
         value: 109.
         norm_class_idx: 4
      -
         depth: 8
         value: 100.
         norm_class_idx: 2
         splits:
            - { var:50, quality:1.6088888549804688e+02,
                le:9.1500000000000000e+01 }
      -
         depth: 9
         value: 100.
         norm_class_idx: 2
      -
         depth: 9
         value: 100.
         norm_class_idx: 2
      -
         depth: 2
         value: 100.
         norm_class_idx: 2
         splits:
            - { var:403, quality:2.1431115722656250e+02,
                le:7.5000000000000000e+00 }
      -
         depth: 3
         value: 100.
         norm_class_idx: 2
         splits:
            - { var:313, quality:7.3674697875976562e+01,
                le:1.5500000000000000e+01 }
      -
         depth: 4
         value: 109.
         norm_class_idx: 4
      -
         depth: 4
         value: 100.
         norm_class_idx: 2
         splits:
            - { var:101, quality:7.3512191772460938e+01, le:16. }
      -
         depth: 5
         value: 99.
         norm_class_idx: 1
      -
         depth: 5
         value: 100.
         norm_class_idx: 2
         splits:
            - { var:258, quality:7.4395065307617188e+01, le:5. }
      -
         depth: 6
         value: 99.
         norm_class_idx: 1
      -
         depth: 6
         value: 100.
         norm_class_idx: 2
         splits:
            - { var:377, quality:7.4705261230468750e+01,
                le:2.1550000000000000e+02 }
      -
         depth: 7
         value: 100.
         norm_class_idx: 2
      -
         depth: 7
         value: 100.
         norm_class_idx: 2
         splits:
            - { var:87, quality:7.3027023315429688e+01,
                le:2.5000000000000000e+00 }
      -
         depth: 8
         value: 100.
         norm_class_idx: 2
      -
         depth: 8
         value: 100.
         norm_class_idx: 2
         splits:
            - { var:89, quality:7.2666664123535156e+01, le:20. }
      -
         depth: 9
         value: 100.
         norm_class_idx: 2
      -
         depth: 9
         value: 100.
         norm_class_idx: 2
      -
         depth: 3
         value: 100.
         norm_class_idx: 2
         splits:
            - { var:400, quality:1.6446362304687500e+02,
                le:8.5000000000000000e+00 }
      -
         depth: 4
         value: 99.
         norm_class_idx: 1
         splits:
            - { var:403, quality:1.0574476623535156e+02,
                le:7.7500000000000000e+01 }
      -
         depth: 5
         value: 99.
         norm_class_idx: 1
         splits:
            - { var:368, quality:8.3084648132324219e+01, le:249. }
      -
         depth: 6
         value: 100.
         norm_class_idx: 2
         splits:
            - { var:256, quality:1.7200000762939453e+01,
                le:6.9500000000000000e+01 }
      -
         depth: 7
         value: 99.
         norm_class_idx: 1
      -
         depth: 7
         value: 100.
         norm_class_idx: 2
         splits:
            - { var:330, quality:1.8111110687255859e+01,
                le:2.6500000000000000e+01 }
      -
         depth: 8
         value: 99.
         norm_class_idx: 1
      -
         depth: 8
         value: 100.
         norm_class_idx: 2
         splits:
            - { var:11, quality:18., le:2.5450000000000000e+02 }
      -
         depth: 9
         value: 109.
         norm_class_idx: 4
      -
         depth: 9
         value: 100.
         norm_class_idx: 2
      -
         depth: 6
         value: 99.
         norm_class_idx: 1
         splits:
            - { var:403, quality:7.8960739135742188e+01,
                le:2.0500000000000000e+01 }
      -
         depth: 7
         value: 100.
         norm_class_idx: 2
         splits:
            - { var:302, quality:2.1700000762939453e+01, le:72. }
      -
         depth: 8
         value: 99.
         norm_class_idx: 1
      -
         depth: 8
         value: 100.
         norm_class_idx: 2
         splits:
            - { var:203, quality:1.8111110687255859e+01, le:2. }
      -
         depth: 9
         value: 99.
         norm_class_idx: 1
      -
         depth: 9
         value: 100.
         norm_class_idx: 2
         splits:
            - { var:21, quality:18., le:247. }
      -
         depth: 10
         value: 109.
         norm_class_idx: 4
      -
         depth: 10
         value: 100.
         norm_class_idx: 2
      -
         depth: 7
         value: 99.
         norm_class_idx: 1
         splits:
            - { var:129, quality:6.8950355529785156e+01,
                le:2.6500000000000000e+01 }
      -
         depth: 8
         value: 100.
         norm_class_idx: 2
      -
         depth: 8
         value: 99.
         norm_class_idx: 1
         splits:
            - { var:11, quality:6.9543479919433594e+01,
                le:8.4500000000000000e+01 }
      -
         depth: 9
         value: 100.
         norm_class_idx: 2
      -
         depth: 9
         value: 99.
         norm_class_idx: 1
         splits:
            - { var:403, quality:7.0430252075195312e+01,
                le:7.2500000000000000e+01 }
      -
         depth: 10
         value: 99.
         norm_class_idx: 1
      -
         depth: 10
         value: 100.
         norm_class_idx: 2
      -
         depth: 5
         value: 100.
         norm_class_idx: 2
         splits:
            - { var:39, quality:3.5057144165039062e+01,
                le:3.5000000000000000e+00 }
      -
         depth: 6
         value: 99.
         norm_class_idx: 1
      -
         depth: 6
         value: 100.
         norm_class_idx: 2
         splits:
            - { var:269, quality:35., le:6.5000000000000000e+00 }
      -
         depth: 7
         value: 99.
         norm_class_idx: 1
      -
         depth: 7
         value: 100.
         norm_class_idx: 2
      -
         depth: 4
         value: 100.
         norm_class_idx: 2
         splits:
            - { var:296, quality:9.4848564147949219e+01,
                le:2.0750000000000000e+02 }
      -
         depth: 5
         value: 109.
         norm_class_idx: 4
         splits:
            - { var:398, quality:4.2643939971923828e+01,
                le:2.4250000000000000e+02 }
      -
         depth: 6
         value: 100.
         norm_class_idx: 2
      -
         depth: 6
         value: 109.
         norm_class_idx: 4
         splits:
            - { var:89, quality:4.1944442749023438e+01,
                le:5.9500000000000000e+01 }
      -
         depth: 7
         value: 100.
         norm_class_idx: 2
         splits:
            - { var:68, quality:8.2500000000000000e+00,
                le:1.9500000000000000e+01 }
      -
         depth: 8
         value: 99.
         norm_class_idx: 1
      -
         depth: 8
         value: 100.
         norm_class_idx: 2
      -
         depth: 7
         value: 109.
         norm_class_idx: 4
         splits:
            - { var:62, quality:4.1733585357666016e+01, le:43. }
      -
         depth: 8
         value: 99.
         norm_class_idx: 1
         splits:
            - { var:214, quality:8., le:7.0500000000000000e+01 }
      -
         depth: 9
         value: 100.
         norm_class_idx: 2
      -
         depth: 9
         value: 99.
         norm_class_idx: 1
      -
         depth: 8
         value: 109.
         norm_class_idx: 4
         splits:
            - { var:235, quality:3.9049999237060547e+01, le:19. }
      -
         depth: 9
         value: 100.
         norm_class_idx: 2
      -
         depth: 9
         value: 109.
         norm_class_idx: 4
         splits:
            - { var:261, quality:39., le:6.1500000000000000e+01 }
      -
         depth: 10
         value: 100.
         norm_class_idx: 2
      -
         depth: 10
         value: 109.
         norm_class_idx: 4
      -
         depth: 5
         value: 100.
         norm_class_idx: 2
         splits:
            - { var:122, quality:6.9251159667968750e+01,
                le:2.3850000000000000e+02 }
      -
         depth: 6
         value: 99.
         norm_class_idx: 1
         splits:
            - { var:191, quality:2.3399999618530273e+01, le:249. }
      -
         depth: 7
         value: 100.
         norm_class_idx: 2
         splits:
            - { var:287, quality:1.4133333206176758e+01,
                le:9.6500000000000000e+01 }
      -
         depth: 8
         value: 109.
         norm_class_idx: 4
      -
         depth: 8
         value: 100.
         norm_class_idx: 2
         splits:
            - { var:241, quality:1.2333333015441895e+01,
                le:1.7750000000000000e+02 }
      -
         depth: 9
         value: 109.
         norm_class_idx: 4
      -
         depth: 9
         value: 100.
         norm_class_idx: 2
      -
         depth: 7
         value: 99.
         norm_class_idx: 1
         splits:
            - { var:128, quality:1.8117647171020508e+01,
                le:1.7750000000000000e+02 }
      -
         depth: 8
         value: 109.
         norm_class_idx: 4
      -
         depth: 8
         value: 99.
         norm_class_idx: 1
         splits:
            - { var:403, quality:17., le:17. }
      -
         depth: 9
         value: 100.
         norm_class_idx: 2
      -
         depth: 9
         value: 99.
         norm_class_idx: 1
      -
         depth: 6
         value: 100.
         norm_class_idx: 2
         splits:
            - { var:321, quality:6.2456348419189453e+01,
                le:1.4550000000000000e+02 }
      -
         depth: 7
         value: 99.
         norm_class_idx: 1
         splits:
            - { var:403, quality:1.2222222328186035e+01, le:72. }
      -
         depth: 8
         value: 99.
         norm_class_idx: 1
      -
         depth: 8
         value: 100.
         norm_class_idx: 2
      -
         depth: 7
         value: 100.
         norm_class_idx: 2
         splits:
            - { var:227, quality:5.9419353485107422e+01,
                le:4.8500000000000000e+01 }
      -
         depth: 8
         value: 100.
         norm_class_idx: 2
      -
         depth: 8
         value: 100.
         norm_class_idx: 2
         splits:
            - { var:98, quality:5.6768360137939453e+01,
                le:7.5500000000000000e+01 }
      -
         depth: 9
         value: 109.
         norm_class_idx: 4
      -
         depth: 9
         value: 100.
         norm_class_idx: 2
         splits:
            - { var:43, quality:5.7034481048583984e+01, le:4. }
      -
         depth: 10
         value: 109.
         norm_class_idx: 4
      -
         depth: 10
         value: 100.
         norm_class_idx: 2
      -
         depth: 1
         value: 109.
         norm_class_idx: 4
         splits:
            - { var:401, quality:1.5566191406250000e+03,
                le:6.5000000000000000e+00 }
      -
         depth: 2
         value: 108.
         norm_class_idx: 3
         splits:
            - { var:403, quality:3.6513537597656250e+02,
                le:6.5500000000000000e+01 }
      -
         depth: 3
         value: 108.
         norm_class_idx: 3
         splits:
            - { var:403, quality:3.6584948730468750e+02, le:19. }
      -
         depth: 4
         value: 108.
         norm_class_idx: 3
         splits:
            - { var:400, quality:6.0232803344726562e+01, le:24. }
      -
         depth: 5
         value: 100.
         norm_class_idx: 2
         splits:
            - { var:87, quality:2.5083333969116211e+01, le:21. }
      -
         depth: 6
         value: 108.
         norm_class_idx: 3
      -
         depth: 6
         value: 100.
         norm_class_idx: 2
         splits:
            - { var:14, quality:24., le:11. }
      -
         depth: 7
         value: 108.
         norm_class_idx: 3
      -
         depth: 7
         value: 100.
         norm_class_idx: 2
      -
         depth: 5
         value: 108.
         norm_class_idx: 3
         splits:
            - { var:16, quality:42., le:9.9500000000000000e+01 }
      -
         depth: 6
         value: 100.
         norm_class_idx: 2
      -
         depth: 6
         value: 108.
         norm_class_idx: 3
      -
         depth: 4
         value: 108.
         norm_class_idx: 3
         splits:
            - { var:230, quality:3.3782183837890625e+02,
                le:1.7650000000000000e+02 }
      -
         depth: 5
         value: 108.
         norm_class_idx: 3
         splits:
            - { var:55, quality:3.2331790161132812e+02, le:72. }
      -
         depth: 6
         value: 108.
         norm_class_idx: 3
         splits:
            - { var:386, quality:1.9250000000000000e+01,
                le:2.5450000000000000e+02 }
      -
         depth: 7
         value: 108.
         norm_class_idx: 3
      -
         depth: 7
         value: 100.
         norm_class_idx: 2
      -
         depth: 6
         value: 108.
         norm_class_idx: 3
         splits:
            - { var:120, quality:3.1219195556640625e+02, le:9. }
      -
         depth: 7
         value: 100.
         norm_class_idx: 2
      -
         depth: 7
         value: 108.
         norm_class_idx: 3
         splits:
            - { var:195, quality:3.1313043212890625e+02,
                le:2.2500000000000000e+01 }
      -
         depth: 8
         value: 109.
         norm_class_idx: 4
      -
         depth: 8
         value: 108.
         norm_class_idx: 3
         splits:
            - { var:322, quality:3.1321954345703125e+02, le:207. }
      -
         depth: 9
         value: 108.
         norm_class_idx: 3
         splits:
            - { var:225, quality:15., le:2.3150000000000000e+02 }
      -
         depth: 10
         value: 108.
         norm_class_idx: 3
      -
         depth: 10
         value: 109.
         norm_class_idx: 4
      -
         depth: 9
         value: 108.
         norm_class_idx: 3
         splits:
            - { var:215, quality:3.0400656127929688e+02,
                le:3.0500000000000000e+01 }
      -
         depth: 10
         value: -1.
         norm_class_idx: 0
      -
         depth: 10
         value: 108.
         norm_class_idx: 3
      -
         depth: 5
         value: 108.
         norm_class_idx: 3
         splits:
            - { var:309, quality:2.2740739822387695e+01,
                le:9.1500000000000000e+01 }
      -
         depth: 6
         value: 109.
         norm_class_idx: 4
         splits:
            - { var:186, quality:15., le:8.2500000000000000e+01 }
      -
         depth: 7
         value: 108.
         norm_class_idx: 3
      -
         depth: 7
         value: 109.
         norm_class_idx: 4
      -
         depth: 6
         value: 108.
         norm_class_idx: 3
         splits:
            - { var:194, quality:2.0230770111083984e+01,
                le:2.3550000000000000e+02 }
      -
         depth: 7
         value: 108.
         norm_class_idx: 3
      -
         depth: 7
         value: 100.
         norm_class_idx: 2
         splits:
            - { var:184, quality:10., le:1.7450000000000000e+02 }
      -
         depth: 8
         value: 108.
         norm_class_idx: 3
      -
         depth: 8
         value: 100.
         norm_class_idx: 2
      -
         depth: 3
         value: 100.
         norm_class_idx: 2
         splits:
            - { var:258, quality:1.2166666984558105e+01, le:254. }
      -
         depth: 4
         value: 108.
         norm_class_idx: 3
      -
         depth: 4
         value: 100.
         norm_class_idx: 2
         splits:
            - { var:32, quality:12., le:26. }
      -
         depth: 5
         value: 108.
         norm_class_idx: 3
      -
         depth: 5
         value: 100.
         norm_class_idx: 2
      -
         depth: 2
         value: 109.
         norm_class_idx: 4
         splits:
            - { var:400, quality:1.2879422607421875e+03,
                le:5.1500000000000000e+01 }
      -
         depth: 3
         value: 109.
         norm_class_idx: 4
         splits:
            - { var:400, quality:1.2290996093750000e+03,
                le:1.9500000000000000e+01 }
      -
         depth: 4
         value: 109.
         norm_class_idx: 4
         splits:
            - { var:403, quality:4.2034494018554688e+02,
                le:7.6500000000000000e+01 }
      -
         depth: 5
         value: 109.
         norm_class_idx: 4
         splits:
            - { var:403, quality:4.0869378662109375e+02,
                le:1.5000000000000000e+00 }
      -
         depth: 6
         value: 100.
         norm_class_idx: 2
         splits:
            - { var:274, quality:5.6192981719970703e+01,
                le:5.3500000000000000e+01 }
      -
         depth: 7
         value: 109.
         norm_class_idx: 4
         splits:
            - { var:36, quality:12., le:6. }
      -
         depth: 8
         value: 100.
         norm_class_idx: 2
      -
         depth: 8
         value: 109.
         norm_class_idx: 4
      -
         depth: 7
         value: 100.
         norm_class_idx: 2
         splits:
            - { var:141, quality:5.5563636779785156e+01, le:98. }
      -
         depth: 8
         value: 109.
         norm_class_idx: 4
      -
         depth: 8
         value: 100.
         norm_class_idx: 2
         splits:
            - { var:341, quality:5.3387096405029297e+01,
                le:8.8500000000000000e+01 }
      -
         depth: 9
         value: 109.
         norm_class_idx: 4
      -
         depth: 9
         value: 100.
         norm_class_idx: 2
         splits:
            - { var:66, quality:5.2700000762939453e+01, le:10. }
      -
         depth: 10
         value: 109.
         norm_class_idx: 4
      -
         depth: 10
         value: 100.
         norm_class_idx: 2
      -
         depth: 6
         value: 109.
         norm_class_idx: 4
         splits:
            - { var:260, quality:3.7938256835937500e+02, le:100. }
      -
         depth: 7
         value: 100.
         norm_class_idx: 2
      -
         depth: 7
         value: 109.
         norm_class_idx: 4
         splits:
            - { var:378, quality:3.7842062377929688e+02,
                le:1.5150000000000000e+02 }
      -
         depth: 8
         value: 99.
         norm_class_idx: 1
         splits:
            - { var:307, quality:2.0178571701049805e+01,
                le:1.0850000000000000e+02 }
      -
         depth: 9
         value: 100.
         norm_class_idx: 2
      -
         depth: 9
         value: 99.
         norm_class_idx: 1
         splits:
            - { var:302, quality:21., le:1.1650000000000000e+02 }
      -
         depth: 10
         value: 109.
         norm_class_idx: 4
      -
         depth: 10
         value: 99.
         norm_class_idx: 1
      -
         depth: 8
         value: 109.
         norm_class_idx: 4
         splits:
            - { var:119, quality:3.7658267211914062e+02, le:82. }
      -
         depth: 9
         value: 100.
         norm_class_idx: 2
         splits:
            - { var:401, quality:1.0500000000000000e+01,
                le:1.3500000000000000e+01 }
      -
         depth: 10
         value: 100.
         norm_class_idx: 2
      -
         depth: 10
         value: 99.
         norm_class_idx: 1
      -
         depth: 9
         value: 109.
         norm_class_idx: 4
         splits:
            - { var:73, quality:3.7845941162109375e+02,
                le:1.7500000000000000e+01 }
      -
         depth: 10
         value: 109.
         norm_class_idx: 4
      -
         depth: 10
         value: 109.
         norm_class_idx: 4
      -
         depth: 5
         value: 100.
         norm_class_idx: 2
         splits:
            - { var:201, quality:4.5031913757324219e+01,
                le:1.9050000000000000e+02 }
      -
         depth: 6
         value: 109.
         norm_class_idx: 4
         splits:
            - { var:173, quality:13., le:254. }
      -
         depth: 7
         value: 109.
         norm_class_idx: 4
      -
         depth: 7
         value: 100.
         norm_class_idx: 2
      -
         depth: 6
         value: 100.
         norm_class_idx: 2
         splits:
            - { var:268, quality:4.0538459777832031e+01,
                le:5.3500000000000000e+01 }
      -
         depth: 7
         value: 100.
         norm_class_idx: 2
         splits:
            - { var:344, quality:1.1250000000000000e+01, le:254. }
      -
         depth: 8
         value: 100.
         norm_class_idx: 2
      -
         depth: 8
         value: 109.
         norm_class_idx: 4
      -
         depth: 7
         value: 100.
         norm_class_idx: 2
      -
         depth: 4
         value: 109.
         norm_class_idx: 4
         splits:
            - { var:378, quality:8.4975189208984375e+02,
                le:2.5150000000000000e+02 }
      -
         depth: 5
         value: 109.
         norm_class_idx: 4
         splits:
            - { var:401, quality:6.1421928405761719e+01,
                le:1.0500000000000000e+01 }
      -
         depth: 6
         value: 108.
         norm_class_idx: 3
         splits:
            - { var:395, quality:2.9064935684204102e+01,
                le:2.3550000000000000e+02 }
      -
         depth: 7
         value: 108.
         norm_class_idx: 3
         splits:
            - { var:73, quality:2.0100000381469727e+01, le:53. }
      -
         depth: 8
         value: 109.
         norm_class_idx: 4
      -
         depth: 8
         value: 108.
         norm_class_idx: 3
         splits:
            - { var:20, quality:20., le:247. }
      -
         depth: 9
         value: 100.
         norm_class_idx: 2
      -
         depth: 9
         value: 108.
         norm_class_idx: 3
      -
         depth: 7
         value: 109.
         norm_class_idx: 4
         splits:
            - { var:272, quality:1.9125000000000000e+01, le:55. }
      -
         depth: 8
         value: 108.
         norm_class_idx: 3
      -
         depth: 8
         value: 109.
         norm_class_idx: 4
         splits:
            - { var:0, quality:16., le:2.5450000000000000e+02 }
      -
         depth: 9
         value: 108.
         norm_class_idx: 3
      -
         depth: 9
         value: 109.
         norm_class_idx: 4
      -
         depth: 6
         value: 109.
         norm_class_idx: 4
         splits:
            - { var:157, quality:4.8047008514404297e+01,
                le:7.8500000000000000e+01 }
      -
         depth: 7
         value: 99.
         norm_class_idx: 1
         splits:
            - { var:245, quality:1.6285715103149414e+01,
                le:2.5050000000000000e+02 }
      -
         depth: 8
         value: 109.
         norm_class_idx: 4
      -
         depth: 8
         value: 99.
         norm_class_idx: 1
      -
         depth: 7
         value: 109.
         norm_class_idx: 4
         splits:
            - { var:47, quality:4.1442176818847656e+01, le:10. }
      -
         depth: 8
         value: 100.
         norm_class_idx: 2
      -
         depth: 8
         value: 109.
         norm_class_idx: 4
         splits:
            - { var:34, quality:4.1541667938232422e+01, le:9. }
      -
         depth: 9
         value: 108.
         norm_class_idx: 3
      -
         depth: 9
         value: 109.
         norm_class_idx: 4
         splits:
            - { var:307, quality:4.2382980346679688e+01,
                le:1.8500000000000000e+01 }
      -
         depth: 10
         value: 108.
         norm_class_idx: 3
      -
         depth: 10
         value: 109.
         norm_class_idx: 4
      -
         depth: 5
         value: 109.
         norm_class_idx: 4
         splits:
            - { var:403, quality:8.0726800537109375e+02,
                le:5.0000000000000000e-01 }
      -
         depth: 6
         value: 109.
         norm_class_idx: 4
         splits:
            - { var:305, quality:2.2413793563842773e+01,
                le:9.2500000000000000e+01 }
      -
         depth: 7
         value: 100.
         norm_class_idx: 2
      -
         depth: 7
         value: 109.
         norm_class_idx: 4
         splits:
            - { var:329, quality:2.1284313201904297e+01, le:234. }
      -
         depth: 8
         value: 100.
         norm_class_idx: 2
         splits:
            - { var:313, quality:12., le:74. }
      -
         depth: 9
         value: 109.
         norm_class_idx: 4
      -
         depth: 9
         value: 100.
         norm_class_idx: 2
      -
         depth: 8
         value: 109.
         norm_class_idx: 4
         splits:
            - { var:3, quality:17., le:5.1500000000000000e+01 }
      -
         depth: 9
         value: 100.
         norm_class_idx: 2
      -
         depth: 9
         value: 109.
         norm_class_idx: 4
      -
         depth: 6
         value: 109.
         norm_class_idx: 4
         splits:
            - { var:403, quality:7.9383349609375000e+02,
                le:7.5500000000000000e+01 }
      -
         depth: 7
         value: 109.
         norm_class_idx: 4
         splits:
            - { var:24, quality:7.9293414306640625e+02,
                le:3.4500000000000000e+01 }
      -
         depth: 8
         value: 109.
         norm_class_idx: 4
         splits:
            - { var:197, quality:2.7047618865966797e+01, le:31. }
      -
         depth: 9
         value: 99.
         norm_class_idx: 1
      -
         depth: 9
         value: 109.
         norm_class_idx: 4
         splits:
            - { var:16, quality:2.8289474487304688e+01,
                le:2.5450000000000000e+02 }
      -
         depth: 10
         value: 108.
         norm_class_idx: 3
      -
         depth: 10
         value: 109.
         norm_class_idx: 4
      -
         depth: 8
         value: 109.
         norm_class_idx: 4
         splits:
            - { var:281, quality:7.7262646484375000e+02,
                le:7.5000000000000000e+00 }
      -
         depth: 9
         value: 99.
         norm_class_idx: 1
      -
         depth: 9
         value: 109.
         norm_class_idx: 4
         splits:
            - { var:401, quality:7.7224102783203125e+02,
                le:7.5000000000000000e+00 }
      -
         depth: 10
         value: 109.
         norm_class_idx: 4
      -
         depth: 10
         value: 109.
         norm_class_idx: 4
      -
         depth: 7
         value: 100.
         norm_class_idx: 2
         splits:
            - { var:34, quality:7.8571429252624512e+00, le:94. }
      -
         depth: 8
         value: 109.
         norm_class_idx: 4
      -
         depth: 8
         value: 100.
         norm_class_idx: 2
      -
         depth: 3
         value: 108.
         norm_class_idx: 3
         splits:
            - { var:401, quality:2.0212065124511719e+02,
                le:1.5500000000000000e+01 }
      -
         depth: 4
         value: 108.
         norm_class_idx: 3
         splits:
            - { var:121, quality:1.2195384979248047e+02, le:202. }
      -
         depth: 5
         value: 109.
         norm_class_idx: 4
      -
         depth: 5
         value: 108.
         norm_class_idx: 3
         splits:
            - { var:400, quality:1.2091863250732422e+02, le:105. }
      -
         depth: 6
         value: 108.
         norm_class_idx: 3
         splits:
            - { var:11, quality:1.2114286041259766e+02, le:4. }
      -
         depth: 7
         value: 109.
         norm_class_idx: 4
      -
         depth: 7
         value: 108.
         norm_class_idx: 3
         splits:
            - { var:239, quality:1.2206400299072266e+02,
                le:2.5450000000000000e+02 }
      -
         depth: 8
         value: 109.
         norm_class_idx: 4
      -
         depth: 8
         value: 108.
         norm_class_idx: 3
         splits:
            - { var:317, quality:1.2201625823974609e+02,
                le:2.4500000000000000e+01 }
      -
         depth: 9
         value: 108.
         norm_class_idx: 3
      -
         depth: 9
         value: 108.
         norm_class_idx: 3
         splits:
            - { var:33, quality:1.2140000152587891e+02, le:16. }
      -
         depth: 10
         value: 108.
         norm_class_idx: 3
      -
         depth: 10
         value: 108.
         norm_class_idx: 3
      -
         depth: 6
         value: 109.
         norm_class_idx: 4
      -
         depth: 4
         value: 109.
         norm_class_idx: 4
         splits:
            - { var:38, quality:8.9858154296875000e+01, le:99. }
      -
         depth: 5
         value: 108.
         norm_class_idx: 3
      -
         depth: 5
         value: 109.
         norm_class_idx: 4
         splits:
            - { var:152, quality:9.0688644409179688e+01,
                le:3.0500000000000000e+01 }
      -
         depth: 6
         value: 108.
         norm_class_idx: 3
      -
         depth: 6
         value: 109.
         norm_class_idx: 4
         splits:
            - { var:90, quality:91., le:20. }
      -
         depth: 7
         value: 108.
         norm_class_idx: 3
      -
         depth: 7
         value: 109.
         norm_class_idx: 4
