%YAML:1.0
---
opencv_ml_dtree:
   format: 3
   is_classifier: 1
   var_all: 421
   var_count: 420
   ord_var_count: 420
   cat_var_count: 1
   training_params:
      use_surrogates: 0
      max_categories: 15
      regression_accuracy: 9.9999997764825821e-03
      max_depth: 10
      min_sample_count: 10
      cross_validation_folds: 0
   global_var_idx: 1
   var_idx: [ 0, 1, 2, 3, 4, 5, 6, 7, 8, 9, 10, 11, 12, 13, 14, 15, 16,
       17, 18, 19, 20, 21, 22, 23, 24, 25, 26, 27, 28, 29, 30, 31, 32,
       33, 34, 35, 36, 37, 38, 39, 40, 41, 42, 43, 44, 45, 46, 47, 48,
       49, 50, 51, 52, 53, 54, 55, 56, 57, 58, 59, 60, 61, 62, 63, 64,
       65, 66, 67, 68, 69, 70, 71, 72, 73, 74, 75, 76, 77, 78, 79, 80,
       81, 82, 83, 84, 85, 86, 87, 88, 89, 90, 91, 92, 93, 94, 95, 96,
       97, 98, 99, 100, 101, 102, 103, 104, 105, 106, 107, 108, 109, 110,
       111, 112, 113, 114, 115, 116, 117, 118, 119, 120, 121, 122, 123,
       124, 125, 126, 127, 128, 129, 130, 131, 132, 133, 134, 135, 136,
       137, 138, 139, 140, 141, 142, 143, 144, 145, 146, 147, 148, 149,
       150, 151, 152, 153, 154, 155, 156, 157, 158, 159, 160, 161, 162,
       163, 164, 165, 166, 167, 168, 169, 170, 171, 172, 173, 174, 175,
       176, 177, 178, 179, 180, 181, 182, 183, 184, 185, 186, 187, 188,
       189, 190, 191, 192, 193, 194, 195, 196, 197, 198, 199, 200, 201,
       202, 203, 204, 205, 206, 207, 208, 209, 210, 211, 212, 213, 214,
       215, 216, 217, 218, 219, 220, 221, 222, 223, 224, 225, 226, 227,
       228, 229, 230, 231, 232, 233, 234, 235, 236, 237, 238, 239, 240,
       241, 242, 243, 244, 245, 246, 247, 248, 249, 250, 251, 252, 253,
       254, 255, 256, 257, 258, 259, 260, 261, 262, 263, 264, 265, 266,
       267, 268, 269, 270, 271, 272, 273, 274, 275, 276, 277, 278, 279,
       280, 281, 282, 283, 284, 285, 286, 287, 288, 289, 290, 291, 292,
       293, 294, 295, 296, 297, 298, 299, 300, 301, 302, 303, 304, 305,
       306, 307, 308, 309, 310, 311, 312, 313, 314, 315, 316, 317, 318,
       319, 320, 321, 322, 323, 324, 325, 326, 327, 328, 329, 330, 331,
       332, 333, 334, 335, 336, 337, 338, 339, 340, 341, 342, 343, 344,
       345, 346, 347, 348, 349, 350, 351, 352, 353, 354, 355, 356, 357,
       358, 359, 360, 361, 362, 363, 364, 365, 366, 367, 368, 369, 370,
       371, 372, 373, 374, 375, 376, 377, 378, 379, 380, 381, 382, 383,
       384, 385, 386, 387, 388, 389, 390, 391, 392, 393, 394, 395, 396,
       397, 398, 399, 400, 401, 402, 403, 404, 405, 406, 407, 408, 409,
       410, 411, 412, 413, 414, 415, 416, 417, 418, 419 ]
   var_type: [ 0, 0, 0, 0, 0, 0, 0, 0, 0, 0, 0, 0, 0, 0, 0, 0, 0, 0, 0,
       0, 0, 0, 0, 0, 0, 0, 0, 0, 0, 0, 0, 0, 0, 0, 0, 0, 0, 0, 0, 0, 0,
       0, 0, 0, 0, 0, 0, 0, 0, 0, 0, 0, 0, 0, 0, 0, 0, 0, 0, 0, 0, 0, 0,
       0, 0, 0, 0, 0, 0, 0, 0, 0, 0, 0, 0, 0, 0, 0, 0, 0, 0, 0, 0, 0, 0,
       0, 0, 0, 0, 0, 0, 0, 0, 0, 0, 0, 0, 0, 0, 0, 0, 0, 0, 0, 0, 0, 0,
       0, 0, 0, 0, 0, 0, 0, 0, 0, 0, 0, 0, 0, 0, 0, 0, 0, 0, 0, 0, 0, 0,
       0, 0, 0, 0, 0, 0, 0, 0, 0, 0, 0, 0, 0, 0, 0, 0, 0, 0, 0, 0, 0, 0,
       0, 0, 0, 0, 0, 0, 0, 0, 0, 0, 0, 0, 0, 0, 0, 0, 0, 0, 0, 0, 0, 0,
       0, 0, 0, 0, 0, 0, 0, 0, 0, 0, 0, 0, 0, 0, 0, 0, 0, 0, 0, 0, 0, 0,
       0, 0, 0, 0, 0, 0, 0, 0, 0, 0, 0, 0, 0, 0, 0, 0, 0, 0, 0, 0, 0, 0,
       0, 0, 0, 0, 0, 0, 0, 0, 0, 0, 0, 0, 0, 0, 0, 0, 0, 0, 0, 0, 0, 0,
       0, 0, 0, 0, 0, 0, 0, 0, 0, 0, 0, 0, 0, 0, 0, 0, 0, 0, 0, 0, 0, 0,
       0, 0, 0, 0, 0, 0, 0, 0, 0, 0, 0, 0, 0, 0, 0, 0, 0, 0, 0, 0, 0, 0,
       0, 0, 0, 0, 0, 0, 0, 0, 0, 0, 0, 0, 0, 0, 0, 0, 0, 0, 0, 0, 0, 0,
       0, 0, 0, 0, 0, 0, 0, 0, 0, 0, 0, 0, 0, 0, 0, 0, 0, 0, 0, 0, 0, 0,
       0, 0, 0, 0, 0, 0, 0, 0, 0, 0, 0, 0, 0, 0, 0, 0, 0, 0, 0, 0, 0, 0,
       0, 0, 0, 0, 0, 0, 0, 0, 0, 0, 0, 0, 0, 0, 0, 0, 0, 0, 0, 0, 0, 0,
       0, 0, 0, 0, 0, 0, 0, 0, 0, 0, 0, 0, 0, 0, 0, 0, 0, 0, 0, 0, 0, 0,
       0, 0, 0, 0, 0, 0, 0, 0, 0, 0, 0, 0, 0, 0, 0, 0, 0, 0, 0, 0, 0, 0,
       0, 0, 0, 0, 0, 1 ]
   cat_ofs: [ 0, 0, 0, 0, 0, 0, 0, 0, 0, 0, 0, 0, 0, 0, 0, 0, 0, 0, 0, 0,
       0, 0, 0, 0, 0, 0, 0, 0, 0, 0, 0, 0, 0, 0, 0, 0, 0, 0, 0, 0, 0, 0,
       0, 0, 0, 0, 0, 0, 0, 0, 0, 0, 0, 0, 0, 0, 0, 0, 0, 0, 0, 0, 0, 0,
       0, 0, 0, 0, 0, 0, 0, 0, 0, 0, 0, 0, 0, 0, 0, 0, 0, 0, 0, 0, 0, 0,
       0, 0, 0, 0, 0, 0, 0, 0, 0, 0, 0, 0, 0, 0, 0, 0, 0, 0, 0, 0, 0, 0,
       0, 0, 0, 0, 0, 0, 0, 0, 0, 0, 0, 0, 0, 0, 0, 0, 0, 0, 0, 0, 0, 0,
       0, 0, 0, 0, 0, 0, 0, 0, 0, 0, 0, 0, 0, 0, 0, 0, 0, 0, 0, 0, 0, 0,
       0, 0, 0, 0, 0, 0, 0, 0, 0, 0, 0, 0, 0, 0, 0, 0, 0, 0, 0, 0, 0, 0,
       0, 0, 0, 0, 0, 0, 0, 0, 0, 0, 0, 0, 0, 0, 0, 0, 0, 0, 0, 0, 0, 0,
       0, 0, 0, 0, 0, 0, 0, 0, 0, 0, 0, 0, 0, 0, 0, 0, 0, 0, 0, 0, 0, 0,
       0, 0, 0, 0, 0, 0, 0, 0, 0, 0, 0, 0, 0, 0, 0, 0, 0, 0, 0, 0, 0, 0,
       0, 0, 0, 0, 0, 0, 0, 0, 0, 0, 0, 0, 0, 0, 0, 0, 0, 0, 0, 0, 0, 0,
       0, 0, 0, 0, 0, 0, 0, 0, 0, 0, 0, 0, 0, 0, 0, 0, 0, 0, 0, 0, 0, 0,
       0, 0, 0, 0, 0, 0, 0, 0, 0, 0, 0, 0, 0, 0, 0, 0, 0, 0, 0, 0, 0, 0,
       0, 0, 0, 0, 0, 0, 0, 0, 0, 0, 0, 0, 0, 0, 0, 0, 0, 0, 0, 0, 0, 0,
       0, 0, 0, 0, 0, 0, 0, 0, 0, 0, 0, 0, 0, 0, 0, 0, 0, 0, 0, 0, 0, 0,
       0, 0, 0, 0, 0, 0, 0, 0, 0, 0, 0, 0, 0, 0, 0, 0, 0, 0, 0, 0, 0, 0,
       0, 0, 0, 0, 0, 0, 0, 0, 0, 0, 0, 0, 0, 0, 0, 0, 0, 0, 0, 0, 0, 0,
       0, 0, 0, 0, 0, 0, 0, 0, 0, 0, 0, 0, 0, 0, 0, 0, 0, 0, 0, 0, 0, 0,
       0, 0, 0, 0, 0, 0, 0, 0, 0, 0, 0, 0, 0, 0, 0, 0, 0, 0, 0, 0, 0, 0,
       0, 0, 0, 0, 0, 0, 0, 0, 0, 0, 0, 0, 0, 0, 0, 0, 0, 0, 0, 0, 0, 0,
       0, 0, 0, 0, 0, 0, 0, 0, 0, 0, 0, 0, 0, 0, 0, 0, 0, 0, 0, 0, 0, 0,
       0, 0, 0, 0, 0, 0, 0, 0, 0, 0, 0, 0, 0, 0, 0, 0, 0, 0, 0, 0, 0, 0,
       0, 0, 0, 0, 0, 0, 0, 0, 0, 0, 0, 0, 0, 0, 0, 0, 0, 0, 0, 0, 0, 0,
       0, 0, 0, 0, 0, 0, 0, 0, 0, 0, 0, 0, 0, 0, 0, 0, 0, 0, 0, 0, 0, 0,
       0, 0, 0, 0, 0, 0, 0, 0, 0, 0, 0, 0, 0, 0, 0, 0, 0, 0, 0, 0, 0, 0,
       0, 0, 0, 0, 0, 0, 0, 0, 0, 0, 0, 0, 0, 0, 0, 0, 0, 0, 0, 0, 0, 0,
       0, 0, 0, 0, 0, 0, 0, 0, 0, 0, 0, 0, 0, 0, 0, 0, 0, 0, 0, 0, 0, 0,
       0, 0, 0, 0, 0, 0, 0, 0, 0, 0, 0, 0, 0, 0, 0, 0, 0, 0, 0, 0, 0, 0,
       0, 0, 0, 0, 0, 0, 0, 0, 0, 0, 0, 0, 0, 0, 0, 0, 0, 0, 0, 0, 0, 0,
       0, 0, 0, 0, 0, 0, 0, 0, 0, 0, 0, 0, 0, 0, 0, 0, 0, 0, 0, 0, 0, 0,
       0, 0, 0, 0, 0, 0, 0, 0, 0, 0, 0, 0, 0, 0, 0, 0, 0, 0, 0, 0, 0, 0,
       0, 0, 0, 0, 0, 0, 0, 0, 0, 0, 0, 0, 0, 0, 0, 0, 0, 0, 0, 0, 0, 0,
       0, 0, 0, 0, 0, 0, 0, 0, 0, 0, 0, 0, 0, 0, 0, 0, 0, 0, 0, 0, 0, 0,
       0, 0, 0, 0, 0, 0, 0, 0, 0, 0, 0, 0, 0, 0, 0, 0, 0, 0, 0, 0, 0, 0,
       0, 0, 0, 0, 0, 0, 0, 0, 0, 0, 0, 0, 0, 0, 0, 0, 0, 0, 0, 0, 0, 0,
       0, 0, 0, 0, 0, 0, 0, 0, 0, 0, 0, 0, 0, 0, 0, 0, 0, 0, 0, 0, 0, 0,
       0, 0, 0, 0, 0, 0, 0, 0, 0, 0, 0, 0, 0, 0, 0, 0, 0, 0, 0, 0, 0, 0,
       0, 0, 0, 0, 0, 0 ]
   class_labels: [ -1, 99, 100, 108, 109 ]
   missing_subst: [ 0., 0., 0., 0., 0., 0., 0., 0., 0., 0., 0., 0., 0.,
       0., 0., 0., 0., 0., 0., 0., 0., 0., 0., 0., 0., 0., 0., 0., 0.,
       0., 0., 0., 0., 0., 0., 0., 0., 0., 0., 0., 0., 0., 0., 0., 0.,
       0., 0., 0., 0., 0., 0., 0., 0., 0., 0., 0., 0., 0., 0., 0., 0.,
       0., 0., 0., 0., 0., 0., 0., 0., 0., 0., 0., 0., 0., 0., 0., 0.,
       0., 0., 0., 0., 0., 0., 0., 0., 0., 0., 0., 0., 0., 0., 0., 0.,
       0., 0., 0., 0., 0., 0., 0., 0., 0., 0., 0., 0., 0., 0., 0., 0.,
       0., 0., 0., 0., 0., 0., 0., 0., 0., 0., 0., 0., 0., 0., 0., 0.,
       0., 0., 0., 0., 0., 0., 0., 0., 0., 0., 0., 0., 0., 0., 0., 0.,
       0., 0., 0., 0., 0., 0., 0., 0., 0., 0., 0., 0., 0., 0., 0., 0.,
       0., 0., 0., 0., 0., 0., 0., 0., 0., 0., 0., 0., 0., 0., 0., 0.,
       0., 0., 0., 0., 0., 0., 0., 0., 0., 0., 0., 0., 0., 0., 0., 0.,
       0., 0., 0., 0., 0., 0., 0., 0., 0., 0., 0., 0., 0., 0., 0., 0.,
       0., 0., 0., 0., 0., 0., 0., 0., 0., 0., 0., 0., 0., 0., 0., 0.,
       0., 0., 0., 0., 0., 0., 0., 0., 0., 0., 0., 0., 0., 0., 0., 0.,
       0., 0., 0., 0., 0., 0., 0., 0., 0., 0., 0., 0., 0., 0., 0., 0.,
       0., 0., 0., 0., 0., 0., 0., 0., 0., 0., 0., 0., 0., 0., 0., 0.,
       0., 0., 0., 0., 0., 0., 0., 0., 0., 0., 0., 0., 0., 0., 0., 0.,
       0., 0., 0., 0., 0., 0., 0., 0., 0., 0., 0., 0., 0., 0., 0., 0.,
       0., 0., 0., 0., 0., 0., 0., 0., 0., 0., 0., 0., 0., 0., 0., 0.,
       0., 0., 0., 0., 0., 0., 0., 0., 0., 0., 0., 0., 0., 0., 0., 0.,
       0., 0., 0., 0., 0., 0., 0., 0., 0., 0., 0., 0., 0., 0., 0., 0.,
       0., 0., 0., 0., 0., 0., 0., 0., 0., 0., 0., 0., 0., 0., 0., 0.,
       0., 0., 0., 0., 0., 0., 0., 0., 0., 0., 0., 0., 0., 0., 0., 0.,
       0., 0., 0., 0., 0., 0., 0., 0., 0., 0., 0., 0., 0., 0., 0., 0.,
       0., 0., 0., 0., 0., 0., 0., 0., 0., 0., 0., 0., 0., 0., 0., 0.,
       0., 0., 0., 0., 0., 0., 0., 0. ]
   nodes:
      -
         depth: 0
         value: 100.
         norm_class_idx: 2
         splits:
            - { var:400, quality:2.1464902343750000e+03,
                le:1.1500000000000000e+01 }
      -
         depth: 1
         value: 100.
         norm_class_idx: 2
         splits:
            - { var:401, quality:1.3734483642578125e+03,
                le:9.5000000000000000e+00 }
      -
         depth: 2
         value: 100.
         norm_class_idx: 2
         splits:
            - { var:400, quality:1.2363653564453125e+03,
                le:8.5000000000000000e+00 }
      -
         depth: 3
         value: 100.
         norm_class_idx: 2
         splits:
            - { var:336, quality:1.1312661132812500e+03,
                le:2.5000000000000000e+00 }
      -
         depth: 4
         value: 100.
         norm_class_idx: 2
         splits:
            - { var:135, quality:10., le:1.1150000000000000e+02 }
      -
         depth: 5
         value: -1.
         norm_class_idx: 0
      -
         depth: 5
         value: 100.
         norm_class_idx: 2
         splits:
            - { var:12, quality:1.0181818008422852e+01, le:13. }
      -
         depth: 6
         value: 108.
         norm_class_idx: 3
      -
         depth: 6
         value: 100.
         norm_class_idx: 2
         splits:
            - { var:313, quality:11., le:2.1150000000000000e+02 }
      -
         depth: 7
         value: 100.
         norm_class_idx: 2
      -
         depth: 7
         value: 99.
         norm_class_idx: 1
      -
         depth: 4
         value: 100.
         norm_class_idx: 2
         splits:
            - { var:323, quality:1.1264121093750000e+03,
                le:5.0000000000000000e-01 }
      -
         depth: 5
         value: 100.
         norm_class_idx: 2
         splits:
            - { var:224, quality:1.3777777671813965e+01, le:228. }
      -
         depth: 6
         value: 100.
         norm_class_idx: 2
         splits:
            - { var:207, quality:1.4642857551574707e+01,
                le:5.0000000000000000e-01 }
      -
         depth: 7
         value: 99.
         norm_class_idx: 1
      -
         depth: 7
         value: 100.
         norm_class_idx: 2
         splits:
            - { var:7, quality:14., le:58. }
      -
         depth: 8
         value: 99.
         norm_class_idx: 1
      -
         depth: 8
         value: 100.
         norm_class_idx: 2
      -
         depth: 6
         value: 108.
         norm_class_idx: 3
      -
         depth: 5
         value: 100.
         norm_class_idx: 2
         splits:
            - { var:189, quality:1.1172821044921875e+03,
                le:1.1500000000000000e+01 }
      -
         depth: 6
         value: 100.
         norm_class_idx: 2
         splits:
            - { var:401, quality:2.0766935729980469e+02,
                le:6.5000000000000000e+00 }
      -
         depth: 7
         value: 100.
         norm_class_idx: 2
         splits:
            - { var:400, quality:1.9867857360839844e+02,
                le:6.5000000000000000e+00 }
      -
         depth: 8
         value: 100.
         norm_class_idx: 2
         splits:
            - { var:76, quality:1.8971281433105469e+02,
                le:7.5000000000000000e+00 }
      -
         depth: 9
         value: 100.
         norm_class_idx: 2
      -
         depth: 9
         value: 100.
         norm_class_idx: 2
         splits:
            - { var:188, quality:1.8756666564941406e+02,
                le:3.1500000000000000e+01 }
      -
         depth: 10
         value: 100.
         norm_class_idx: 2
      -
         depth: 10
         value: 100.
         norm_class_idx: 2
      -
         depth: 8
         value: 100.
         norm_class_idx: 2
         splits:
            - { var:111, quality:1.4428571701049805e+01,
                le:2.4500000000000000e+01 }
      -
         depth: 9
         value: 100.
         norm_class_idx: 2
         splits:
            - { var:312, quality:14., le:11. }
      -
         depth: 10
         value: 108.
         norm_class_idx: 3
      -
         depth: 10
         value: 100.
         norm_class_idx: 2
      -
         depth: 9
         value: 108.
         norm_class_idx: 3
      -
         depth: 7
         value: 100.
         norm_class_idx: 2
         splits:
            - { var:193, quality:1.8095237731933594e+01,
                le:8.5000000000000000e+00 }
      -
         depth: 8
         value: 99.
         norm_class_idx: 1
      -
         depth: 8
         value: 100.
         norm_class_idx: 2
         splits:
            - { var:80, quality:1.6428571701049805e+01,
                le:2.5350000000000000e+02 }
      -
         depth: 9
         value: 99.
         norm_class_idx: 1
      -
         depth: 9
         value: 100.
         norm_class_idx: 2
      -
         depth: 6
         value: 100.
         norm_class_idx: 2
         splits:
            - { var:124, quality:9.1628991699218750e+02,
                le:1.5000000000000000e+00 }
      -
         depth: 7
         value: 100.
         norm_class_idx: 2
         splits:
            - { var:277, quality:1.2199999809265137e+01,
                le:1.6050000000000000e+02 }
      -
         depth: 8
         value: 109.
         norm_class_idx: 4
      -
         depth: 8
         value: 100.
         norm_class_idx: 2
      -
         depth: 7
         value: 100.
         norm_class_idx: 2
         splits:
            - { var:401, quality:9.0833959960937500e+02,
                le:8.5000000000000000e+00 }
      -
         depth: 8
         value: 100.
         norm_class_idx: 2
         splits:
            - { var:261, quality:8.6858898925781250e+02,
                le:5.0000000000000000e-01 }
      -
         depth: 9
         value: 100.
         norm_class_idx: 2
         splits:
            - { var:162, quality:7.1236839294433594e+01,
                le:2.5250000000000000e+02 }
      -
         depth: 10
         value: 100.
         norm_class_idx: 2
      -
         depth: 10
         value: 109.
         norm_class_idx: 4
      -
         depth: 9
         value: 100.
         norm_class_idx: 2
         splits:
            - { var:65, quality:7.9940527343750000e+02,
                le:1.8500000000000000e+01 }
      -
         depth: 10
         value: 100.
         norm_class_idx: 2
      -
         depth: 10
         value: 100.
         norm_class_idx: 2
      -
         depth: 8
         value: 100.
         norm_class_idx: 2
         splits:
            - { var:0, quality:4.5173912048339844e+01,
                le:6.5000000000000000e+00 }
      -
         depth: 9
         value: 99.
         norm_class_idx: 1
      -
         depth: 9
         value: 100.
         norm_class_idx: 2
         splits:
            - { var:158, quality:4.4044445037841797e+01, le:20. }
      -
         depth: 10
         value: 99.
         norm_class_idx: 1
      -
         depth: 10
         value: 100.
         norm_class_idx: 2
      -
         depth: 3
         value: 100.
         norm_class_idx: 2
         splits:
            - { var:66, quality:1.3702772521972656e+02, le:182. }
      -
         depth: 4
         value: 100.
         norm_class_idx: 2
         splits:
            - { var:401, quality:6.4196723937988281e+01,
                le:5.5000000000000000e+00 }
      -
         depth: 5
         value: 108.
         norm_class_idx: 3
         splits:
            - { var:403, quality:4.1552940368652344e+01, le:17. }
      -
         depth: 6
         value: 100.
         norm_class_idx: 2
      -
         depth: 6
         value: 108.
         norm_class_idx: 3
         splits:
            - { var:403, quality:4.0347827911376953e+01, le:78. }
      -
         depth: 7
         value: 108.
         norm_class_idx: 3
         splits:
            - { var:272, quality:3.9395122528076172e+01,
                le:1.7650000000000000e+02 }
      -
         depth: 8
         value: 108.
         norm_class_idx: 3
         splits:
            - { var:3, quality:3.9049999237060547e+01, le:4. }
      -
         depth: 9
         value: 100.
         norm_class_idx: 2
      -
         depth: 9
         value: 108.
         norm_class_idx: 3
         splits:
            - { var:309, quality:3.8400001525878906e+01, le:1. }
      -
         depth: 10
         value: 108.
         norm_class_idx: 3
      -
         depth: 10
         value: 108.
         norm_class_idx: 3
      -
         depth: 8
         value: 100.
         norm_class_idx: 2
      -
         depth: 7
         value: 100.
         norm_class_idx: 2
      -
         depth: 5
         value: 109.
         norm_class_idx: 4
         splits:
            - { var:347, quality:3.9100234985351562e+01,
                le:2.4850000000000000e+02 }
      -
         depth: 6
         value: 109.
         norm_class_idx: 4
         splits:
            - { var:67, quality:3.1266666412353516e+01, le:60. }
      -
         depth: 7
         value: 109.
         norm_class_idx: 4
         splits:
            - { var:320, quality:30., le:254. }
      -
         depth: 8
         value: 100.
         norm_class_idx: 2
      -
         depth: 8
         value: 109.
         norm_class_idx: 4
      -
         depth: 7
         value: 100.
         norm_class_idx: 2
      -
         depth: 6
         value: 100.
         norm_class_idx: 2
         splits:
            - { var:236, quality:1.8333333969116211e+01, le:78. }
      -
         depth: 7
         value: 109.
         norm_class_idx: 4
      -
         depth: 7
         value: 100.
         norm_class_idx: 2
         splits:
            - { var:170, quality:17., le:2.6500000000000000e+01 }
      -
         depth: 8
         value: 108.
         norm_class_idx: 3
      -
         depth: 8
         value: 100.
         norm_class_idx: 2
      -
         depth: 4
         value: 100.
         norm_class_idx: 2
         splits:
            - { var:332, quality:1.0137142944335938e+02,
                le:2.7500000000000000e+01 }
      -
         depth: 5
         value: 109.
         norm_class_idx: 4
      -
         depth: 5
         value: 100.
         norm_class_idx: 2
         splits:
            - { var:125, quality:1.0107691955566406e+02, le:27. }
      -
         depth: 6
         value: 109.
         norm_class_idx: 4
      -
         depth: 6
         value: 100.
         norm_class_idx: 2
         splits:
            - { var:204, quality:1.0068647003173828e+02,
                le:2.5000000000000000e+00 }
      -
         depth: 7
         value: 100.
         norm_class_idx: 2
      -
         depth: 7
         value: 100.
         norm_class_idx: 2
         splits:
            - { var:335, quality:9.9666664123535156e+01,
                le:5.4500000000000000e+01 }
      -
         depth: 8
         value: 100.
         norm_class_idx: 2
      -
         depth: 8
         value: 100.
         norm_class_idx: 2
      -
         depth: 2
         value: 100.
         norm_class_idx: 2
         splits:
            - { var:400, quality:1.8755076599121094e+02,
                le:8.5000000000000000e+00 }
      -
         depth: 3
         value: 100.
         norm_class_idx: 2
         splits:
            - { var:403, quality:1.1427273559570312e+02,
                le:1.8500000000000000e+01 }
      -
         depth: 4
         value: 100.
         norm_class_idx: 2
         splits:
            - { var:222, quality:4.9571430206298828e+01, le:34. }
      -
         depth: 5
         value: 99.
         norm_class_idx: 1
      -
         depth: 5
         value: 100.
         norm_class_idx: 2
      -
         depth: 4
         value: 100.
         norm_class_idx: 2
         splits:
            - { var:403, quality:8.2316184997558594e+01,
                le:6.4500000000000000e+01 }
      -
         depth: 5
         value: 99.
         norm_class_idx: 1
         splits:
            - { var:347, quality:5.4757575988769531e+01,
                le:2.2650000000000000e+02 }
      -
         depth: 6
         value: 100.
         norm_class_idx: 2
         splits:
            - { var:118, quality:1.6777778625488281e+01, le:198. }
      -
         depth: 7
         value: 99.
         norm_class_idx: 1
      -
         depth: 7
         value: 100.
         norm_class_idx: 2
         splits:
            - { var:403, quality:1.5500000000000000e+01, le:38. }
      -
         depth: 8
         value: 109.
         norm_class_idx: 4
      -
         depth: 8
         value: 100.
         norm_class_idx: 2
      -
         depth: 6
         value: 99.
         norm_class_idx: 1
         splits:
            - { var:271, quality:4.7445377349853516e+01,
                le:9.0500000000000000e+01 }
      -
         depth: 7
         value: 99.
         norm_class_idx: 1
         splits:
            - { var:290, quality:1.3600000381469727e+01, le:114. }
      -
         depth: 8
         value: 99.
         norm_class_idx: 1
      -
         depth: 8
         value: 100.
         norm_class_idx: 2
      -
         depth: 7
         value: 99.
         norm_class_idx: 1
         splits:
            - { var:59, quality:4.3297870635986328e+01, le:1. }
      -
         depth: 8
         value: 100.
         norm_class_idx: 2
      -
         depth: 8
         value: 99.
         norm_class_idx: 1
         splits:
            - { var:129, quality:4.4044445037841797e+01,
                le:2.6500000000000000e+01 }
      -
         depth: 9
         value: 100.
         norm_class_idx: 2
      -
         depth: 9
         value: 99.
         norm_class_idx: 1
         splits:
            - { var:121, quality:44., le:39. }
      -
         depth: 10
         value: 99.
         norm_class_idx: 1
      -
         depth: 10
         value: 99.
         norm_class_idx: 1
      -
         depth: 5
         value: 100.
         norm_class_idx: 2
         splits:
            - { var:118, quality:4.4921569824218750e+01,
                le:1.3750000000000000e+02 }
      -
         depth: 6
         value: 99.
         norm_class_idx: 1
      -
         depth: 6
         value: 100.
         norm_class_idx: 2
         splits:
            - { var:207, quality:4.4248779296875000e+01, le:13. }
      -
         depth: 7
         value: 99.
         norm_class_idx: 1
      -
         depth: 7
         value: 100.
         norm_class_idx: 2
         splits:
            - { var:1, quality:41., le:70. }
      -
         depth: 8
         value: 99.
         norm_class_idx: 1
      -
         depth: 8
         value: 100.
         norm_class_idx: 2
      -
         depth: 3
         value: 100.
         norm_class_idx: 2
         splits:
            - { var:275, quality:1.0038120269775391e+02,
                le:1.2950000000000000e+02 }
      -
         depth: 4
         value: 109.
         norm_class_idx: 4
         splits:
            - { var:245, quality:5.0591396331787109e+01, le:244. }
      -
         depth: 5
         value: 109.
         norm_class_idx: 4
         splits:
            - { var:104, quality:4.6892856597900391e+01, le:14. }
      -
         depth: 6
         value: 100.
         norm_class_idx: 2
      -
         depth: 6
         value: 109.
         norm_class_idx: 4
         splits:
            - { var:394, quality:4.5724506378173828e+01,
                le:2.5350000000000000e+02 }
      -
         depth: 7
         value: 100.
         norm_class_idx: 2
         splits:
            - { var:63, quality:1.1285714149475098e+01,
                le:2.4750000000000000e+02 }
      -
         depth: 8
         value: 109.
         norm_class_idx: 4
      -
         depth: 8
         value: 100.
         norm_class_idx: 2
      -
         depth: 7
         value: 109.
         norm_class_idx: 4
         splits:
            - { var:402, quality:4.1666667938232422e+01,
                le:2.5500000000000000e+01 }
      -
         depth: 8
         value: 100.
         norm_class_idx: 2
      -
         depth: 8
         value: 109.
         norm_class_idx: 4
      -
         depth: 5
         value: 100.
         norm_class_idx: 2
         splits:
            - { var:296, quality:1.3375000000000000e+01,
                le:4.5000000000000000e+00 }
      -
         depth: 6
         value: 99.
         norm_class_idx: 1
      -
         depth: 6
         value: 100.
         norm_class_idx: 2
         splits:
            - { var:123, quality:1.3199999809265137e+01,
                le:8.5500000000000000e+01 }
      -
         depth: 7
         value: 100.
         norm_class_idx: 2
      -
         depth: 7
         value: 100.
         norm_class_idx: 2
      -
         depth: 4
         value: 100.
         norm_class_idx: 2
         splits:
            - { var:162, quality:6.7393211364746094e+01, le:56. }
      -
         depth: 5
         value: 109.
         norm_class_idx: 4
         splits:
            - { var:273, quality:1.5377778053283691e+01,
                le:2.5350000000000000e+02 }
      -
         depth: 6
         value: 109.
         norm_class_idx: 4
         splits:
            - { var:403, quality:1.4250000000000000e+01, le:25. }
      -
         depth: 7
         value: 100.
         norm_class_idx: 2
      -
         depth: 7
         value: 109.
         norm_class_idx: 4
      -
         depth: 6
         value: 99.
         norm_class_idx: 1
      -
         depth: 5
         value: 100.
         norm_class_idx: 2
         splits:
            - { var:251, quality:6.1955333709716797e+01, le:251. }
      -
         depth: 6
         value: 100.
         norm_class_idx: 2
         splits:
            - { var:51, quality:4.9233333587646484e+01, le:38. }
      -
         depth: 7
         value: 109.
         norm_class_idx: 4
      -
         depth: 7
         value: 100.
         norm_class_idx: 2
         splits:
            - { var:206, quality:4.9655174255371094e+01, le:35. }
      -
         depth: 8
         value: 99.
         norm_class_idx: 1
      -
         depth: 8
         value: 100.
         norm_class_idx: 2
         splits:
            - { var:98, quality:5.0707481384277344e+01,
                le:1.8350000000000000e+02 }
      -
         depth: 9
         value: 100.
         norm_class_idx: 2
      -
         depth: 9
         value: 100.
         norm_class_idx: 2
         splits:
            - { var:173, quality:48., le:1.5500000000000000e+01 }
      -
         depth: 10
         value: 100.
         norm_class_idx: 2
      -
         depth: 10
         value: 100.
         norm_class_idx: 2
      -
         depth: 6
         value: 100.
         norm_class_idx: 2
         splits:
            - { var:143, quality:2.0440000534057617e+01, le:238. }
      -
         depth: 7
         value: 99.
         norm_class_idx: 1
         splits:
            - { var:288, quality:9.2727270126342773e+00,
                le:1.5450000000000000e+02 }
      -
         depth: 8
         value: 109.
         norm_class_idx: 4
      -
         depth: 8
         value: 99.
         norm_class_idx: 1
         splits:
            - { var:315, quality:9.6666669845581055e+00, le:254. }
      -
         depth: 9
         value: 100.
         norm_class_idx: 2
      -
         depth: 9
         value: 99.
         norm_class_idx: 1
      -
         depth: 7
         value: 100.
         norm_class_idx: 2
         splits:
            - { var:228, quality:1.9799999237060547e+01, le:70. }
      -
         depth: 8
         value: 99.
         norm_class_idx: 1
      -
         depth: 8
         value: 100.
         norm_class_idx: 2
         splits:
            - { var:167, quality:20., le:36. }
      -
         depth: 9
         value: 99.
         norm_class_idx: 1
      -
         depth: 9
         value: 100.
         norm_class_idx: 2
      -
         depth: 1
         value: 109.
         norm_class_idx: 4
         splits:
            - { var:401, quality:1.1201293945312500e+03,
                le:6.5000000000000000e+00 }
      -
         depth: 2
         value: 108.
         norm_class_idx: 3
         splits:
            - { var:403, quality:2.4487866210937500e+02, le:65. }
      -
         depth: 3
         value: 108.
         norm_class_idx: 3
         splits:
            - { var:229, quality:2.4637843322753906e+02,
                le:2.2350000000000000e+02 }
      -
         depth: 4
         value: 108.
         norm_class_idx: 3
         splits:
            - { var:403, quality:2.4661114501953125e+02, le:19. }
      -
         depth: 5
         value: 108.
         norm_class_idx: 3
         splits:
            - { var:400, quality:4.8400001525878906e+01,
                le:2.7500000000000000e+01 }
      -
         depth: 6
         value: 100.
         norm_class_idx: 2
         splits:
            - { var:84, quality:20., le:8.7500000000000000e+01 }
      -
         depth: 7
         value: 108.
         norm_class_idx: 3
      -
         depth: 7
         value: 100.
         norm_class_idx: 2
      -
         depth: 6
         value: 108.
         norm_class_idx: 3
      -
         depth: 5
         value: 108.
         norm_class_idx: 3
         splits:
            - { var:322, quality:2.2271141052246094e+02,
                le:2.0550000000000000e+02 }
      -
         depth: 6
         value: 108.
         norm_class_idx: 3
         splits:
            - { var:13, quality:1.9133333206176758e+01, le:169. }
      -
         depth: 7
         value: 108.
         norm_class_idx: 3
      -
         depth: 7
         value: 109.
         norm_class_idx: 4
         splits:
            - { var:49, quality:1.0199999809265137e+01, le:180. }
      -
         depth: 8
         value: 109.
         norm_class_idx: 4
      -
         depth: 8
         value: 100.
         norm_class_idx: 2
      -
         depth: 6
         value: 108.
         norm_class_idx: 3
         splits:
            - { var:255, quality:2.1327803039550781e+02, le:13. }
      -
         depth: 7
         value: 100.
         norm_class_idx: 2
      -
         depth: 7
         value: 108.
         norm_class_idx: 3
         splits:
            - { var:77, quality:2.1511764526367188e+02,
                le:6.5000000000000000e+00 }
      -
         depth: 8
         value: 109.
         norm_class_idx: 4
      -
         depth: 8
         value: 108.
         norm_class_idx: 3
         splits:
            - { var:129, quality:2.1569418334960938e+02,
                le:2.4250000000000000e+02 }
      -
         depth: 9
         value: 108.
         norm_class_idx: 3
         splits:
            - { var:195, quality:2.1600921630859375e+02,
                le:2.5500000000000000e+01 }
      -
         depth: 10
         value: 109.
         norm_class_idx: 4
      -
         depth: 10
         value: 108.
         norm_class_idx: 3
      -
         depth: 9
         value: 109.
         norm_class_idx: 4
      -
         depth: 4
         value: 109.
         norm_class_idx: 4
         splits:
            - { var:307, quality:1.4909090995788574e+01,
                le:1.6050000000000000e+02 }
      -
         depth: 5
         value: 109.
         norm_class_idx: 4
      -
         depth: 5
         value: 108.
         norm_class_idx: 3
         splits:
            - { var:146, quality:9.2500000000000000e+00,
                le:2.5350000000000000e+02 }
      -
         depth: 6
         value: 100.
         norm_class_idx: 2
      -
         depth: 6
         value: 108.
         norm_class_idx: 3
      -
         depth: 3
         value: 100.
         norm_class_idx: 2
      -
         depth: 2
         value: 109.
         norm_class_idx: 4
         splits:
            - { var:400, quality:9.4910827636718750e+02,
                le:5.1500000000000000e+01 }
      -
         depth: 3
         value: 109.
         norm_class_idx: 4
         splits:
            - { var:400, quality:9.2471478271484375e+02,
                le:1.6500000000000000e+01 }
      -
         depth: 4
         value: 109.
         norm_class_idx: 4
         splits:
            - { var:17, quality:2.0155477905273438e+02, le:211. }
      -
         depth: 5
         value: 100.
         norm_class_idx: 2
         splits:
            - { var:402, quality:1.7666666030883789e+01,
                le:4.3650000000000000e+02 }
      -
         depth: 6
         value: 100.
         norm_class_idx: 2
      -
         depth: 6
         value: 99.
         norm_class_idx: 1
      -
         depth: 5
         value: 109.
         norm_class_idx: 4
         splits:
            - { var:398, quality:1.9760571289062500e+02, le:212. }
      -
         depth: 6
         value: 100.
         norm_class_idx: 2
         splits:
            - { var:212, quality:1.4500000000000000e+01,
                le:1.1350000000000000e+02 }
      -
         depth: 7
         value: 99.
         norm_class_idx: 1
      -
         depth: 7
         value: 100.
         norm_class_idx: 2
      -
         depth: 6
         value: 109.
         norm_class_idx: 4
         splits:
            - { var:73, quality:1.9900616455078125e+02,
                le:1.6500000000000000e+01 }
      -
         depth: 7
         value: 100.
         norm_class_idx: 2
         splits:
            - { var:314, quality:1.8933332443237305e+01, le:199. }
      -
         depth: 8
         value: 109.
         norm_class_idx: 4
      -
         depth: 8
         value: 100.
         norm_class_idx: 2
         splits:
            - { var:7, quality:1.7111110687255859e+01,
                le:2.5350000000000000e+02 }
      -
         depth: 9
         value: 99.
         norm_class_idx: 1
      -
         depth: 9
         value: 100.
         norm_class_idx: 2
         splits:
            - { var:132, quality:18., le:3. }
      -
         depth: 10
         value: 109.
         norm_class_idx: 4
      -
         depth: 10
         value: 100.
         norm_class_idx: 2
      -
         depth: 7
         value: 109.
         norm_class_idx: 4
         splits:
            - { var:104, quality:1.9153656005859375e+02,
                le:2.5450000000000000e+02 }
      -
         depth: 8
         value: 109.
         norm_class_idx: 4
         splits:
            - { var:28, quality:1.2997065734863281e+02,
                le:7.6500000000000000e+01 }
      -
         depth: 9
         value: 100.
         norm_class_idx: 2
      -
         depth: 9
         value: 109.
         norm_class_idx: 4
         splits:
            - { var:254, quality:1.2966667175292969e+02, le:245. }
      -
         depth: 10
         value: 109.
         norm_class_idx: 4
      -
         depth: 10
         value: 109.
         norm_class_idx: 4
      -
         depth: 8
         value: 109.
         norm_class_idx: 4
         splits:
            - { var:157, quality:7.3799499511718750e+01, le:112. }
      -
         depth: 9
         value: 100.
         norm_class_idx: 2
         splits:
            - { var:298, quality:1.3971428871154785e+01, le:156. }
      -
         depth: 10
         value: 99.
         norm_class_idx: 1
      -
         depth: 10
         value: 100.
         norm_class_idx: 2
      -
         depth: 9
         value: 109.
         norm_class_idx: 4
         splits:
            - { var:81, quality:6.9557182312011719e+01,
                le:2.5450000000000000e+02 }
      -
         depth: 10
         value: 109.
         norm_class_idx: 4
      -
         depth: 10
         value: 109.
         norm_class_idx: 4
      -
         depth: 4
         value: 109.
         norm_class_idx: 4
         splits:
            - { var:378, quality:7.5111108398437500e+02,
                le:2.5150000000000000e+02 }
      -
         depth: 5
         value: 109.
         norm_class_idx: 4
         splits:
            - { var:401, quality:5.7818798065185547e+01,
                le:9.5000000000000000e+00 }
      -
         depth: 6
         value: 108.
         norm_class_idx: 3
         splits:
            - { var:64, quality:2.6520000457763672e+01,
                le:2.5350000000000000e+02 }
      -
         depth: 7
         value: 108.
         norm_class_idx: 3
         splits:
            - { var:17, quality:1.9782608032226562e+01,
                le:2.1250000000000000e+02 }
      -
         depth: 8
         value: 100.
         norm_class_idx: 2
      -
         depth: 8
         value: 108.
         norm_class_idx: 3
         splits:
            - { var:375, quality:2.1095237731933594e+01, le:108. }
      -
         depth: 9
         value: 108.
         norm_class_idx: 3
         splits:
            - { var:80, quality:20., le:2.5450000000000000e+02 }
      -
         depth: 10
         value: 108.
         norm_class_idx: 3
      -
         depth: 10
         value: 108.
         norm_class_idx: 3
      -
         depth: 9
         value: 109.
         norm_class_idx: 4
      -
         depth: 7
         value: 109.
         norm_class_idx: 4
      -
         depth: 6
         value: 109.
         norm_class_idx: 4
         splits:
            - { var:297, quality:4.9710144042968750e+01, le:39. }
      -
         depth: 7
         value: 99.
         norm_class_idx: 1
      -
         depth: 7
         value: 109.
         norm_class_idx: 4
         splits:
            - { var:117, quality:4.6949310302734375e+01, le:43. }
      -
         depth: 8
         value: 99.
         norm_class_idx: 1
      -
         depth: 8
         value: 109.
         norm_class_idx: 4
         splits:
            - { var:402, quality:4.6135063171386719e+01, le:529. }
      -
         depth: 9
         value: 109.
         norm_class_idx: 4
         splits:
            - { var:320, quality:4.6009803771972656e+01,
                le:2.0850000000000000e+02 }
      -
         depth: 10
         value: 99.
         norm_class_idx: 1
      -
         depth: 10
         value: 109.
         norm_class_idx: 4
      -
         depth: 9
         value: 108.
         norm_class_idx: 3
      -
         depth: 5
         value: 109.
         norm_class_idx: 4
         splits:
            - { var:403, quality:7.1160821533203125e+02,
                le:5.0000000000000000e-01 }
      -
         depth: 6
         value: 109.
         norm_class_idx: 4
         splits:
            - { var:305, quality:2.4066177368164062e+01,
                le:2.5350000000000000e+02 }
      -
         depth: 7
         value: 100.
         norm_class_idx: 2
         splits:
            - { var:101, quality:1.5153845787048340e+01, le:92. }
      -
         depth: 8
         value: 109.
         norm_class_idx: 4
      -
         depth: 8
         value: 100.
         norm_class_idx: 2
         splits:
            - { var:132, quality:13., le:8.2500000000000000e+01 }
      -
         depth: 9
         value: 109.
         norm_class_idx: 4
      -
         depth: 9
         value: 100.
         norm_class_idx: 2
      -
         depth: 7
         value: 109.
         norm_class_idx: 4
         splits:
            - { var:23, quality:16., le:1.0150000000000000e+02 }
      -
         depth: 8
         value: 100.
         norm_class_idx: 2
      -
         depth: 8
         value: 109.
         norm_class_idx: 4
      -
         depth: 6
         value: 109.
         norm_class_idx: 4
         splits:
            - { var:260, quality:6.9848370361328125e+02,
                le:9.5000000000000000e+00 }
      -
         depth: 7
         value: 99.
         norm_class_idx: 1
      -
         depth: 7
         value: 109.
         norm_class_idx: 4
         splits:
            - { var:24, quality:6.9958203125000000e+02,
                le:3.4500000000000000e+01 }
      -
         depth: 8
         value: 109.
         norm_class_idx: 4
         splits:
            - { var:83, quality:2.4024242401123047e+01,
                le:2.2850000000000000e+02 }
      -
         depth: 9
         value: 109.
         norm_class_idx: 4
         splits:
            - { var:4, quality:22., le:1.5850000000000000e+02 }
      -
         depth: 10
         value: 99.
         norm_class_idx: 1
      -
         depth: 10
         value: 109.
         norm_class_idx: 4
      -
         depth: 9
         value: 109.
         norm_class_idx: 4
         splits:
            - { var:43, quality:6.8888888359069824e+00,
                le:1.8350000000000000e+02 }
      -
         depth: 10
         value: 109.
         norm_class_idx: 4
      -
         depth: 10
         value: 100.
         norm_class_idx: 2
      -
         depth: 8
         value: 109.
         norm_class_idx: 4
         splits:
            - { var:38, quality:6.8253674316406250e+02,
                le:1.6950000000000000e+02 }
      -
         depth: 9
         value: 109.
         norm_class_idx: 4
         splits:
            - { var:340, quality:4.0893333435058594e+01,
                le:2.5450000000000000e+02 }
      -
         depth: 10
         value: 99.
         norm_class_idx: 1
      -
         depth: 10
         value: 109.
         norm_class_idx: 4
      -
         depth: 9
         value: 109.
         norm_class_idx: 4
         splits:
            - { var:401, quality:6.4702520751953125e+02,
                le:7.5000000000000000e+00 }
      -
         depth: 10
         value: 109.
         norm_class_idx: 4
      -
         depth: 10
         value: 109.
         norm_class_idx: 4
      -
         depth: 3
         value: 108.
         norm_class_idx: 3
         splits:
            - { var:401, quality:9.8066734313964844e+01,
                le:1.5500000000000000e+01 }
      -
         depth: 4
         value: 108.
         norm_class_idx: 3
         splits:
            - { var:89, quality:7.2312675476074219e+01, le:5. }
      -
         depth: 5
         value: 109.
         norm_class_idx: 4
      -
         depth: 5
         value: 108.
         norm_class_idx: 3
         splits:
            - { var:39, quality:6.9028572082519531e+01,
                le:5.7500000000000000e+01 }
      -
         depth: 6
         value: 109.
         norm_class_idx: 4
      -
         depth: 6
         value: 108.
         norm_class_idx: 3
         splits:
            - { var:11, quality:6.8666664123535156e+01, le:44. }
      -
         depth: 7
         value: 108.
         norm_class_idx: 3
      -
         depth: 7
         value: 108.
         norm_class_idx: 3
      -
         depth: 4
         value: 109.
         norm_class_idx: 4
         splits:
            - { var:97, quality:3.5057144165039062e+01,
                le:6.5500000000000000e+01 }
      -
         depth: 5
         value: 108.
         norm_class_idx: 3
      -
         depth: 5
         value: 109.
         norm_class_idx: 4
         splits:
            - { var:17, quality:35., le:22. }
      -
         depth: 6
         value: 108.
         norm_class_idx: 3
      -
         depth: 6
         value: 109.
         norm_class_idx: 4
