%YAML:1.0
---
opencv_ml_dtree:
   format: 3
   is_classifier: 1
   var_all: 421
   var_count: 420
   ord_var_count: 420
   cat_var_count: 1
   training_params:
      use_surrogates: 0
      max_categories: 15
      regression_accuracy: 9.9999997764825821e-03
      max_depth: 10
      min_sample_count: 10
      cross_validation_folds: 0
   global_var_idx: 1
   var_idx: [ 0, 1, 2, 3, 4, 5, 6, 7, 8, 9, 10, 11, 12, 13, 14, 15, 16,
       17, 18, 19, 20, 21, 22, 23, 24, 25, 26, 27, 28, 29, 30, 31, 32,
       33, 34, 35, 36, 37, 38, 39, 40, 41, 42, 43, 44, 45, 46, 47, 48,
       49, 50, 51, 52, 53, 54, 55, 56, 57, 58, 59, 60, 61, 62, 63, 64,
       65, 66, 67, 68, 69, 70, 71, 72, 73, 74, 75, 76, 77, 78, 79, 80,
       81, 82, 83, 84, 85, 86, 87, 88, 89, 90, 91, 92, 93, 94, 95, 96,
       97, 98, 99, 100, 101, 102, 103, 104, 105, 106, 107, 108, 109, 110,
       111, 112, 113, 114, 115, 116, 117, 118, 119, 120, 121, 122, 123,
       124, 125, 126, 127, 128, 129, 130, 131, 132, 133, 134, 135, 136,
       137, 138, 139, 140, 141, 142, 143, 144, 145, 146, 147, 148, 149,
       150, 151, 152, 153, 154, 155, 156, 157, 158, 159, 160, 161, 162,
       163, 164, 165, 166, 167, 168, 169, 170, 171, 172, 173, 174, 175,
       176, 177, 178, 179, 180, 181, 182, 183, 184, 185, 186, 187, 188,
       189, 190, 191, 192, 193, 194, 195, 196, 197, 198, 199, 200, 201,
       202, 203, 204, 205, 206, 207, 208, 209, 210, 211, 212, 213, 214,
       215, 216, 217, 218, 219, 220, 221, 222, 223, 224, 225, 226, 227,
       228, 229, 230, 231, 232, 233, 234, 235, 236, 237, 238, 239, 240,
       241, 242, 243, 244, 245, 246, 247, 248, 249, 250, 251, 252, 253,
       254, 255, 256, 257, 258, 259, 260, 261, 262, 263, 264, 265, 266,
       267, 268, 269, 270, 271, 272, 273, 274, 275, 276, 277, 278, 279,
       280, 281, 282, 283, 284, 285, 286, 287, 288, 289, 290, 291, 292,
       293, 294, 295, 296, 297, 298, 299, 300, 301, 302, 303, 304, 305,
       306, 307, 308, 309, 310, 311, 312, 313, 314, 315, 316, 317, 318,
       319, 320, 321, 322, 323, 324, 325, 326, 327, 328, 329, 330, 331,
       332, 333, 334, 335, 336, 337, 338, 339, 340, 341, 342, 343, 344,
       345, 346, 347, 348, 349, 350, 351, 352, 353, 354, 355, 356, 357,
       358, 359, 360, 361, 362, 363, 364, 365, 366, 367, 368, 369, 370,
       371, 372, 373, 374, 375, 376, 377, 378, 379, 380, 381, 382, 383,
       384, 385, 386, 387, 388, 389, 390, 391, 392, 393, 394, 395, 396,
       397, 398, 399, 400, 401, 402, 403, 404, 405, 406, 407, 408, 409,
       410, 411, 412, 413, 414, 415, 416, 417, 418, 419 ]
   var_type: [ 0, 0, 0, 0, 0, 0, 0, 0, 0, 0, 0, 0, 0, 0, 0, 0, 0, 0, 0,
       0, 0, 0, 0, 0, 0, 0, 0, 0, 0, 0, 0, 0, 0, 0, 0, 0, 0, 0, 0, 0, 0,
       0, 0, 0, 0, 0, 0, 0, 0, 0, 0, 0, 0, 0, 0, 0, 0, 0, 0, 0, 0, 0, 0,
       0, 0, 0, 0, 0, 0, 0, 0, 0, 0, 0, 0, 0, 0, 0, 0, 0, 0, 0, 0, 0, 0,
       0, 0, 0, 0, 0, 0, 0, 0, 0, 0, 0, 0, 0, 0, 0, 0, 0, 0, 0, 0, 0, 0,
       0, 0, 0, 0, 0, 0, 0, 0, 0, 0, 0, 0, 0, 0, 0, 0, 0, 0, 0, 0, 0, 0,
       0, 0, 0, 0, 0, 0, 0, 0, 0, 0, 0, 0, 0, 0, 0, 0, 0, 0, 0, 0, 0, 0,
       0, 0, 0, 0, 0, 0, 0, 0, 0, 0, 0, 0, 0, 0, 0, 0, 0, 0, 0, 0, 0, 0,
       0, 0, 0, 0, 0, 0, 0, 0, 0, 0, 0, 0, 0, 0, 0, 0, 0, 0, 0, 0, 0, 0,
       0, 0, 0, 0, 0, 0, 0, 0, 0, 0, 0, 0, 0, 0, 0, 0, 0, 0, 0, 0, 0, 0,
       0, 0, 0, 0, 0, 0, 0, 0, 0, 0, 0, 0, 0, 0, 0, 0, 0, 0, 0, 0, 0, 0,
       0, 0, 0, 0, 0, 0, 0, 0, 0, 0, 0, 0, 0, 0, 0, 0, 0, 0, 0, 0, 0, 0,
       0, 0, 0, 0, 0, 0, 0, 0, 0, 0, 0, 0, 0, 0, 0, 0, 0, 0, 0, 0, 0, 0,
       0, 0, 0, 0, 0, 0, 0, 0, 0, 0, 0, 0, 0, 0, 0, 0, 0, 0, 0, 0, 0, 0,
       0, 0, 0, 0, 0, 0, 0, 0, 0, 0, 0, 0, 0, 0, 0, 0, 0, 0, 0, 0, 0, 0,
       0, 0, 0, 0, 0, 0, 0, 0, 0, 0, 0, 0, 0, 0, 0, 0, 0, 0, 0, 0, 0, 0,
       0, 0, 0, 0, 0, 0, 0, 0, 0, 0, 0, 0, 0, 0, 0, 0, 0, 0, 0, 0, 0, 0,
       0, 0, 0, 0, 0, 0, 0, 0, 0, 0, 0, 0, 0, 0, 0, 0, 0, 0, 0, 0, 0, 0,
       0, 0, 0, 0, 0, 0, 0, 0, 0, 0, 0, 0, 0, 0, 0, 0, 0, 0, 0, 0, 0, 0,
       0, 0, 0, 0, 0, 1 ]
   cat_ofs: [ 0, 0, 0, 0, 0, 0, 0, 0, 0, 0, 0, 0, 0, 0, 0, 0, 0, 0, 0, 0,
       0, 0, 0, 0, 0, 0, 0, 0, 0, 0, 0, 0, 0, 0, 0, 0, 0, 0, 0, 0, 0, 0,
       0, 0, 0, 0, 0, 0, 0, 0, 0, 0, 0, 0, 0, 0, 0, 0, 0, 0, 0, 0, 0, 0,
       0, 0, 0, 0, 0, 0, 0, 0, 0, 0, 0, 0, 0, 0, 0, 0, 0, 0, 0, 0, 0, 0,
       0, 0, 0, 0, 0, 0, 0, 0, 0, 0, 0, 0, 0, 0, 0, 0, 0, 0, 0, 0, 0, 0,
       0, 0, 0, 0, 0, 0, 0, 0, 0, 0, 0, 0, 0, 0, 0, 0, 0, 0, 0, 0, 0, 0,
       0, 0, 0, 0, 0, 0, 0, 0, 0, 0, 0, 0, 0, 0, 0, 0, 0, 0, 0, 0, 0, 0,
       0, 0, 0, 0, 0, 0, 0, 0, 0, 0, 0, 0, 0, 0, 0, 0, 0, 0, 0, 0, 0, 0,
       0, 0, 0, 0, 0, 0, 0, 0, 0, 0, 0, 0, 0, 0, 0, 0, 0, 0, 0, 0, 0, 0,
       0, 0, 0, 0, 0, 0, 0, 0, 0, 0, 0, 0, 0, 0, 0, 0, 0, 0, 0, 0, 0, 0,
       0, 0, 0, 0, 0, 0, 0, 0, 0, 0, 0, 0, 0, 0, 0, 0, 0, 0, 0, 0, 0, 0,
       0, 0, 0, 0, 0, 0, 0, 0, 0, 0, 0, 0, 0, 0, 0, 0, 0, 0, 0, 0, 0, 0,
       0, 0, 0, 0, 0, 0, 0, 0, 0, 0, 0, 0, 0, 0, 0, 0, 0, 0, 0, 0, 0, 0,
       0, 0, 0, 0, 0, 0, 0, 0, 0, 0, 0, 0, 0, 0, 0, 0, 0, 0, 0, 0, 0, 0,
       0, 0, 0, 0, 0, 0, 0, 0, 0, 0, 0, 0, 0, 0, 0, 0, 0, 0, 0, 0, 0, 0,
       0, 0, 0, 0, 0, 0, 0, 0, 0, 0, 0, 0, 0, 0, 0, 0, 0, 0, 0, 0, 0, 0,
       0, 0, 0, 0, 0, 0, 0, 0, 0, 0, 0, 0, 0, 0, 0, 0, 0, 0, 0, 0, 0, 0,
       0, 0, 0, 0, 0, 0, 0, 0, 0, 0, 0, 0, 0, 0, 0, 0, 0, 0, 0, 0, 0, 0,
       0, 0, 0, 0, 0, 0, 0, 0, 0, 0, 0, 0, 0, 0, 0, 0, 0, 0, 0, 0, 0, 0,
       0, 0, 0, 0, 0, 0, 0, 0, 0, 0, 0, 0, 0, 0, 0, 0, 0, 0, 0, 0, 0, 0,
       0, 0, 0, 0, 0, 0, 0, 0, 0, 0, 0, 0, 0, 0, 0, 0, 0, 0, 0, 0, 0, 0,
       0, 0, 0, 0, 0, 0, 0, 0, 0, 0, 0, 0, 0, 0, 0, 0, 0, 0, 0, 0, 0, 0,
       0, 0, 0, 0, 0, 0, 0, 0, 0, 0, 0, 0, 0, 0, 0, 0, 0, 0, 0, 0, 0, 0,
       0, 0, 0, 0, 0, 0, 0, 0, 0, 0, 0, 0, 0, 0, 0, 0, 0, 0, 0, 0, 0, 0,
       0, 0, 0, 0, 0, 0, 0, 0, 0, 0, 0, 0, 0, 0, 0, 0, 0, 0, 0, 0, 0, 0,
       0, 0, 0, 0, 0, 0, 0, 0, 0, 0, 0, 0, 0, 0, 0, 0, 0, 0, 0, 0, 0, 0,
       0, 0, 0, 0, 0, 0, 0, 0, 0, 0, 0, 0, 0, 0, 0, 0, 0, 0, 0, 0, 0, 0,
       0, 0, 0, 0, 0, 0, 0, 0, 0, 0, 0, 0, 0, 0, 0, 0, 0, 0, 0, 0, 0, 0,
       0, 0, 0, 0, 0, 0, 0, 0, 0, 0, 0, 0, 0, 0, 0, 0, 0, 0, 0, 0, 0, 0,
       0, 0, 0, 0, 0, 0, 0, 0, 0, 0, 0, 0, 0, 0, 0, 0, 0, 0, 0, 0, 0, 0,
       0, 0, 0, 0, 0, 0, 0, 0, 0, 0, 0, 0, 0, 0, 0, 0, 0, 0, 0, 0, 0, 0,
       0, 0, 0, 0, 0, 0, 0, 0, 0, 0, 0, 0, 0, 0, 0, 0, 0, 0, 0, 0, 0, 0,
       0, 0, 0, 0, 0, 0, 0, 0, 0, 0, 0, 0, 0, 0, 0, 0, 0, 0, 0, 0, 0, 0,
       0, 0, 0, 0, 0, 0, 0, 0, 0, 0, 0, 0, 0, 0, 0, 0, 0, 0, 0, 0, 0, 0,
       0, 0, 0, 0, 0, 0, 0, 0, 0, 0, 0, 0, 0, 0, 0, 0, 0, 0, 0, 0, 0, 0,
       0, 0, 0, 0, 0, 0, 0, 0, 0, 0, 0, 0, 0, 0, 0, 0, 0, 0, 0, 0, 0, 0,
       0, 0, 0, 0, 0, 0, 0, 0, 0, 0, 0, 0, 0, 0, 0, 0, 0, 0, 0, 0, 0, 0,
       0, 0, 0, 0, 0, 0, 0, 0, 0, 0, 0, 0, 0, 0, 0, 0, 0, 0, 0, 0, 0, 0,
       0, 0, 0, 0, 0, 0 ]
   class_labels: [ 97, 98, 99, 100, 101, 102, 103, 104, 105, 106, 107,
       108, 109, 110, 112, 115, 117, 120, 65364 ]
   missing_subst: [ 0., 0., 0., 0., 0., 0., 0., 0., 0., 0., 0., 0., 0.,
       0., 0., 0., 0., 0., 0., 0., 0., 0., 0., 0., 0., 0., 0., 0., 0.,
       0., 0., 0., 0., 0., 0., 0., 0., 0., 0., 0., 0., 0., 0., 0., 0.,
       0., 0., 0., 0., 0., 0., 0., 0., 0., 0., 0., 0., 0., 0., 0., 0.,
       0., 0., 0., 0., 0., 0., 0., 0., 0., 0., 0., 0., 0., 0., 0., 0.,
       0., 0., 0., 0., 0., 0., 0., 0., 0., 0., 0., 0., 0., 0., 0., 0.,
       0., 0., 0., 0., 0., 0., 0., 0., 0., 0., 0., 0., 0., 0., 0., 0.,
       0., 0., 0., 0., 0., 0., 0., 0., 0., 0., 0., 0., 0., 0., 0., 0.,
       0., 0., 0., 0., 0., 0., 0., 0., 0., 0., 0., 0., 0., 0., 0., 0.,
       0., 0., 0., 0., 0., 0., 0., 0., 0., 0., 0., 0., 0., 0., 0., 0.,
       0., 0., 0., 0., 0., 0., 0., 0., 0., 0., 0., 0., 0., 0., 0., 0.,
       0., 0., 0., 0., 0., 0., 0., 0., 0., 0., 0., 0., 0., 0., 0., 0.,
       0., 0., 0., 0., 0., 0., 0., 0., 0., 0., 0., 0., 0., 0., 0., 0.,
       0., 0., 0., 0., 0., 0., 0., 0., 0., 0., 0., 0., 0., 0., 0., 0.,
       0., 0., 0., 0., 0., 0., 0., 0., 0., 0., 0., 0., 0., 0., 0., 0.,
       0., 0., 0., 0., 0., 0., 0., 0., 0., 0., 0., 0., 0., 0., 0., 0.,
       0., 0., 0., 0., 0., 0., 0., 0., 0., 0., 0., 0., 0., 0., 0., 0.,
       0., 0., 0., 0., 0., 0., 0., 0., 0., 0., 0., 0., 0., 0., 0., 0.,
       0., 0., 0., 0., 0., 0., 0., 0., 0., 0., 0., 0., 0., 0., 0., 0.,
       0., 0., 0., 0., 0., 0., 0., 0., 0., 0., 0., 0., 0., 0., 0., 0.,
       0., 0., 0., 0., 0., 0., 0., 0., 0., 0., 0., 0., 0., 0., 0., 0.,
       0., 0., 0., 0., 0., 0., 0., 0., 0., 0., 0., 0., 0., 0., 0., 0.,
       0., 0., 0., 0., 0., 0., 0., 0., 0., 0., 0., 0., 0., 0., 0., 0.,
       0., 0., 0., 0., 0., 0., 0., 0., 0., 0., 0., 0., 0., 0., 0., 0.,
       0., 0., 0., 0., 0., 0., 0., 0., 0., 0., 0., 0., 0., 0., 0., 0.,
       0., 0., 0., 0., 0., 0., 0., 0., 0., 0., 0., 0., 0., 0., 0., 0.,
       0., 0., 0., 0., 0., 0., 0., 0. ]
   nodes:
      -
         depth: 0
         value: 112.
         norm_class_idx: 14
         splits:
            - { var:400, quality:1.0880930175781250e+03,
                le:1.1500000000000000e+01 }
      -
         depth: 1
         value: 112.
         norm_class_idx: 14
         splits:
            - { var:401, quality:9.0021557617187500e+02,
                le:6.5000000000000000e+00 }
      -
         depth: 2
         value: 112.
         norm_class_idx: 14
         splits:
            - { var:170, quality:7.9269805908203125e+02,
                le:2.3050000000000000e+02 }
      -
         depth: 3
         value: 112.
         norm_class_idx: 14
         splits:
            - { var:403, quality:3.6533139038085938e+02,
                le:5.5000000000000000e+00 }
      -
         depth: 4
         value: 107.
         norm_class_idx: 10
         splits:
            - { var:272, quality:1.3634338378906250e+02, le:3. }
      -
         depth: 5
         value: 112.
         norm_class_idx: 14
         splits:
            - { var:22, quality:11., le:254. }
      -
         depth: 6
         value: 107.
         norm_class_idx: 10
      -
         depth: 6
         value: 112.
         norm_class_idx: 14
      -
         depth: 5
         value: 107.
         norm_class_idx: 10
         splits:
            - { var:376, quality:1.3285380554199219e+02,
                le:2.5000000000000000e+00 }
      -
         depth: 6
         value: 65364.
         norm_class_idx: 18
      -
         depth: 6
         value: 107.
         norm_class_idx: 10
         splits:
            - { var:365, quality:1.3429042053222656e+02, le:12. }
      -
         depth: 7
         value: 112.
         norm_class_idx: 14
      -
         depth: 7
         value: 107.
         norm_class_idx: 10
         splits:
            - { var:5, quality:1.3385508728027344e+02,
                le:3.3500000000000000e+01 }
      -
         depth: 8
         value: 107.
         norm_class_idx: 10
         splits:
            - { var:184, quality:2.2526315689086914e+01, le:124. }
      -
         depth: 9
         value: 107.
         norm_class_idx: 10
      -
         depth: 9
         value: 107.
         norm_class_idx: 10
         splits:
            - { var:243, quality:1.3461538314819336e+01, le:254. }
      -
         depth: 10
         value: 112.
         norm_class_idx: 14
      -
         depth: 10
         value: 107.
         norm_class_idx: 10
      -
         depth: 8
         value: 107.
         norm_class_idx: 10
         splits:
            - { var:351, quality:1.1655134582519531e+02,
                le:4.0500000000000000e+01 }
      -
         depth: 9
         value: 107.
         norm_class_idx: 10
         splits:
            - { var:26, quality:1.3571428298950195e+01, le:254. }
      -
         depth: 10
         value: 107.
         norm_class_idx: 10
      -
         depth: 10
         value: 112.
         norm_class_idx: 14
      -
         depth: 9
         value: 107.
         norm_class_idx: 10
         splits:
            - { var:144, quality:1.0842735290527344e+02,
                le:2.1500000000000000e+01 }
      -
         depth: 10
         value: 112.
         norm_class_idx: 14
      -
         depth: 10
         value: 107.
         norm_class_idx: 10
      -
         depth: 4
         value: 112.
         norm_class_idx: 14
         splits:
            - { var:403, quality:3.0131814575195312e+02,
                le:7.4500000000000000e+01 }
      -
         depth: 5
         value: 112.
         norm_class_idx: 14
         splits:
            - { var:392, quality:2.5454771423339844e+02, le:194. }
      -
         depth: 6
         value: 112.
         norm_class_idx: 14
         splits:
            - { var:400, quality:2.1304983520507812e+02,
                le:6.5000000000000000e+00 }
      -
         depth: 7
         value: 112.
         norm_class_idx: 14
         splits:
            - { var:402, quality:1.9022941589355469e+02,
                le:6.4150000000000000e+02 }
      -
         depth: 8
         value: 112.
         norm_class_idx: 14
         splits:
            - { var:403, quality:1.9160173034667969e+02,
                le:7.0500000000000000e+01 }
      -
         depth: 9
         value: 112.
         norm_class_idx: 14
         splits:
            - { var:72, quality:1.8543400573730469e+02,
                le:1.1550000000000000e+02 }
      -
         depth: 10
         value: 112.
         norm_class_idx: 14
      -
         depth: 10
         value: 112.
         norm_class_idx: 14
      -
         depth: 9
         value: 112.
         norm_class_idx: 14
         splits:
            - { var:71, quality:1.3285714149475098e+01,
                le:5.3500000000000000e+01 }
      -
         depth: 10
         value: 112.
         norm_class_idx: 14
      -
         depth: 10
         value: 107.
         norm_class_idx: 10
      -
         depth: 8
         value: 107.
         norm_class_idx: 10
      -
         depth: 7
         value: 108.
         norm_class_idx: 11
         splits:
            - { var:72, quality:3.2191665649414062e+01,
                le:1.2500000000000000e+01 }
      -
         depth: 8
         value: 108.
         norm_class_idx: 11
         splits:
            - { var:28, quality:16., le:2.5350000000000000e+02 }
      -
         depth: 9
         value: 108.
         norm_class_idx: 11
      -
         depth: 9
         value: 104.
         norm_class_idx: 7
      -
         depth: 8
         value: 112.
         norm_class_idx: 14
         splits:
            - { var:400, quality:2.3652406692504883e+01,
                le:1.0500000000000000e+01 }
      -
         depth: 9
         value: 112.
         norm_class_idx: 14
         splits:
            - { var:132, quality:1.8580644607543945e+01,
                le:1.1950000000000000e+02 }
      -
         depth: 10
         value: 112.
         norm_class_idx: 14
      -
         depth: 10
         value: 107.
         norm_class_idx: 10
      -
         depth: 9
         value: 108.
         norm_class_idx: 11
         splits:
            - { var:50, quality:11., le:1.2500000000000000e+01 }
      -
         depth: 10
         value: 112.
         norm_class_idx: 14
      -
         depth: 10
         value: 108.
         norm_class_idx: 11
      -
         depth: 6
         value: 100.
         norm_class_idx: 3
         splits:
            - { var:400, quality:9.4408035278320312e+01,
                le:6.5000000000000000e+00 }
      -
         depth: 7
         value: 100.
         norm_class_idx: 3
         splits:
            - { var:55, quality:9.0050804138183594e+01, le:221. }
      -
         depth: 8
         value: 112.
         norm_class_idx: 14
         splits:
            - { var:92, quality:3.5720573425292969e+01,
                le:5.0000000000000000e-01 }
      -
         depth: 9
         value: 107.
         norm_class_idx: 10
         splits:
            - { var:165, quality:1.1933333396911621e+01, le:24. }
      -
         depth: 10
         value: 99.
         norm_class_idx: 2
      -
         depth: 10
         value: 107.
         norm_class_idx: 10
      -
         depth: 9
         value: 112.
         norm_class_idx: 14
         splits:
            - { var:69, quality:3.0719999313354492e+01,
                le:2.5250000000000000e+02 }
      -
         depth: 10
         value: 112.
         norm_class_idx: 14
      -
         depth: 10
         value: 107.
         norm_class_idx: 10
      -
         depth: 8
         value: 100.
         norm_class_idx: 3
         splits:
            - { var:2, quality:7.4617393493652344e+01,
                le:2.5350000000000000e+02 }
      -
         depth: 9
         value: 112.
         norm_class_idx: 14
         splits:
            - { var:60, quality:1.3199999809265137e+01,
                le:2.1500000000000000e+01 }
      -
         depth: 10
         value: 107.
         norm_class_idx: 10
      -
         depth: 10
         value: 112.
         norm_class_idx: 14
      -
         depth: 9
         value: 100.
         norm_class_idx: 3
         splits:
            - { var:403, quality:7.3865760803222656e+01,
                le:2.5500000000000000e+01 }
      -
         depth: 10
         value: 107.
         norm_class_idx: 10
      -
         depth: 10
         value: 100.
         norm_class_idx: 3
      -
         depth: 7
         value: 108.
         norm_class_idx: 11
         splits:
            - { var:28, quality:4.0817432403564453e+01,
                le:2.3550000000000000e+02 }
      -
         depth: 8
         value: 108.
         norm_class_idx: 11
         splits:
            - { var:155, quality:2.7037878036499023e+01, le:162. }
      -
         depth: 9
         value: 97.
         norm_class_idx: 0
         splits:
            - { var:63, quality:8.9473686218261719e+00,
                le:1.2450000000000000e+02 }
      -
         depth: 10
         value: 97.
         norm_class_idx: 0
      -
         depth: 10
         value: 112.
         norm_class_idx: 14
      -
         depth: 9
         value: 108.
         norm_class_idx: 11
         splits:
            - { var:231, quality:2.5600000381469727e+01,
                le:1.1950000000000000e+02 }
      -
         depth: 10
         value: 108.
         norm_class_idx: 11
      -
         depth: 10
         value: 100.
         norm_class_idx: 3
      -
         depth: 8
         value: 104.
         norm_class_idx: 7
         splits:
            - { var:403, quality:2.9411764144897461e+01,
                le:1.7500000000000000e+01 }
      -
         depth: 9
         value: 97.
         norm_class_idx: 0
         splits:
            - { var:166, quality:1.1500000000000000e+01,
                le:1.6250000000000000e+02 }
      -
         depth: 10
         value: 112.
         norm_class_idx: 14
      -
         depth: 10
         value: 97.
         norm_class_idx: 0
      -
         depth: 9
         value: 104.
         norm_class_idx: 7
         splits:
            - { var:371, quality:2.9876623153686523e+01,
                le:2.3550000000000000e+02 }
      -
         depth: 10
         value: 112.
         norm_class_idx: 14
      -
         depth: 10
         value: 104.
         norm_class_idx: 7
      -
         depth: 5
         value: 107.
         norm_class_idx: 10
         splits:
            - { var:49, quality:1.1078389739990234e+02, le:139. }
      -
         depth: 6
         value: 107.
         norm_class_idx: 10
         splits:
            - { var:149, quality:3.5135963439941406e+01, le:12. }
      -
         depth: 7
         value: 107.
         norm_class_idx: 10
         splits:
            - { var:403, quality:2.0505262374877930e+01,
                le:7.9500000000000000e+01 }
      -
         depth: 8
         value: 112.
         norm_class_idx: 14
      -
         depth: 8
         value: 107.
         norm_class_idx: 10
         splits:
            - { var:227, quality:18., le:6.5000000000000000e+00 }
      -
         depth: 9
         value: 107.
         norm_class_idx: 10
      -
         depth: 9
         value: 107.
         norm_class_idx: 10
      -
         depth: 7
         value: 112.
         norm_class_idx: 14
         splits:
            - { var:165, quality:2.3640552520751953e+01,
                le:2.0250000000000000e+02 }
      -
         depth: 8
         value: 112.
         norm_class_idx: 14
         splits:
            - { var:400, quality:2.2357143402099609e+01,
                le:2.5000000000000000e+00 }
      -
         depth: 9
         value: 107.
         norm_class_idx: 10
      -
         depth: 9
         value: 112.
         norm_class_idx: 14
         splits:
            - { var:110, quality:2.2090909957885742e+01,
                le:7.1500000000000000e+01 }
      -
         depth: 10
         value: 112.
         norm_class_idx: 14
      -
         depth: 10
         value: 100.
         norm_class_idx: 3
      -
         depth: 8
         value: 107.
         norm_class_idx: 10
      -
         depth: 6
         value: 107.
         norm_class_idx: 10
         splits:
            - { var:264, quality:8.8266151428222656e+01,
                le:7.4500000000000000e+01 }
      -
         depth: 7
         value: 112.
         norm_class_idx: 14
         splits:
            - { var:114, quality:13., le:2.5050000000000000e+02 }
      -
         depth: 8
         value: 112.
         norm_class_idx: 14
      -
         depth: 8
         value: 107.
         norm_class_idx: 10
      -
         depth: 7
         value: 107.
         norm_class_idx: 10
         splits:
            - { var:256, quality:8.4877548217773438e+01,
                le:8.0500000000000000e+01 }
      -
         depth: 8
         value: 112.
         norm_class_idx: 14
      -
         depth: 8
         value: 107.
         norm_class_idx: 10
         splits:
            - { var:234, quality:8.5446807861328125e+01,
                le:2.5500000000000000e+01 }
      -
         depth: 9
         value: 97.
         norm_class_idx: 0
      -
         depth: 9
         value: 107.
         norm_class_idx: 10
         splits:
            - { var:250, quality:8.5495239257812500e+01,
                le:1.0850000000000000e+02 }
      -
         depth: 10
         value: 107.
         norm_class_idx: 10
      -
         depth: 10
         value: 107.
         norm_class_idx: 10
      -
         depth: 3
         value: 112.
         norm_class_idx: 14
         splits:
            - { var:403, quality:5.0532174682617188e+02,
                le:9.0500000000000000e+01 }
      -
         depth: 4
         value: 112.
         norm_class_idx: 14
         splits:
            - { var:69, quality:5.0175970458984375e+02, le:96. }
      -
         depth: 5
         value: 107.
         norm_class_idx: 10
      -
         depth: 5
         value: 112.
         norm_class_idx: 14
         splits:
            - { var:402, quality:5.0209735107421875e+02, le:2. }
      -
         depth: 6
         value: 107.
         norm_class_idx: 10
      -
         depth: 6
         value: 112.
         norm_class_idx: 14
         splits:
            - { var:269, quality:5.0252615356445312e+02, le:212. }
      -
         depth: 7
         value: 112.
         norm_class_idx: 14
         splits:
            - { var:403, quality:2.3303030014038086e+01, le:79. }
      -
         depth: 8
         value: 112.
         norm_class_idx: 14
         splits:
            - { var:403, quality:2.3385713577270508e+01, le:4. }
      -
         depth: 9
         value: 107.
         norm_class_idx: 10
      -
         depth: 9
         value: 112.
         norm_class_idx: 14
         splits:
            - { var:231, quality:2.3230770111083984e+01, le:254. }
      -
         depth: 10
         value: 112.
         norm_class_idx: 14
      -
         depth: 10
         value: 99.
         norm_class_idx: 2
      -
         depth: 8
         value: 107.
         norm_class_idx: 10
      -
         depth: 7
         value: 112.
         norm_class_idx: 14
         splits:
            - { var:402, quality:4.8366351318359375e+02, le:646. }
      -
         depth: 8
         value: 112.
         norm_class_idx: 14
         splits:
            - { var:228, quality:4.8356109619140625e+02,
                le:2.5450000000000000e+02 }
      -
         depth: 9
         value: 112.
         norm_class_idx: 14
         splits:
            - { var:215, quality:1.7723077392578125e+02, le:24. }
      -
         depth: 10
         value: 108.
         norm_class_idx: 11
      -
         depth: 10
         value: 112.
         norm_class_idx: 14
      -
         depth: 9
         value: 112.
         norm_class_idx: 14
         splits:
            - { var:188, quality:3.0878024291992188e+02,
                le:2.3450000000000000e+02 }
      -
         depth: 10
         value: 112.
         norm_class_idx: 14
      -
         depth: 10
         value: 112.
         norm_class_idx: 14
      -
         depth: 8
         value: 106.
         norm_class_idx: 9
      -
         depth: 4
         value: 107.
         norm_class_idx: 10
         splits:
            - { var:100, quality:1.0199999809265137e+01,
                le:2.5450000000000000e+02 }
      -
         depth: 5
         value: 107.
         norm_class_idx: 10
      -
         depth: 5
         value: 112.
         norm_class_idx: 14
      -
         depth: 2
         value: 104.
         norm_class_idx: 7
         splits:
            - { var:403, quality:3.1642153930664062e+02,
                le:2.5000000000000000e+00 }
      -
         depth: 3
         value: 107.
         norm_class_idx: 10
         splits:
            - { var:342, quality:9.9467056274414062e+01, le:104. }
      -
         depth: 4
         value: 112.
         norm_class_idx: 14
      -
         depth: 4
         value: 107.
         norm_class_idx: 10
         splits:
            - { var:103, quality:9.8610977172851562e+01, le:245. }
      -
         depth: 5
         value: 107.
         norm_class_idx: 10
         splits:
            - { var:87, quality:6.9028984069824219e+01,
                le:3.5000000000000000e+00 }
      -
         depth: 6
         value: 109.
         norm_class_idx: 12
      -
         depth: 6
         value: 107.
         norm_class_idx: 10
         splits:
            - { var:323, quality:69., le:14. }
      -
         depth: 7
         value: 97.
         norm_class_idx: 0
      -
         depth: 7
         value: 107.
         norm_class_idx: 10
      -
         depth: 5
         value: 107.
         norm_class_idx: 10
         splits:
            - { var:105, quality:3.8341667175292969e+01,
                le:1.6150000000000000e+02 }
      -
         depth: 6
         value: 112.
         norm_class_idx: 14
      -
         depth: 6
         value: 107.
         norm_class_idx: 10
         splits:
            - { var:199, quality:3.5911109924316406e+01,
                le:2.5250000000000000e+02 }
      -
         depth: 7
         value: 112.
         norm_class_idx: 14
      -
         depth: 7
         value: 107.
         norm_class_idx: 10
         splits:
            - { var:314, quality:3.6939025878906250e+01,
                le:6.6500000000000000e+01 }
      -
         depth: 8
         value: 97.
         norm_class_idx: 0
      -
         depth: 8
         value: 107.
         norm_class_idx: 10
         splits:
            - { var:7, quality:3.7200000762939453e+01,
                le:1.3500000000000000e+01 }
      -
         depth: 9
         value: 112.
         norm_class_idx: 14
      -
         depth: 9
         value: 107.
         norm_class_idx: 10
         splits:
            - { var:115, quality:3.8051280975341797e+01,
                le:5.5000000000000000e+00 }
      -
         depth: 10
         value: 112.
         norm_class_idx: 14
      -
         depth: 10
         value: 107.
         norm_class_idx: 10
      -
         depth: 3
         value: 104.
         norm_class_idx: 7
         splits:
            - { var:403, quality:2.8998464965820312e+02,
                le:7.8500000000000000e+01 }
      -
         depth: 4
         value: 104.
         norm_class_idx: 7
         splits:
            - { var:63, quality:2.8307318115234375e+02,
                le:2.5150000000000000e+02 }
      -
         depth: 5
         value: 112.
         norm_class_idx: 14
         splits:
            - { var:401, quality:7.3251029968261719e+01,
                le:1.2500000000000000e+01 }
      -
         depth: 6
         value: 112.
         norm_class_idx: 14
         splits:
            - { var:400, quality:6.3346668243408203e+01,
                le:9.5000000000000000e+00 }
      -
         depth: 7
         value: 112.
         norm_class_idx: 14
         splits:
            - { var:230, quality:4.3435897827148438e+01, le:199. }
      -
         depth: 8
         value: 112.
         norm_class_idx: 14
         splits:
            - { var:88, quality:2.0844444274902344e+01,
                le:8.9500000000000000e+01 }
      -
         depth: 9
         value: 104.
         norm_class_idx: 7
         splits:
            - { var:64, quality:7.0357141494750977e+00, le:82. }
      -
         depth: 10
         value: 97.
         norm_class_idx: 0
      -
         depth: 10
         value: 104.
         norm_class_idx: 7
      -
         depth: 9
         value: 112.
         norm_class_idx: 14
         splits:
            - { var:162, quality:2.1280702590942383e+01, le:9. }
      -
         depth: 10
         value: 99.
         norm_class_idx: 2
      -
         depth: 10
         value: 112.
         norm_class_idx: 14
      -
         depth: 8
         value: 112.
         norm_class_idx: 14
         splits:
            - { var:20, quality:3.0700000762939453e+01, le:8. }
      -
         depth: 9
         value: 99.
         norm_class_idx: 2
      -
         depth: 9
         value: 112.
         norm_class_idx: 14
         splits:
            - { var:61, quality:3.0978055953979492e+01,
                le:2.5250000000000000e+02 }
      -
         depth: 10
         value: 112.
         norm_class_idx: 14
      -
         depth: 10
         value: 112.
         norm_class_idx: 14
      -
         depth: 7
         value: 97.
         norm_class_idx: 0
         splits:
            - { var:171, quality:3.8461540222167969e+01,
                le:1.6350000000000000e+02 }
      -
         depth: 8
         value: 97.
         norm_class_idx: 0
         splits:
            - { var:24, quality:3.7009525299072266e+01,
                le:1.8450000000000000e+02 }
      -
         depth: 9
         value: 102.
         norm_class_idx: 5
      -
         depth: 9
         value: 97.
         norm_class_idx: 0
         splits:
            - { var:272, quality:3.6454055786132812e+01,
                le:4.7500000000000000e+01 }
      -
         depth: 10
         value: 107.
         norm_class_idx: 10
      -
         depth: 10
         value: 97.
         norm_class_idx: 0
      -
         depth: 8
         value: 112.
         norm_class_idx: 14
         splits:
            - { var:64, quality:1.6299999237060547e+01,
                le:1.5500000000000000e+01 }
      -
         depth: 9
         value: 102.
         norm_class_idx: 5
      -
         depth: 9
         value: 112.
         norm_class_idx: 14
         splits:
            - { var:63, quality:1.6333333969116211e+01, le:242. }
      -
         depth: 10
         value: 112.
         norm_class_idx: 14
      -
         depth: 10
         value: 97.
         norm_class_idx: 0
      -
         depth: 6
         value: 99.
         norm_class_idx: 2
         splits:
            - { var:403, quality:3.2693332672119141e+01,
                le:1.7500000000000000e+01 }
      -
         depth: 7
         value: 107.
         norm_class_idx: 10
         splits:
            - { var:216, quality:1.1327272415161133e+01,
                le:1.6250000000000000e+02 }
      -
         depth: 8
         value: 109.
         norm_class_idx: 12
      -
         depth: 8
         value: 107.
         norm_class_idx: 10
         splits:
            - { var:40, quality:11., le:2.5450000000000000e+02 }
      -
         depth: 9
         value: 112.
         norm_class_idx: 14
      -
         depth: 9
         value: 107.
         norm_class_idx: 10
      -
         depth: 7
         value: 99.
         norm_class_idx: 2
         splits:
            - { var:52, quality:3.3087303161621094e+01,
                le:2.5450000000000000e+02 }
      -
         depth: 8
         value: 98.
         norm_class_idx: 1
         splits:
            - { var:101, quality:6.8571429252624512e+00,
                le:1.2050000000000000e+02 }
      -
         depth: 9
         value: 98.
         norm_class_idx: 1
      -
         depth: 9
         value: 97.
         norm_class_idx: 0
      -
         depth: 8
         value: 99.
         norm_class_idx: 2
         splits:
            - { var:400, quality:3.6689231872558594e+01,
                le:1.0500000000000000e+01 }
      -
         depth: 9
         value: 99.
         norm_class_idx: 2
         splits:
            - { var:342, quality:3.7772727966308594e+01, le:113. }
      -
         depth: 10
         value: 107.
         norm_class_idx: 10
      -
         depth: 10
         value: 99.
         norm_class_idx: 2
      -
         depth: 9
         value: 109.
         norm_class_idx: 12
         splits:
            - { var:122, quality:7.6666665077209473e+00,
                le:2.0550000000000000e+02 }
      -
         depth: 10
         value: 109.
         norm_class_idx: 12
      -
         depth: 10
         value: 104.
         norm_class_idx: 7
      -
         depth: 5
         value: 104.
         norm_class_idx: 7
         splits:
            - { var:250, quality:2.7647546386718750e+02,
                le:2.5150000000000000e+02 }
      -
         depth: 6
         value: 104.
         norm_class_idx: 7
         splits:
            - { var:400, quality:2.7840621948242188e+02,
                le:5.5000000000000000e+00 }
      -
         depth: 7
         value: 99.
         norm_class_idx: 2
         splits:
            - { var:56, quality:1.7602870941162109e+01, le:233. }
      -
         depth: 8
         value: 99.
         norm_class_idx: 2
         splits:
            - { var:132, quality:11., le:235. }
      -
         depth: 9
         value: 99.
         norm_class_idx: 2
      -
         depth: 9
         value: 112.
         norm_class_idx: 14
      -
         depth: 8
         value: 112.
         norm_class_idx: 14
         splits:
            - { var:402, quality:1.1647727012634277e+01,
                le:2.3650000000000000e+02 }
      -
         depth: 9
         value: 112.
         norm_class_idx: 14
         splits:
            - { var:124, quality:9., le:235. }
      -
         depth: 10
         value: 112.
         norm_class_idx: 14
      -
         depth: 10
         value: 99.
         norm_class_idx: 2
      -
         depth: 9
         value: 100.
         norm_class_idx: 3
         splits:
            - { var:322, quality:9.6190471649169922e+00, le:222. }
      -
         depth: 10
         value: 107.
         norm_class_idx: 10
      -
         depth: 10
         value: 100.
         norm_class_idx: 3
      -
         depth: 7
         value: 104.
         norm_class_idx: 7
         splits:
            - { var:78, quality:2.8704376220703125e+02,
                le:1.8350000000000000e+02 }
      -
         depth: 8
         value: 99.
         norm_class_idx: 2
         splits:
            - { var:107, quality:1.3199999809265137e+01,
                le:2.5350000000000000e+02 }
      -
         depth: 9
         value: 112.
         norm_class_idx: 14
      -
         depth: 9
         value: 99.
         norm_class_idx: 2
         splits:
            - { var:403, quality:1.3111110687255859e+01, le:22. }
      -
         depth: 10
         value: 107.
         norm_class_idx: 10
      -
         depth: 10
         value: 99.
         norm_class_idx: 2
      -
         depth: 8
         value: 104.
         norm_class_idx: 7
         splits:
            - { var:374, quality:2.9467987060546875e+02,
                le:2.3650000000000000e+02 }
      -
         depth: 9
         value: 97.
         norm_class_idx: 0
         splits:
            - { var:375, quality:9.4871797561645508e+00, le:201. }
      -
         depth: 10
         value: 107.
         norm_class_idx: 10
      -
         depth: 10
         value: 97.
         norm_class_idx: 0
      -
         depth: 9
         value: 104.
         norm_class_idx: 7
         splits:
            - { var:112, quality:2.9673263549804688e+02,
                le:1.8250000000000000e+02 }
      -
         depth: 10
         value: 104.
         norm_class_idx: 7
      -
         depth: 10
         value: 104.
         norm_class_idx: 7
      -
         depth: 6
         value: 99.
         norm_class_idx: 2
         splits:
            - { var:401, quality:5.6112346649169922e+01,
                le:1.4500000000000000e+01 }
      -
         depth: 7
         value: 112.
         norm_class_idx: 14
         splits:
            - { var:263, quality:3.2378787994384766e+01,
                le:1.6950000000000000e+02 }
      -
         depth: 8
         value: 104.
         norm_class_idx: 7
         splits:
            - { var:316, quality:1.7914285659790039e+01,
                le:2.2850000000000000e+02 }
      -
         depth: 9
         value: 97.
         norm_class_idx: 0
         splits:
            - { var:347, quality:1.1890110015869141e+01,
                le:2.5450000000000000e+02 }
      -
         depth: 10
         value: 97.
         norm_class_idx: 0
      -
         depth: 10
         value: 99.
         norm_class_idx: 2
      -
         depth: 9
         value: 104.
         norm_class_idx: 7
         splits:
            - { var:112, quality:1.5285714149475098e+01, le:111. }
      -
         depth: 10
         value: 104.
         norm_class_idx: 7
      -
         depth: 10
         value: 112.
         norm_class_idx: 14
      -
         depth: 8
         value: 112.
         norm_class_idx: 14
         splits:
            - { var:134, quality:2.5482759475708008e+01,
                le:8.0500000000000000e+01 }
      -
         depth: 9
         value: 99.
         norm_class_idx: 2
      -
         depth: 9
         value: 112.
         norm_class_idx: 14
         splits:
            - { var:145, quality:2.6074073791503906e+01,
                le:1.0950000000000000e+02 }
      -
         depth: 10
         value: 104.
         norm_class_idx: 7
      -
         depth: 10
         value: 112.
         norm_class_idx: 14
      -
         depth: 7
         value: 99.
         norm_class_idx: 2
         splits:
            - { var:313, quality:4.2765499114990234e+01, le:174. }
      -
         depth: 8
         value: 109.
         norm_class_idx: 12
      -
         depth: 8
         value: 99.
         norm_class_idx: 2
         splits:
            - { var:397, quality:4.1058822631835938e+01, le:254. }
      -
         depth: 9
         value: 97.
         norm_class_idx: 0
      -
         depth: 9
         value: 99.
         norm_class_idx: 2
         splits:
            - { var:138, quality:4.2125000000000000e+01, le:37. }
      -
         depth: 10
         value: 107.
         norm_class_idx: 10
      -
         depth: 10
         value: 99.
         norm_class_idx: 2
      -
         depth: 4
         value: 107.
         norm_class_idx: 10
         splits:
            - { var:65, quality:8.1283020019531250e+01,
                le:2.5050000000000000e+02 }
      -
         depth: 5
         value: 107.
         norm_class_idx: 10
         splits:
            - { var:402, quality:2.6212121963500977e+01,
                le:4.9500000000000000e+01 }
      -
         depth: 6
         value: 112.
         norm_class_idx: 14
         splits:
            - { var:31, quality:10., le:2.0950000000000000e+02 }
      -
         depth: 7
         value: 97.
         norm_class_idx: 0
      -
         depth: 7
         value: 112.
         norm_class_idx: 14
      -
         depth: 6
         value: 107.
         norm_class_idx: 10
         splits:
            - { var:114, quality:2.3151515960693359e+01,
                le:9.8500000000000000e+01 }
      -
         depth: 7
         value: 97.
         norm_class_idx: 0
      -
         depth: 7
         value: 107.
         norm_class_idx: 10
         splits:
            - { var:352, quality:2.3828571319580078e+01, le:39. }
      -
         depth: 8
         value: 99.
         norm_class_idx: 2
      -
         depth: 8
         value: 107.
         norm_class_idx: 10
         splits:
            - { var:4, quality:2.4222221374511719e+01,
                le:2.5000000000000000e+00 }
      -
         depth: 9
         value: 109.
         norm_class_idx: 12
      -
         depth: 9
         value: 107.
         norm_class_idx: 10
         splits:
            - { var:287, quality:2.5076923370361328e+01,
                le:1.5000000000000000e+00 }
      -
         depth: 10
         value: 112.
         norm_class_idx: 14
      -
         depth: 10
         value: 107.
         norm_class_idx: 10
      -
         depth: 5
         value: 107.
         norm_class_idx: 10
         splits:
            - { var:42, quality:6.7244361877441406e+01,
                le:2.2250000000000000e+02 }
      -
         depth: 6
         value: 99.
         norm_class_idx: 2
      -
         depth: 6
         value: 107.
         norm_class_idx: 10
         splits:
            - { var:146, quality:6.6832786560058594e+01, le:109. }
      -
         depth: 7
         value: 107.
         norm_class_idx: 10
         splits:
            - { var:176, quality:11., le:2.1150000000000000e+02 }
      -
         depth: 8
         value: 104.
         norm_class_idx: 7
      -
         depth: 8
         value: 107.
         norm_class_idx: 10
      -
         depth: 7
         value: 107.
         norm_class_idx: 10
         splits:
            - { var:121, quality:60., le:8.5500000000000000e+01 }
      -
         depth: 8
         value: 104.
         norm_class_idx: 7
      -
         depth: 8
         value: 107.
         norm_class_idx: 10
      -
         depth: 1
         value: 109.
         norm_class_idx: 12
         splits:
            - { var:401, quality:6.7853485107421875e+02,
                le:1.5500000000000000e+01 }
      -
         depth: 2
         value: 110.
         norm_class_idx: 13
         splits:
            - { var:400, quality:4.0581008911132812e+02,
                le:4.7500000000000000e+01 }
      -
         depth: 3
         value: 110.
         norm_class_idx: 13
         splits:
            - { var:401, quality:3.4242126464843750e+02,
                le:6.5000000000000000e+00 }
      -
         depth: 4
         value: 108.
         norm_class_idx: 11
         splits:
            - { var:400, quality:1.8971968078613281e+02,
                le:2.0500000000000000e+01 }
      -
         depth: 5
         value: 108.
         norm_class_idx: 11
         splits:
            - { var:403, quality:1.2895370483398438e+02, le:16. }
      -
         depth: 6
         value: 107.
         norm_class_idx: 10
         splits:
            - { var:129, quality:1.5461538314819336e+01, le:72. }
      -
         depth: 7
         value: 107.
         norm_class_idx: 10
         splits:
            - { var:107, quality:12., le:2.3500000000000000e+01 }
      -
         depth: 8
         value: 106.
         norm_class_idx: 9
      -
         depth: 8
         value: 107.
         norm_class_idx: 10
      -
         depth: 7
         value: 112.
         norm_class_idx: 14
      -
         depth: 6
         value: 108.
         norm_class_idx: 11
         splits:
            - { var:88, quality:1.3035978698730469e+02, le:240. }
      -
         depth: 7
         value: 108.
         norm_class_idx: 11
         splits:
            - { var:403, quality:1.3175410461425781e+02, le:81. }
      -
         depth: 8
         value: 108.
         norm_class_idx: 11
         splits:
            - { var:237, quality:1.3474026489257812e+02,
                le:1.8550000000000000e+02 }
      -
         depth: 9
         value: 106.
         norm_class_idx: 9
      -
         depth: 9
         value: 108.
         norm_class_idx: 11
         splits:
            - { var:223, quality:1.3493750000000000e+02,
                le:1.6250000000000000e+02 }
      -
         depth: 10
         value: 108.
         norm_class_idx: 11
      -
         depth: 10
         value: 108.
         norm_class_idx: 11
      -
         depth: 8
         value: 107.
         norm_class_idx: 10
      -
         depth: 7
         value: 112.
         norm_class_idx: 14
         splits:
            - { var:96, quality:1.3777777671813965e+01, le:122. }
      -
         depth: 8
         value: 108.
         norm_class_idx: 11
      -
         depth: 8
         value: 112.
         norm_class_idx: 14
         splits:
            - { var:328, quality:1.2933333396911621e+01,
                le:3.7500000000000000e+01 }
      -
         depth: 9
         value: 110.
         norm_class_idx: 13
      -
         depth: 9
         value: 112.
         norm_class_idx: 14
         splits:
            - { var:0, quality:1.3153845787048340e+01, le:39. }
      -
         depth: 10
         value: 108.
         norm_class_idx: 11
      -
         depth: 10
         value: 112.
         norm_class_idx: 14
      -
         depth: 5
         value: 106.
         norm_class_idx: 9
         splits:
            - { var:403, quality:8.8492721557617188e+01,
                le:4.3500000000000000e+01 }
      -
         depth: 6
         value: 106.
         norm_class_idx: 9
         splits:
            - { var:248, quality:8.4044754028320312e+01, le:250. }
      -
         depth: 7
         value: 106.
         norm_class_idx: 9
         splits:
            - { var:129, quality:8.4771652221679688e+01, le:242. }
      -
         depth: 8
         value: 106.
         norm_class_idx: 9
         splits:
            - { var:194, quality:8.5584060668945312e+01, le:51. }
      -
         depth: 9
         value: 108.
         norm_class_idx: 11
         splits:
            - { var:193, quality:1.0333333015441895e+01,
                le:5.5000000000000000e+00 }
      -
         depth: 10
         value: 106.
         norm_class_idx: 9
      -
         depth: 10
         value: 108.
         norm_class_idx: 11
      -
         depth: 9
         value: 106.
         norm_class_idx: 9
         splits:
            - { var:403, quality:8.2246269226074219e+01,
                le:2.9500000000000000e+01 }
      -
         depth: 10
         value: 106.
         norm_class_idx: 9
      -
         depth: 10
         value: 106.
         norm_class_idx: 9
      -
         depth: 8
         value: 110.
         norm_class_idx: 13
      -
         depth: 7
         value: 110.
         norm_class_idx: 13
         splits:
            - { var:3, quality:7.8000001907348633e+00,
                le:2.4850000000000000e+02 }
      -
         depth: 8
         value: 106.
         norm_class_idx: 9
      -
         depth: 8
         value: 110.
         norm_class_idx: 13
      -
         depth: 6
         value: 108.
         norm_class_idx: 11
         splits:
            - { var:42, quality:1.4633333206176758e+01, le:206. }
      -
         depth: 7
         value: 106.
         norm_class_idx: 9
      -
         depth: 7
         value: 108.
         norm_class_idx: 11
         splits:
            - { var:26, quality:15., le:240. }
      -
         depth: 8
         value: 108.
         norm_class_idx: 11
      -
         depth: 8
         value: 107.
         norm_class_idx: 10
      -
         depth: 4
         value: 110.
         norm_class_idx: 13
         splits:
            - { var:400, quality:2.7687298583984375e+02,
                le:1.6500000000000000e+01 }
      -
         depth: 5
         value: 97.
         norm_class_idx: 0
         splits:
            - { var:29, quality:7.1054321289062500e+01,
                le:1.8650000000000000e+02 }
      -
         depth: 6
         value: 97.
         norm_class_idx: 0
         splits:
            - { var:109, quality:5.4657672882080078e+01, le:247. }
      -
         depth: 7
         value: 97.
         norm_class_idx: 0
         splits:
            - { var:202, quality:1.5107604026794434e+01, le:234. }
      -
         depth: 8
         value: 112.
         norm_class_idx: 14
         splits:
            - { var:275, quality:1.0555555343627930e+01,
                le:2.5350000000000000e+02 }
      -
         depth: 9
         value: 107.
         norm_class_idx: 10
      -
         depth: 9
         value: 112.
         norm_class_idx: 14
      -
         depth: 8
         value: 97.
         norm_class_idx: 0
         splits:
            - { var:106, quality:1.4119047164916992e+01, le:110. }
      -
         depth: 9
         value: 107.
         norm_class_idx: 10
         splits:
            - { var:112, quality:7.3333334922790527e+00,
                le:6.8500000000000000e+01 }
      -
         depth: 10
         value: 110.
         norm_class_idx: 13
      -
         depth: 10
         value: 107.
         norm_class_idx: 10
      -
         depth: 9
         value: 97.
         norm_class_idx: 0
         splits:
            - { var:168, quality:1.4399999618530273e+01,
                le:1.4450000000000000e+02 }
      -
         depth: 10
         value: 97.
         norm_class_idx: 0
      -
         depth: 10
         value: 107.
         norm_class_idx: 10
      -
         depth: 7
         value: 97.
         norm_class_idx: 0
         splits:
            - { var:103, quality:5.1579219818115234e+01, le:44. }
      -
         depth: 8
         value: 112.
         norm_class_idx: 14
         splits:
            - { var:25, quality:8.2857141494750977e+00,
                le:1.6750000000000000e+02 }
      -
         depth: 9
         value: 112.
         norm_class_idx: 14
      -
         depth: 9
         value: 97.
         norm_class_idx: 0
      -
         depth: 8
         value: 97.
         norm_class_idx: 0
         splits:
            - { var:167, quality:5.1705127716064453e+01, le:57. }
      -
         depth: 9
         value: 109.
         norm_class_idx: 12
      -
         depth: 9
         value: 97.
         norm_class_idx: 0
         splits:
            - { var:154, quality:52., le:7. }
      -
         depth: 10
         value: 107.
         norm_class_idx: 10
      -
         depth: 10
         value: 97.
         norm_class_idx: 0
      -
         depth: 6
         value: 112.
         norm_class_idx: 14
         splits:
            - { var:45, quality:3.8748100280761719e+01,
                le:1.9250000000000000e+02 }
      -
         depth: 7
         value: 102.
         norm_class_idx: 5
         splits:
            - { var:227, quality:3.0032918930053711e+01,
                le:1.8550000000000000e+02 }
      -
         depth: 8
         value: 102.
         norm_class_idx: 5
         splits:
            - { var:254, quality:3.0125581741333008e+01,
                le:2.3050000000000000e+02 }
      -
         depth: 9
         value: 102.
         norm_class_idx: 5
         splits:
            - { var:401, quality:3.3045043945312500e+01,
                le:1.1500000000000000e+01 }
      -
         depth: 10
         value: 102.
         norm_class_idx: 5
      -
         depth: 10
         value: 109.
         norm_class_idx: 12
      -
         depth: 9
         value: 97.
         norm_class_idx: 0
      -
         depth: 8
         value: 112.
         norm_class_idx: 14
         splits:
            - { var:115, quality:1.2480769157409668e+01, le:45. }
      -
         depth: 9
         value: 101.
         norm_class_idx: 4
      -
         depth: 9
         value: 112.
         norm_class_idx: 14
         splits:
            - { var:351, quality:1.0352941513061523e+01, le:253. }
      -
         depth: 10
         value: 112.
         norm_class_idx: 14
      -
         depth: 10
         value: 99.
         norm_class_idx: 2
      -
         depth: 7
         value: 112.
         norm_class_idx: 14
         splits:
            - { var:403, quality:2.7171232223510742e+01, le:78. }
      -
         depth: 8
         value: 112.
         norm_class_idx: 14
         splits:
            - { var:58, quality:2.6367647171020508e+01,
                le:1.2750000000000000e+02 }
      -
         depth: 9
         value: 112.
         norm_class_idx: 14
      -
         depth: 9
         value: 104.
         norm_class_idx: 7
         splits:
            - { var:403, quality:2.3182081222534180e+01,
                le:1.3500000000000000e+01 }
      -
         depth: 10
         value: 107.
         norm_class_idx: 10
      -
         depth: 10
         value: 104.
         norm_class_idx: 7
      -
         depth: 8
         value: 107.
         norm_class_idx: 10
         splits:
            - { var:86, quality:11., le:166. }
      -
         depth: 9
         value: 109.
         norm_class_idx: 12
      -
         depth: 9
         value: 107.
         norm_class_idx: 10
      -
         depth: 5
         value: 110.
         norm_class_idx: 13
         splits:
            - { var:23, quality:2.5538627624511719e+02,
                le:1.9750000000000000e+02 }
      -
         depth: 6
         value: 109.
         norm_class_idx: 12
         splits:
            - { var:400, quality:1.7509803771972656e+01,
                le:2.2500000000000000e+01 }
      -
         depth: 7
         value: 112.
         norm_class_idx: 14
         splits:
            - { var:226, quality:1.3500000000000000e+01,
                le:9.5500000000000000e+01 }
      -
         depth: 8
         value: 102.
         norm_class_idx: 5
         splits:
            - { var:292, quality:11., le:1.5350000000000000e+02 }
      -
         depth: 9
         value: 102.
         norm_class_idx: 5
      -
         depth: 9
         value: 97.
         norm_class_idx: 0
      -
         depth: 8
         value: 112.
         norm_class_idx: 14
         splits:
            - { var:297, quality:1.1032727241516113e+01,
                le:1.4050000000000000e+02 }
      -
         depth: 9
         value: 112.
         norm_class_idx: 14
         splits:
            - { var:129, quality:9.6666669845581055e+00, le:68. }
      -
         depth: 10
         value: 99.
         norm_class_idx: 2
      -
         depth: 10
         value: 112.
         norm_class_idx: 14
      -
         depth: 9
         value: 107.
         norm_class_idx: 10
         splits:
            - { var:261, quality:1.0266666412353516e+01, le:254. }
      -
         depth: 10
         value: 107.
         norm_class_idx: 10
      -
         depth: 10
         value: 97.
         norm_class_idx: 0
      -
         depth: 7
         value: 109.
         norm_class_idx: 12
         splits:
            - { var:401, quality:1.5115385055541992e+01,
                le:1.1500000000000000e+01 }
      -
         depth: 8
         value: 106.
         norm_class_idx: 9
         splits:
            - { var:403, quality:1.0171428680419922e+01,
                le:2.2500000000000000e+01 }
      -
         depth: 9
         value: 110.
         norm_class_idx: 13
      -
         depth: 9
         value: 106.
         norm_class_idx: 9
         splits:
            - { var:224, quality:1.0571428298950195e+01,
                le:2.5450000000000000e+02 }
      -
         depth: 10
         value: 106.
         norm_class_idx: 9
      -
         depth: 10
         value: 108.
         norm_class_idx: 11
      -
         depth: 8
         value: 109.
         norm_class_idx: 12
         splits:
            - { var:26, quality:1.3395604133605957e+01,
                le:6.0500000000000000e+01 }
      -
         depth: 9
         value: 110.
         norm_class_idx: 13
         splits:
            - { var:9, quality:7.7142858505249023e+00, le:217. }
      -
         depth: 10
         value: 110.
         norm_class_idx: 13
      -
         depth: 10
         value: 112.
         norm_class_idx: 14
      -
         depth: 9
         value: 109.
         norm_class_idx: 12
         splits:
            - { var:232, quality:1.5241829872131348e+01, le:254. }
      -
         depth: 10
         value: 108.
         norm_class_idx: 11
      -
         depth: 10
         value: 109.
         norm_class_idx: 12
      -
         depth: 6
         value: 110.
         norm_class_idx: 13
         splits:
            - { var:169, quality:2.6981747436523438e+02,
                le:1.7950000000000000e+02 }
      -
         depth: 7
         value: 110.
         norm_class_idx: 13
         splits:
            - { var:154, quality:5.2892013549804688e+01,
                le:1.5350000000000000e+02 }
      -
         depth: 8
         value: 115.
         norm_class_idx: 15
         splits:
            - { var:149, quality:3.3388744354248047e+01,
                le:1.1850000000000000e+02 }
      -
         depth: 9
         value: 115.
         norm_class_idx: 15
         splits:
            - { var:57, quality:3.1230770111083984e+01, le:253. }
      -
         depth: 10
         value: 110.
         norm_class_idx: 13
      -
         depth: 10
         value: 115.
         norm_class_idx: 15
      -
         depth: 9
         value: 109.
         norm_class_idx: 12
         splits:
            - { var:167, quality:1.3399999618530273e+01, le:132. }
      -
         depth: 10
         value: 109.
         norm_class_idx: 12
      -
         depth: 10
         value: 110.
         norm_class_idx: 13
      -
         depth: 8
         value: 110.
         norm_class_idx: 13
         splits:
            - { var:215, quality:3.7181819915771484e+01,
                le:2.5450000000000000e+02 }
      -
         depth: 9
         value: 106.
         norm_class_idx: 9
         splits:
            - { var:149, quality:7.0833334922790527e+00,
                le:1.5250000000000000e+02 }
      -
         depth: 10
         value: 106.
         norm_class_idx: 9
      -
         depth: 10
         value: 109.
         norm_class_idx: 12
      -
         depth: 9
         value: 110.
         norm_class_idx: 13
         splits:
            - { var:30, quality:3.9829059600830078e+01,
                le:2.2350000000000000e+02 }
      -
         depth: 10
         value: 110.
         norm_class_idx: 13
      -
         depth: 10
         value: 110.
         norm_class_idx: 13
      -
         depth: 7
         value: 110.
         norm_class_idx: 13
         splits:
            - { var:252, quality:2.4922200012207031e+02, le:83. }
      -
         depth: 8
         value: 110.
         norm_class_idx: 13
         splits:
            - { var:307, quality:1.7904443740844727e+01,
                le:2.1850000000000000e+02 }
      -
         depth: 9
         value: 110.
         norm_class_idx: 13
         splits:
            - { var:147, quality:1.4920635223388672e+01,
                le:2.5350000000000000e+02 }
      -
         depth: 10
         value: 104.
         norm_class_idx: 7
      -
         depth: 10
         value: 110.
         norm_class_idx: 13
      -
         depth: 9
         value: 109.
         norm_class_idx: 12
         splits:
            - { var:293, quality:1.2421817779541016e+01,
                le:2.0650000000000000e+02 }
      -
         depth: 10
         value: 109.
         norm_class_idx: 12
      -
         depth: 10
         value: 109.
         norm_class_idx: 12
      -
         depth: 8
         value: 110.
         norm_class_idx: 13
         splits:
            - { var:262, quality:2.4524951171875000e+02, le:227. }
      -
         depth: 9
         value: 110.
         norm_class_idx: 13
         splits:
            - { var:66, quality:3.6034313201904297e+01,
                le:2.4150000000000000e+02 }
      -
         depth: 10
         value: 110.
         norm_class_idx: 13
      -
         depth: 10
         value: 109.
         norm_class_idx: 12
      -
         depth: 9
         value: 110.
         norm_class_idx: 13
         splits:
            - { var:396, quality:2.2362525939941406e+02,
                le:2.4650000000000000e+02 }
      -
         depth: 10
         value: 106.
         norm_class_idx: 9
      -
         depth: 10
         value: 110.
         norm_class_idx: 13
      -
         depth: 3
         value: 106.
         norm_class_idx: 9
         splits:
            - { var:121, quality:2.0002458190917969e+02, le:202. }
      -
         depth: 4
         value: 110.
         norm_class_idx: 13
      -
         depth: 4
         value: 106.
         norm_class_idx: 9
         splits:
            - { var:341, quality:2.0140289306640625e+02, le:199. }
      -
         depth: 5
         value: 106.
         norm_class_idx: 9
      -
         depth: 5
         value: 106.
         norm_class_idx: 9
         splits:
            - { var:403, quality:1.9915533447265625e+02, le:57. }
      -
         depth: 6
         value: 106.
         norm_class_idx: 9
         splits:
            - { var:158, quality:2.0008779907226562e+02,
                le:1.0750000000000000e+02 }
      -
         depth: 7
         value: 109.
         norm_class_idx: 12
      -
         depth: 7
         value: 106.
         norm_class_idx: 9
         splits:
            - { var:175, quality:2.0103921508789062e+02, le:5. }
      -
         depth: 8
         value: 109.
         norm_class_idx: 12
      -
         depth: 8
         value: 106.
         norm_class_idx: 9
         splits:
            - { var:400, quality:2.0050999450683594e+02,
                le:4.9500000000000000e+01 }
      -
         depth: 9
         value: 106.
         norm_class_idx: 9
      -
         depth: 9
         value: 106.
         norm_class_idx: 9
         splits:
            - { var:247, quality:1.9812500000000000e+02, le:18. }
      -
         depth: 10
         value: 106.
         norm_class_idx: 9
      -
         depth: 10
         value: 106.
         norm_class_idx: 9
      -
         depth: 6
         value: 110.
         norm_class_idx: 13
      -
         depth: 2
         value: 109.
         norm_class_idx: 12
         splits:
            - { var:400, quality:4.4101815795898438e+02,
                le:2.4500000000000000e+01 }
      -
         depth: 3
         value: 109.
         norm_class_idx: 12
         splits:
            - { var:378, quality:1.7879118347167969e+02, le:138. }
      -
         depth: 4
         value: 99.
         norm_class_idx: 2
         splits:
            - { var:367, quality:1.8200000762939453e+01,
                le:2.2950000000000000e+02 }
      -
         depth: 5
         value: 109.
         norm_class_idx: 12
      -
         depth: 5
         value: 99.
         norm_class_idx: 2
         splits:
            - { var:322, quality:1.7682538986206055e+01, le:187. }
      -
         depth: 6
         value: 97.
         norm_class_idx: 0
      -
         depth: 6
         value: 99.
         norm_class_idx: 2
         splits:
            - { var:290, quality:1.8105262756347656e+01, le:7. }
      -
         depth: 7
         value: 107.
         norm_class_idx: 10
      -
         depth: 7
         value: 99.
         norm_class_idx: 2
         splits:
            - { var:27, quality:19., le:93. }
      -
         depth: 8
         value: 97.
         norm_class_idx: 0
      -
         depth: 8
         value: 99.
         norm_class_idx: 2
      -
         depth: 4
         value: 109.
         norm_class_idx: 12
         splits:
            - { var:403, quality:1.7605596923828125e+02,
                le:5.0000000000000000e-01 }
      -
         depth: 5
         value: 107.
         norm_class_idx: 10
         splits:
            - { var:368, quality:2.2899999618530273e+01,
                le:2.2650000000000000e+02 }
      -
         depth: 6
         value: 107.
         norm_class_idx: 10
      -
         depth: 6
         value: 109.
         norm_class_idx: 12
         splits:
            - { var:148, quality:1.8299999237060547e+01,
                le:1.6550000000000000e+02 }
      -
         depth: 7
         value: 109.
         norm_class_idx: 12
         splits:
            - { var:88, quality:1.4250000000000000e+01, le:198. }
      -
         depth: 8
         value: 112.
         norm_class_idx: 14
      -
         depth: 8
         value: 109.
         norm_class_idx: 12
      -
         depth: 7
         value: 107.
         norm_class_idx: 10
         splits:
            - { var:92, quality:1.2181818008422852e+01,
                le:2.2350000000000000e+02 }
      -
         depth: 8
         value: 109.
         norm_class_idx: 12
      -
         depth: 8
         value: 107.
         norm_class_idx: 10
         splits:
            - { var:0, quality:11., le:25. }
      -
         depth: 9
         value: 109.
         norm_class_idx: 12
      -
         depth: 9
         value: 107.
         norm_class_idx: 10
      -
         depth: 5
         value: 109.
         norm_class_idx: 12
         splits:
            - { var:403, quality:1.6923722839355469e+02,
                le:7.5500000000000000e+01 }
      -
         depth: 6
         value: 109.
         norm_class_idx: 12
         splits:
            - { var:214, quality:1.6439988708496094e+02,
                le:2.5350000000000000e+02 }
      -
         depth: 7
         value: 109.
         norm_class_idx: 12
         splits:
            - { var:26, quality:1.1396815490722656e+02, le:72. }
      -
         depth: 8
         value: 105.
         norm_class_idx: 8
      -
         depth: 8
         value: 109.
         norm_class_idx: 12
         splits:
            - { var:0, quality:1.1685713958740234e+02,
                le:2.5150000000000000e+02 }
      -
         depth: 9
         value: 97.
         norm_class_idx: 0
      -
         depth: 9
         value: 109.
         norm_class_idx: 12
         splits:
            - { var:350, quality:1.1795820617675781e+02,
                le:6.3500000000000000e+01 }
      -
         depth: 10
         value: 109.
         norm_class_idx: 12
      -
         depth: 10
         value: 109.
         norm_class_idx: 12
      -
         depth: 7
         value: 109.
         norm_class_idx: 12
         splits:
            - { var:38, quality:6.5466667175292969e+01, le:196. }
      -
         depth: 8
         value: 99.
         norm_class_idx: 2
         splits:
            - { var:95, quality:1.3365078926086426e+01, le:82. }
      -
         depth: 9
         value: 98.
         norm_class_idx: 1
      -
         depth: 9
         value: 99.
         norm_class_idx: 2
         splits:
            - { var:276, quality:1.1774999618530273e+01,
                le:7.0500000000000000e+01 }
      -
         depth: 10
         value: 109.
         norm_class_idx: 12
      -
         depth: 10
         value: 99.
         norm_class_idx: 2
      -
         depth: 8
         value: 109.
         norm_class_idx: 12
         splits:
            - { var:401, quality:6.2378150939941406e+01,
                le:1.6500000000000000e+01 }
      -
         depth: 9
         value: 99.
         norm_class_idx: 2
      -
         depth: 9
         value: 109.
         norm_class_idx: 12
         splits:
            - { var:208, quality:6.5036743164062500e+01, le:241. }
      -
         depth: 10
         value: 109.
         norm_class_idx: 12
      -
         depth: 10
         value: 109.
         norm_class_idx: 12
      -
         depth: 6
         value: 107.
         norm_class_idx: 10
         splits:
            - { var:177, quality:1.8880434036254883e+01, le:160. }
      -
         depth: 7
         value: 109.
         norm_class_idx: 12
      -
         depth: 7
         value: 107.
         norm_class_idx: 10
         splits:
            - { var:401, quality:1.8267856597900391e+01,
                le:2.9500000000000000e+01 }
      -
         depth: 8
         value: 107.
         norm_class_idx: 10
         splits:
            - { var:85, quality:16., le:2.7500000000000000e+01 }
      -
         depth: 9
         value: 109.
         norm_class_idx: 12
      -
         depth: 9
         value: 107.
         norm_class_idx: 10
      -
         depth: 8
         value: 109.
         norm_class_idx: 12
      -
         depth: 3
         value: 109.
         norm_class_idx: 12
         splits:
            - { var:401, quality:2.8968103027343750e+02,
                le:1.8500000000000000e+01 }
      -
         depth: 4
         value: 109.
         norm_class_idx: 12
         splits:
            - { var:402, quality:4.5319999694824219e+01, le:25. }
      -
         depth: 5
         value: 103.
         norm_class_idx: 6
         splits:
            - { var:83, quality:1.7047618865966797e+01, le:254. }
      -
         depth: 6
         value: 105.
         norm_class_idx: 8
      -
         depth: 6
         value: 103.
         norm_class_idx: 6
         splits:
            - { var:18, quality:17., le:1.6950000000000000e+02 }
      -
         depth: 7
         value: 109.
         norm_class_idx: 12
      -
         depth: 7
         value: 103.
         norm_class_idx: 6
      -
         depth: 5
         value: 109.
         norm_class_idx: 12
         splits:
            - { var:28, quality:4.2604682922363281e+01, le:148. }
      -
         depth: 6
         value: 110.
         norm_class_idx: 13
         splits:
            - { var:336, quality:1.4125000000000000e+01,
                le:2.5450000000000000e+02 }
      -
         depth: 7
         value: 97.
         norm_class_idx: 0
      -
         depth: 7
         value: 110.
         norm_class_idx: 13
         splits:
            - { var:48, quality:1.4142857551574707e+01, le:239. }
      -
         depth: 8
         value: 110.
         norm_class_idx: 13
         splits:
            - { var:65, quality:14., le:2.0500000000000000e+01 }
      -
         depth: 9
         value: 109.
         norm_class_idx: 12
      -
         depth: 9
         value: 110.
         norm_class_idx: 13
      -
         depth: 8
         value: 109.
         norm_class_idx: 12
      -
         depth: 6
         value: 109.
         norm_class_idx: 12
         splits:
            - { var:131, quality:3.7662696838378906e+01, le:109. }
      -
         depth: 7
         value: 115.
         norm_class_idx: 15
      -
         depth: 7
         value: 109.
         norm_class_idx: 12
         splits:
            - { var:197, quality:3.8782608032226562e+01, le:129. }
      -
         depth: 8
         value: 109.
         norm_class_idx: 12
      -
         depth: 8
         value: 109.
         norm_class_idx: 12
         splits:
            - { var:341, quality:3.9746341705322266e+01,
                le:8.9500000000000000e+01 }
      -
         depth: 9
         value: 110.
         norm_class_idx: 13
      -
         depth: 9
         value: 109.
         norm_class_idx: 12
         splits:
            - { var:18, quality:3.9049999237060547e+01,
                le:2.1050000000000000e+02 }
      -
         depth: 10
         value: 97.
         norm_class_idx: 0
      -
         depth: 10
         value: 109.
         norm_class_idx: 12
      -
         depth: 4
         value: 109.
         norm_class_idx: 12
         splits:
            - { var:13, quality:2.6088265991210938e+02, le:222. }
      -
         depth: 5
         value: 109.
         norm_class_idx: 12
         splits:
            - { var:402, quality:1.9073890686035156e+01,
                le:2.2500000000000000e+01 }
      -
         depth: 6
         value: 103.
         norm_class_idx: 6
      -
         depth: 6
         value: 109.
         norm_class_idx: 12
         splits:
            - { var:66, quality:1.9149999618530273e+01,
                le:2.0950000000000000e+02 }
      -
         depth: 7
         value: 97.
         norm_class_idx: 0
      -
         depth: 7
         value: 109.
         norm_class_idx: 12
         splits:
            - { var:352, quality:2.0285715103149414e+01, le:66. }
      -
         depth: 8
         value: 110.
         norm_class_idx: 13
      -
         depth: 8
         value: 109.
         norm_class_idx: 12
         splits:
            - { var:44, quality:20., le:1.1450000000000000e+02 }
      -
         depth: 9
         value: 107.
         norm_class_idx: 10
      -
         depth: 9
         value: 109.
         norm_class_idx: 12
      -
         depth: 5
         value: 109.
         norm_class_idx: 12
         splits:
            - { var:320, quality:2.4968556213378906e+02,
                le:7.9500000000000000e+01 }
      -
         depth: 6
         value: 99.
         norm_class_idx: 2
      -
         depth: 6
         value: 109.
         norm_class_idx: 12
         splits:
            - { var:217, quality:2.5010948181152344e+02,
                le:3.0500000000000000e+01 }
      -
         depth: 7
         value: 109.
         norm_class_idx: 12
         splits:
            - { var:58, quality:1.0555555343627930e+01,
                le:2.5450000000000000e+02 }
      -
         depth: 8
         value: 109.
         norm_class_idx: 12
      -
         depth: 8
         value: 99.
         norm_class_idx: 2
      -
         depth: 7
         value: 109.
         norm_class_idx: 12
         splits:
            - { var:109, quality:2.4552275085449219e+02,
                le:5.5000000000000000e+00 }
      -
         depth: 8
         value: 106.
         norm_class_idx: 9
      -
         depth: 8
         value: 109.
         norm_class_idx: 12
         splits:
            - { var:240, quality:2.4575555419921875e+02,
                le:2.2500000000000000e+01 }
      -
         depth: 9
         value: 97.
         norm_class_idx: 0
      -
         depth: 9
         value: 109.
         norm_class_idx: 12
         splits:
            - { var:58, quality:2.4664683532714844e+02,
                le:1.5000000000000000e+00 }
      -
         depth: 10
         value: 99.
         norm_class_idx: 2
      -
         depth: 10
         value: 109.
         norm_class_idx: 12
