%YAML:1.0
---
opencv_ml_dtree:
   format: 3
   is_classifier: 1
   var_all: 421
   var_count: 420
   ord_var_count: 420
   cat_var_count: 1
   training_params:
      use_surrogates: 0
      max_categories: 15
      regression_accuracy: 9.9999997764825821e-03
      max_depth: 10
      min_sample_count: 10
      cross_validation_folds: 0
   global_var_idx: 1
   var_idx: [ 0, 1, 2, 3, 4, 5, 6, 7, 8, 9, 10, 11, 12, 13, 14, 15, 16,
       17, 18, 19, 20, 21, 22, 23, 24, 25, 26, 27, 28, 29, 30, 31, 32,
       33, 34, 35, 36, 37, 38, 39, 40, 41, 42, 43, 44, 45, 46, 47, 48,
       49, 50, 51, 52, 53, 54, 55, 56, 57, 58, 59, 60, 61, 62, 63, 64,
       65, 66, 67, 68, 69, 70, 71, 72, 73, 74, 75, 76, 77, 78, 79, 80,
       81, 82, 83, 84, 85, 86, 87, 88, 89, 90, 91, 92, 93, 94, 95, 96,
       97, 98, 99, 100, 101, 102, 103, 104, 105, 106, 107, 108, 109, 110,
       111, 112, 113, 114, 115, 116, 117, 118, 119, 120, 121, 122, 123,
       124, 125, 126, 127, 128, 129, 130, 131, 132, 133, 134, 135, 136,
       137, 138, 139, 140, 141, 142, 143, 144, 145, 146, 147, 148, 149,
       150, 151, 152, 153, 154, 155, 156, 157, 158, 159, 160, 161, 162,
       163, 164, 165, 166, 167, 168, 169, 170, 171, 172, 173, 174, 175,
       176, 177, 178, 179, 180, 181, 182, 183, 184, 185, 186, 187, 188,
       189, 190, 191, 192, 193, 194, 195, 196, 197, 198, 199, 200, 201,
       202, 203, 204, 205, 206, 207, 208, 209, 210, 211, 212, 213, 214,
       215, 216, 217, 218, 219, 220, 221, 222, 223, 224, 225, 226, 227,
       228, 229, 230, 231, 232, 233, 234, 235, 236, 237, 238, 239, 240,
       241, 242, 243, 244, 245, 246, 247, 248, 249, 250, 251, 252, 253,
       254, 255, 256, 257, 258, 259, 260, 261, 262, 263, 264, 265, 266,
       267, 268, 269, 270, 271, 272, 273, 274, 275, 276, 277, 278, 279,
       280, 281, 282, 283, 284, 285, 286, 287, 288, 289, 290, 291, 292,
       293, 294, 295, 296, 297, 298, 299, 300, 301, 302, 303, 304, 305,
       306, 307, 308, 309, 310, 311, 312, 313, 314, 315, 316, 317, 318,
       319, 320, 321, 322, 323, 324, 325, 326, 327, 328, 329, 330, 331,
       332, 333, 334, 335, 336, 337, 338, 339, 340, 341, 342, 343, 344,
       345, 346, 347, 348, 349, 350, 351, 352, 353, 354, 355, 356, 357,
       358, 359, 360, 361, 362, 363, 364, 365, 366, 367, 368, 369, 370,
       371, 372, 373, 374, 375, 376, 377, 378, 379, 380, 381, 382, 383,
       384, 385, 386, 387, 388, 389, 390, 391, 392, 393, 394, 395, 396,
       397, 398, 399, 400, 401, 402, 403, 404, 405, 406, 407, 408, 409,
       410, 411, 412, 413, 414, 415, 416, 417, 418, 419 ]
   var_type: [ 0, 0, 0, 0, 0, 0, 0, 0, 0, 0, 0, 0, 0, 0, 0, 0, 0, 0, 0,
       0, 0, 0, 0, 0, 0, 0, 0, 0, 0, 0, 0, 0, 0, 0, 0, 0, 0, 0, 0, 0, 0,
       0, 0, 0, 0, 0, 0, 0, 0, 0, 0, 0, 0, 0, 0, 0, 0, 0, 0, 0, 0, 0, 0,
       0, 0, 0, 0, 0, 0, 0, 0, 0, 0, 0, 0, 0, 0, 0, 0, 0, 0, 0, 0, 0, 0,
       0, 0, 0, 0, 0, 0, 0, 0, 0, 0, 0, 0, 0, 0, 0, 0, 0, 0, 0, 0, 0, 0,
       0, 0, 0, 0, 0, 0, 0, 0, 0, 0, 0, 0, 0, 0, 0, 0, 0, 0, 0, 0, 0, 0,
       0, 0, 0, 0, 0, 0, 0, 0, 0, 0, 0, 0, 0, 0, 0, 0, 0, 0, 0, 0, 0, 0,
       0, 0, 0, 0, 0, 0, 0, 0, 0, 0, 0, 0, 0, 0, 0, 0, 0, 0, 0, 0, 0, 0,
       0, 0, 0, 0, 0, 0, 0, 0, 0, 0, 0, 0, 0, 0, 0, 0, 0, 0, 0, 0, 0, 0,
       0, 0, 0, 0, 0, 0, 0, 0, 0, 0, 0, 0, 0, 0, 0, 0, 0, 0, 0, 0, 0, 0,
       0, 0, 0, 0, 0, 0, 0, 0, 0, 0, 0, 0, 0, 0, 0, 0, 0, 0, 0, 0, 0, 0,
       0, 0, 0, 0, 0, 0, 0, 0, 0, 0, 0, 0, 0, 0, 0, 0, 0, 0, 0, 0, 0, 0,
       0, 0, 0, 0, 0, 0, 0, 0, 0, 0, 0, 0, 0, 0, 0, 0, 0, 0, 0, 0, 0, 0,
       0, 0, 0, 0, 0, 0, 0, 0, 0, 0, 0, 0, 0, 0, 0, 0, 0, 0, 0, 0, 0, 0,
       0, 0, 0, 0, 0, 0, 0, 0, 0, 0, 0, 0, 0, 0, 0, 0, 0, 0, 0, 0, 0, 0,
       0, 0, 0, 0, 0, 0, 0, 0, 0, 0, 0, 0, 0, 0, 0, 0, 0, 0, 0, 0, 0, 0,
       0, 0, 0, 0, 0, 0, 0, 0, 0, 0, 0, 0, 0, 0, 0, 0, 0, 0, 0, 0, 0, 0,
       0, 0, 0, 0, 0, 0, 0, 0, 0, 0, 0, 0, 0, 0, 0, 0, 0, 0, 0, 0, 0, 0,
       0, 0, 0, 0, 0, 0, 0, 0, 0, 0, 0, 0, 0, 0, 0, 0, 0, 0, 0, 0, 0, 0,
       0, 0, 0, 0, 0, 1 ]
   cat_ofs: [ 0, 0, 0, 0, 0, 0, 0, 0, 0, 0, 0, 0, 0, 0, 0, 0, 0, 0, 0, 0,
       0, 0, 0, 0, 0, 0, 0, 0, 0, 0, 0, 0, 0, 0, 0, 0, 0, 0, 0, 0, 0, 0,
       0, 0, 0, 0, 0, 0, 0, 0, 0, 0, 0, 0, 0, 0, 0, 0, 0, 0, 0, 0, 0, 0,
       0, 0, 0, 0, 0, 0, 0, 0, 0, 0, 0, 0, 0, 0, 0, 0, 0, 0, 0, 0, 0, 0,
       0, 0, 0, 0, 0, 0, 0, 0, 0, 0, 0, 0, 0, 0, 0, 0, 0, 0, 0, 0, 0, 0,
       0, 0, 0, 0, 0, 0, 0, 0, 0, 0, 0, 0, 0, 0, 0, 0, 0, 0, 0, 0, 0, 0,
       0, 0, 0, 0, 0, 0, 0, 0, 0, 0, 0, 0, 0, 0, 0, 0, 0, 0, 0, 0, 0, 0,
       0, 0, 0, 0, 0, 0, 0, 0, 0, 0, 0, 0, 0, 0, 0, 0, 0, 0, 0, 0, 0, 0,
       0, 0, 0, 0, 0, 0, 0, 0, 0, 0, 0, 0, 0, 0, 0, 0, 0, 0, 0, 0, 0, 0,
       0, 0, 0, 0, 0, 0, 0, 0, 0, 0, 0, 0, 0, 0, 0, 0, 0, 0, 0, 0, 0, 0,
       0, 0, 0, 0, 0, 0, 0, 0, 0, 0, 0, 0, 0, 0, 0, 0, 0, 0, 0, 0, 0, 0,
       0, 0, 0, 0, 0, 0, 0, 0, 0, 0, 0, 0, 0, 0, 0, 0, 0, 0, 0, 0, 0, 0,
       0, 0, 0, 0, 0, 0, 0, 0, 0, 0, 0, 0, 0, 0, 0, 0, 0, 0, 0, 0, 0, 0,
       0, 0, 0, 0, 0, 0, 0, 0, 0, 0, 0, 0, 0, 0, 0, 0, 0, 0, 0, 0, 0, 0,
       0, 0, 0, 0, 0, 0, 0, 0, 0, 0, 0, 0, 0, 0, 0, 0, 0, 0, 0, 0, 0, 0,
       0, 0, 0, 0, 0, 0, 0, 0, 0, 0, 0, 0, 0, 0, 0, 0, 0, 0, 0, 0, 0, 0,
       0, 0, 0, 0, 0, 0, 0, 0, 0, 0, 0, 0, 0, 0, 0, 0, 0, 0, 0, 0, 0, 0,
       0, 0, 0, 0, 0, 0, 0, 0, 0, 0, 0, 0, 0, 0, 0, 0, 0, 0, 0, 0, 0, 0,
       0, 0, 0, 0, 0, 0, 0, 0, 0, 0, 0, 0, 0, 0, 0, 0, 0, 0, 0, 0, 0, 0,
       0, 0, 0, 0, 0, 0, 0, 0, 0, 0, 0, 0, 0, 0, 0, 0, 0, 0, 0, 0, 0, 0,
       0, 0, 0, 0, 0, 0, 0, 0, 0, 0, 0, 0, 0, 0, 0, 0, 0, 0, 0, 0, 0, 0,
       0, 0, 0, 0, 0, 0, 0, 0, 0, 0, 0, 0, 0, 0, 0, 0, 0, 0, 0, 0, 0, 0,
       0, 0, 0, 0, 0, 0, 0, 0, 0, 0, 0, 0, 0, 0, 0, 0, 0, 0, 0, 0, 0, 0,
       0, 0, 0, 0, 0, 0, 0, 0, 0, 0, 0, 0, 0, 0, 0, 0, 0, 0, 0, 0, 0, 0,
       0, 0, 0, 0, 0, 0, 0, 0, 0, 0, 0, 0, 0, 0, 0, 0, 0, 0, 0, 0, 0, 0,
       0, 0, 0, 0, 0, 0, 0, 0, 0, 0, 0, 0, 0, 0, 0, 0, 0, 0, 0, 0, 0, 0,
       0, 0, 0, 0, 0, 0, 0, 0, 0, 0, 0, 0, 0, 0, 0, 0, 0, 0, 0, 0, 0, 0,
       0, 0, 0, 0, 0, 0, 0, 0, 0, 0, 0, 0, 0, 0, 0, 0, 0, 0, 0, 0, 0, 0,
       0, 0, 0, 0, 0, 0, 0, 0, 0, 0, 0, 0, 0, 0, 0, 0, 0, 0, 0, 0, 0, 0,
       0, 0, 0, 0, 0, 0, 0, 0, 0, 0, 0, 0, 0, 0, 0, 0, 0, 0, 0, 0, 0, 0,
       0, 0, 0, 0, 0, 0, 0, 0, 0, 0, 0, 0, 0, 0, 0, 0, 0, 0, 0, 0, 0, 0,
       0, 0, 0, 0, 0, 0, 0, 0, 0, 0, 0, 0, 0, 0, 0, 0, 0, 0, 0, 0, 0, 0,
       0, 0, 0, 0, 0, 0, 0, 0, 0, 0, 0, 0, 0, 0, 0, 0, 0, 0, 0, 0, 0, 0,
       0, 0, 0, 0, 0, 0, 0, 0, 0, 0, 0, 0, 0, 0, 0, 0, 0, 0, 0, 0, 0, 0,
       0, 0, 0, 0, 0, 0, 0, 0, 0, 0, 0, 0, 0, 0, 0, 0, 0, 0, 0, 0, 0, 0,
       0, 0, 0, 0, 0, 0, 0, 0, 0, 0, 0, 0, 0, 0, 0, 0, 0, 0, 0, 0, 0, 0,
       0, 0, 0, 0, 0, 0, 0, 0, 0, 0, 0, 0, 0, 0, 0, 0, 0, 0, 0, 0, 0, 0,
       0, 0, 0, 0, 0, 0, 0, 0, 0, 0, 0, 0, 0, 0, 0, 0, 0, 0, 0, 0, 0, 0,
       0, 0, 0, 0, 0, 0 ]
   class_labels: [ 97, 98, 99, 100, 101, 102, 103, 104, 105, 106, 107,
       108, 109, 110, 112, 115, 117, 120, 65364 ]
   missing_subst: [ 0., 0., 0., 0., 0., 0., 0., 0., 0., 0., 0., 0., 0.,
       0., 0., 0., 0., 0., 0., 0., 0., 0., 0., 0., 0., 0., 0., 0., 0.,
       0., 0., 0., 0., 0., 0., 0., 0., 0., 0., 0., 0., 0., 0., 0., 0.,
       0., 0., 0., 0., 0., 0., 0., 0., 0., 0., 0., 0., 0., 0., 0., 0.,
       0., 0., 0., 0., 0., 0., 0., 0., 0., 0., 0., 0., 0., 0., 0., 0.,
       0., 0., 0., 0., 0., 0., 0., 0., 0., 0., 0., 0., 0., 0., 0., 0.,
       0., 0., 0., 0., 0., 0., 0., 0., 0., 0., 0., 0., 0., 0., 0., 0.,
       0., 0., 0., 0., 0., 0., 0., 0., 0., 0., 0., 0., 0., 0., 0., 0.,
       0., 0., 0., 0., 0., 0., 0., 0., 0., 0., 0., 0., 0., 0., 0., 0.,
       0., 0., 0., 0., 0., 0., 0., 0., 0., 0., 0., 0., 0., 0., 0., 0.,
       0., 0., 0., 0., 0., 0., 0., 0., 0., 0., 0., 0., 0., 0., 0., 0.,
       0., 0., 0., 0., 0., 0., 0., 0., 0., 0., 0., 0., 0., 0., 0., 0.,
       0., 0., 0., 0., 0., 0., 0., 0., 0., 0., 0., 0., 0., 0., 0., 0.,
       0., 0., 0., 0., 0., 0., 0., 0., 0., 0., 0., 0., 0., 0., 0., 0.,
       0., 0., 0., 0., 0., 0., 0., 0., 0., 0., 0., 0., 0., 0., 0., 0.,
       0., 0., 0., 0., 0., 0., 0., 0., 0., 0., 0., 0., 0., 0., 0., 0.,
       0., 0., 0., 0., 0., 0., 0., 0., 0., 0., 0., 0., 0., 0., 0., 0.,
       0., 0., 0., 0., 0., 0., 0., 0., 0., 0., 0., 0., 0., 0., 0., 0.,
       0., 0., 0., 0., 0., 0., 0., 0., 0., 0., 0., 0., 0., 0., 0., 0.,
       0., 0., 0., 0., 0., 0., 0., 0., 0., 0., 0., 0., 0., 0., 0., 0.,
       0., 0., 0., 0., 0., 0., 0., 0., 0., 0., 0., 0., 0., 0., 0., 0.,
       0., 0., 0., 0., 0., 0., 0., 0., 0., 0., 0., 0., 0., 0., 0., 0.,
       0., 0., 0., 0., 0., 0., 0., 0., 0., 0., 0., 0., 0., 0., 0., 0.,
       0., 0., 0., 0., 0., 0., 0., 0., 0., 0., 0., 0., 0., 0., 0., 0.,
       0., 0., 0., 0., 0., 0., 0., 0., 0., 0., 0., 0., 0., 0., 0., 0.,
       0., 0., 0., 0., 0., 0., 0., 0., 0., 0., 0., 0., 0., 0., 0., 0.,
       0., 0., 0., 0., 0., 0., 0., 0. ]
   nodes:
      -
         depth: 0
         value: 112.
         norm_class_idx: 14
         splits:
            - { var:400, quality:7.3136419677734375e+02,
                le:1.3500000000000000e+01 }
      -
         depth: 1
         value: 112.
         norm_class_idx: 14
         splits:
            - { var:400, quality:5.8798864746093750e+02,
                le:5.5000000000000000e+00 }
      -
         depth: 2
         value: 112.
         norm_class_idx: 14
         splits:
            - { var:403, quality:4.7540499877929688e+02,
                le:4.5000000000000000e+00 }
      -
         depth: 3
         value: 107.
         norm_class_idx: 10
         splits:
            - { var:209, quality:1.0847536468505859e+02,
                le:2.5450000000000000e+02 }
      -
         depth: 4
         value: 107.
         norm_class_idx: 10
         splits:
            - { var:198, quality:1.0676470947265625e+02, le:8. }
      -
         depth: 5
         value: 65364.
         norm_class_idx: 18
      -
         depth: 5
         value: 107.
         norm_class_idx: 10
         splits:
            - { var:302, quality:1.0782089233398438e+02,
                le:5.0000000000000000e-01 }
      -
         depth: 6
         value: 112.
         norm_class_idx: 14
      -
         depth: 6
         value: 107.
         norm_class_idx: 10
         splits:
            - { var:86, quality:1.0794469451904297e+02,
                le:8.5000000000000000e+00 }
      -
         depth: 7
         value: 107.
         norm_class_idx: 10
         splits:
            - { var:149, quality:1.3515151977539062e+01,
                le:6.9500000000000000e+01 }
      -
         depth: 8
         value: 107.
         norm_class_idx: 10
         splits:
            - { var:105, quality:11., le:4.9500000000000000e+01 }
      -
         depth: 9
         value: 107.
         norm_class_idx: 10
      -
         depth: 9
         value: 112.
         norm_class_idx: 14
      -
         depth: 8
         value: 112.
         norm_class_idx: 14
      -
         depth: 7
         value: 107.
         norm_class_idx: 10
         splits:
            - { var:292, quality:1.0082353210449219e+02,
                le:1.4500000000000000e+01 }
      -
         depth: 8
         value: 107.
         norm_class_idx: 10
         splits:
            - { var:333, quality:1.3333333015441895e+01,
                le:5.2500000000000000e+01 }
      -
         depth: 9
         value: 107.
         norm_class_idx: 10
      -
         depth: 9
         value: 112.
         norm_class_idx: 14
      -
         depth: 8
         value: 107.
         norm_class_idx: 10
         splits:
            - { var:401, quality:9.3548500061035156e+01,
                le:7.5000000000000000e+00 }
      -
         depth: 9
         value: 107.
         norm_class_idx: 10
         splits:
            - { var:310, quality:7.9333335876464844e+01, le:20. }
      -
         depth: 10
         value: 107.
         norm_class_idx: 10
      -
         depth: 10
         value: 107.
         norm_class_idx: 10
      -
         depth: 9
         value: 107.
         norm_class_idx: 10
         splits:
            - { var:206, quality:1.7421052932739258e+01, le:5. }
      -
         depth: 10
         value: 112.
         norm_class_idx: 14
      -
         depth: 10
         value: 107.
         norm_class_idx: 10
      -
         depth: 4
         value: 112.
         norm_class_idx: 14
      -
         depth: 3
         value: 112.
         norm_class_idx: 14
         splits:
            - { var:401, quality:4.1698764038085938e+02,
                le:3.5000000000000000e+00 }
      -
         depth: 4
         value: 112.
         norm_class_idx: 14
         splits:
            - { var:400, quality:3.1313333129882812e+02,
                le:2.5000000000000000e+00 }
      -
         depth: 5
         value: 107.
         norm_class_idx: 10
         splits:
            - { var:127, quality:1.2333333015441895e+01,
                le:2.3250000000000000e+02 }
      -
         depth: 6
         value: 107.
         norm_class_idx: 10
      -
         depth: 6
         value: 107.
         norm_class_idx: 10
      -
         depth: 5
         value: 112.
         norm_class_idx: 14
         splits:
            - { var:403, quality:3.0681713867187500e+02,
                le:1.5500000000000000e+01 }
      -
         depth: 6
         value: 112.
         norm_class_idx: 14
         splits:
            - { var:336, quality:2.5653333663940430e+01,
                le:2.0500000000000000e+01 }
      -
         depth: 7
         value: 112.
         norm_class_idx: 14
         splits:
            - { var:403, quality:15., le:1.3500000000000000e+01 }
      -
         depth: 8
         value: 112.
         norm_class_idx: 14
      -
         depth: 8
         value: 107.
         norm_class_idx: 10
      -
         depth: 7
         value: 107.
         norm_class_idx: 10
         splits:
            - { var:86, quality:17., le:141. }
      -
         depth: 8
         value: 107.
         norm_class_idx: 10
      -
         depth: 8
         value: 112.
         norm_class_idx: 14
         splits:
            - { var:120, quality:1.2545454978942871e+01,
                le:1.2550000000000000e+02 }
      -
         depth: 9
         value: 112.
         norm_class_idx: 14
      -
         depth: 9
         value: 107.
         norm_class_idx: 10
         splits:
            - { var:351, quality:8., le:2.0450000000000000e+02 }
      -
         depth: 10
         value: 112.
         norm_class_idx: 14
      -
         depth: 10
         value: 107.
         norm_class_idx: 10
      -
         depth: 6
         value: 112.
         norm_class_idx: 14
         splits:
            - { var:403, quality:2.8841378784179688e+02, le:99. }
      -
         depth: 7
         value: 112.
         norm_class_idx: 14
         splits:
            - { var:170, quality:2.8920275878906250e+02,
                le:9.5000000000000000e+00 }
      -
         depth: 8
         value: 112.
         norm_class_idx: 14
         splits:
            - { var:206, quality:2.8647058486938477e+01,
                le:1.0650000000000000e+02 }
      -
         depth: 9
         value: 107.
         norm_class_idx: 10
      -
         depth: 9
         value: 112.
         norm_class_idx: 14
         splits:
            - { var:210, quality:2.5440860748291016e+01, le:29. }
      -
         depth: 10
         value: 112.
         norm_class_idx: 14
      -
         depth: 10
         value: 100.
         norm_class_idx: 3
      -
         depth: 8
         value: 112.
         norm_class_idx: 14
         splits:
            - { var:190, quality:2.6678945922851562e+02, le:3. }
      -
         depth: 9
         value: 107.
         norm_class_idx: 10
      -
         depth: 9
         value: 112.
         norm_class_idx: 14
         splits:
            - { var:401, quality:2.6759735107421875e+02,
                le:2.5000000000000000e+00 }
      -
         depth: 10
         value: 107.
         norm_class_idx: 10
      -
         depth: 10
         value: 112.
         norm_class_idx: 14
      -
         depth: 7
         value: 107.
         norm_class_idx: 10
      -
         depth: 4
         value: 112.
         norm_class_idx: 14
         splits:
            - { var:403, quality:1.5550575256347656e+02, le:72. }
      -
         depth: 5
         value: 112.
         norm_class_idx: 14
         splits:
            - { var:401, quality:1.1547425079345703e+02,
                le:6.5000000000000000e+00 }
      -
         depth: 6
         value: 112.
         norm_class_idx: 14
         splits:
            - { var:129, quality:1.0350481414794922e+02, le:120. }
      -
         depth: 7
         value: 100.
         norm_class_idx: 3
         splits:
            - { var:129, quality:5.7063247680664062e+01,
                le:2.5500000000000000e+01 }
      -
         depth: 8
         value: 112.
         norm_class_idx: 14
         splits:
            - { var:74, quality:2.6952381134033203e+01, le:11. }
      -
         depth: 9
         value: 99.
         norm_class_idx: 2
      -
         depth: 9
         value: 112.
         norm_class_idx: 14
         splits:
            - { var:310, quality:2.8089412689208984e+01, le:85. }
      -
         depth: 10
         value: 112.
         norm_class_idx: 14
      -
         depth: 10
         value: 112.
         norm_class_idx: 14
      -
         depth: 8
         value: 100.
         norm_class_idx: 3
         splits:
            - { var:403, quality:4.1474575042724609e+01,
                le:2.5500000000000000e+01 }
      -
         depth: 9
         value: 107.
         norm_class_idx: 10
      -
         depth: 9
         value: 100.
         norm_class_idx: 3
         splits:
            - { var:21, quality:4.0955974578857422e+01,
                le:2.5250000000000000e+02 }
      -
         depth: 10
         value: 112.
         norm_class_idx: 14
      -
         depth: 10
         value: 100.
         norm_class_idx: 3
      -
         depth: 7
         value: 112.
         norm_class_idx: 14
         splits:
            - { var:266, quality:6.4196578979492188e+01,
                le:1.0750000000000000e+02 }
      -
         depth: 8
         value: 112.
         norm_class_idx: 14
         splits:
            - { var:190, quality:1.0333333015441895e+01, le:31. }
      -
         depth: 9
         value: 112.
         norm_class_idx: 14
      -
         depth: 9
         value: 100.
         norm_class_idx: 3
      -
         depth: 8
         value: 112.
         norm_class_idx: 14
         splits:
            - { var:117, quality:6.0676055908203125e+01, le:3. }
      -
         depth: 9
         value: 109.
         norm_class_idx: 12
      -
         depth: 9
         value: 112.
         norm_class_idx: 14
         splits:
            - { var:282, quality:6.1457141876220703e+01,
                le:9.5000000000000000e+00 }
      -
         depth: 10
         value: 107.
         norm_class_idx: 10
      -
         depth: 10
         value: 112.
         norm_class_idx: 14
      -
         depth: 6
         value: 99.
         norm_class_idx: 2
         splits:
            - { var:82, quality:4.2300300598144531e+01, le:98. }
      -
         depth: 7
         value: 99.
         norm_class_idx: 2
         splits:
            - { var:50, quality:18., le:2.4050000000000000e+02 }
      -
         depth: 8
         value: 107.
         norm_class_idx: 10
      -
         depth: 8
         value: 99.
         norm_class_idx: 2
      -
         depth: 7
         value: 112.
         norm_class_idx: 14
         splits:
            - { var:236, quality:3.1014688491821289e+01,
                le:9.8500000000000000e+01 }
      -
         depth: 8
         value: 99.
         norm_class_idx: 2
         splits:
            - { var:86, quality:1.1600000381469727e+01,
                le:2.1350000000000000e+02 }
      -
         depth: 9
         value: 99.
         norm_class_idx: 2
      -
         depth: 9
         value: 107.
         norm_class_idx: 10
      -
         depth: 8
         value: 112.
         norm_class_idx: 14
         splits:
            - { var:75, quality:2.9423610687255859e+01, le:210. }
      -
         depth: 9
         value: 99.
         norm_class_idx: 2
         splits:
            - { var:324, quality:1.6454545974731445e+01,
                le:2.4950000000000000e+02 }
      -
         depth: 10
         value: 99.
         norm_class_idx: 2
      -
         depth: 10
         value: 112.
         norm_class_idx: 14
      -
         depth: 9
         value: 112.
         norm_class_idx: 14
         splits:
            - { var:230, quality:2.0641025543212891e+01, le:254. }
      -
         depth: 10
         value: 112.
         norm_class_idx: 14
      -
         depth: 10
         value: 107.
         norm_class_idx: 10
      -
         depth: 5
         value: 107.
         norm_class_idx: 10
         splits:
            - { var:143, quality:7.1343719482421875e+01,
                le:2.2450000000000000e+02 }
      -
         depth: 6
         value: 112.
         norm_class_idx: 14
         splits:
            - { var:300, quality:2.5052419662475586e+01,
                le:2.5450000000000000e+02 }
      -
         depth: 7
         value: 112.
         norm_class_idx: 14
         splits:
            - { var:147, quality:15., le:2. }
      -
         depth: 8
         value: 100.
         norm_class_idx: 3
      -
         depth: 8
         value: 112.
         norm_class_idx: 14
      -
         depth: 7
         value: 107.
         norm_class_idx: 10
         splits:
            - { var:116, quality:1.7932773590087891e+01,
                le:2.5350000000000000e+02 }
      -
         depth: 8
         value: 112.
         norm_class_idx: 14
         splits:
            - { var:401, quality:1.2342857360839844e+01,
                le:5.5000000000000000e+00 }
      -
         depth: 9
         value: 107.
         norm_class_idx: 10
      -
         depth: 9
         value: 112.
         norm_class_idx: 14
      -
         depth: 8
         value: 107.
         norm_class_idx: 10
         splits:
            - { var:144, quality:14., le:3.1500000000000000e+01 }
      -
         depth: 9
         value: 99.
         norm_class_idx: 2
      -
         depth: 9
         value: 107.
         norm_class_idx: 10
      -
         depth: 6
         value: 107.
         norm_class_idx: 10
         splits:
            - { var:170, quality:5.6769229888916016e+01, le:245. }
      -
         depth: 7
         value: 107.
         norm_class_idx: 10
         splits:
            - { var:244, quality:5.6412696838378906e+01, le:21. }
      -
         depth: 8
         value: 97.
         norm_class_idx: 0
      -
         depth: 8
         value: 107.
         norm_class_idx: 10
         splits:
            - { var:264, quality:5.7225807189941406e+01, le:22. }
      -
         depth: 9
         value: 112.
         norm_class_idx: 14
      -
         depth: 9
         value: 107.
         norm_class_idx: 10
         splits:
            - { var:403, quality:5.7166667938232422e+01, le:77. }
      -
         depth: 10
         value: 107.
         norm_class_idx: 10
      -
         depth: 10
         value: 107.
         norm_class_idx: 10
      -
         depth: 7
         value: 112.
         norm_class_idx: 14
      -
         depth: 2
         value: 104.
         norm_class_idx: 7
         splits:
            - { var:63, quality:2.5104507446289062e+02,
                le:2.5150000000000000e+02 }
      -
         depth: 3
         value: 112.
         norm_class_idx: 14
         splits:
            - { var:403, quality:1.0360015106201172e+02,
                le:1.5000000000000000e+00 }
      -
         depth: 4
         value: 107.
         norm_class_idx: 10
         splits:
            - { var:256, quality:4.5114940643310547e+01,
                le:2.4500000000000000e+01 }
      -
         depth: 5
         value: 112.
         norm_class_idx: 14
      -
         depth: 5
         value: 107.
         norm_class_idx: 10
         splits:
            - { var:349, quality:4.5857143402099609e+01,
                le:1.5500000000000000e+01 }
      -
         depth: 6
         value: 109.
         norm_class_idx: 12
      -
         depth: 6
         value: 107.
         norm_class_idx: 10
         splits:
            - { var:115, quality:4.7044025421142578e+01,
                le:4.5000000000000000e+00 }
      -
         depth: 7
         value: 112.
         norm_class_idx: 14
      -
         depth: 7
         value: 107.
         norm_class_idx: 10
         splits:
            - { var:23, quality:4.6246513366699219e+01,
                le:2.1950000000000000e+02 }
      -
         depth: 8
         value: 107.
         norm_class_idx: 10
         splits:
            - { var:83, quality:42., le:254. }
      -
         depth: 9
         value: 107.
         norm_class_idx: 10
      -
         depth: 9
         value: 107.
         norm_class_idx: 10
      -
         depth: 8
         value: 107.
         norm_class_idx: 10
      -
         depth: 4
         value: 112.
         norm_class_idx: 14
         splits:
            - { var:401, quality:9.0144546508789062e+01,
                le:5.5000000000000000e+00 }
      -
         depth: 5
         value: 108.
         norm_class_idx: 11
         splits:
            - { var:400, quality:7.0955558776855469e+01,
                le:8.5000000000000000e+00 }
      -
         depth: 6
         value: 112.
         norm_class_idx: 14
         splits:
            - { var:403, quality:3.3185184478759766e+01,
                le:8.2500000000000000e+01 }
      -
         depth: 7
         value: 112.
         norm_class_idx: 14
         splits:
            - { var:75, quality:3.0920000076293945e+01, le:47. }
      -
         depth: 8
         value: 108.
         norm_class_idx: 11
      -
         depth: 8
         value: 112.
         norm_class_idx: 14
         splits:
            - { var:6, quality:3.0764705657958984e+01, le:226. }
      -
         depth: 9
         value: 112.
         norm_class_idx: 14
         splits:
            - { var:70, quality:2.9071428298950195e+01,
                le:1.5000000000000000e+00 }
      -
         depth: 10
         value: 108.
         norm_class_idx: 11
      -
         depth: 10
         value: 112.
         norm_class_idx: 14
      -
         depth: 9
         value: 112.
         norm_class_idx: 14
         splits:
            - { var:296, quality:6.5333333015441895e+00,
                le:2.1650000000000000e+02 }
      -
         depth: 10
         value: 112.
         norm_class_idx: 14
      -
         depth: 10
         value: 107.
         norm_class_idx: 10
      -
         depth: 7
         value: 107.
         norm_class_idx: 10
      -
         depth: 6
         value: 108.
         norm_class_idx: 11
         splits:
            - { var:403, quality:55., le:63. }
      -
         depth: 7
         value: 108.
         norm_class_idx: 11
         splits:
            - { var:108, quality:5.3119998931884766e+01,
                le:1.2150000000000000e+02 }
      -
         depth: 8
         value: 108.
         norm_class_idx: 11
         splits:
            - { var:403, quality:5.4852939605712891e+01, le:26. }
      -
         depth: 9
         value: 112.
         norm_class_idx: 14
      -
         depth: 9
         value: 108.
         norm_class_idx: 11
         splits:
            - { var:82, quality:5.4633335113525391e+01,
                le:2.2500000000000000e+01 }
      -
         depth: 10
         value: 106.
         norm_class_idx: 9
      -
         depth: 10
         value: 108.
         norm_class_idx: 11
      -
         depth: 8
         value: 112.
         norm_class_idx: 14
      -
         depth: 7
         value: 107.
         norm_class_idx: 10
      -
         depth: 5
         value: 112.
         norm_class_idx: 14
         splits:
            - { var:401, quality:5.3801856994628906e+01,
                le:1.4500000000000000e+01 }
      -
         depth: 6
         value: 112.
         norm_class_idx: 14
         splits:
            - { var:299, quality:4.8010051727294922e+01,
                le:2.5250000000000000e+02 }
      -
         depth: 7
         value: 112.
         norm_class_idx: 14
         splits:
            - { var:81, quality:20., le:2.5450000000000000e+02 }
      -
         depth: 8
         value: 112.
         norm_class_idx: 14
      -
         depth: 8
         value: 99.
         norm_class_idx: 2
      -
         depth: 7
         value: 97.
         norm_class_idx: 0
         splits:
            - { var:49, quality:3.9661491394042969e+01,
                le:1.3550000000000000e+02 }
      -
         depth: 8
         value: 97.
         norm_class_idx: 0
         splits:
            - { var:210, quality:2.7376922607421875e+01,
                le:1.3150000000000000e+02 }
      -
         depth: 9
         value: 97.
         norm_class_idx: 0
         splits:
            - { var:17, quality:2.7722221374511719e+01,
                le:2.5250000000000000e+02 }
      -
         depth: 10
         value: 112.
         norm_class_idx: 14
      -
         depth: 10
         value: 97.
         norm_class_idx: 0
      -
         depth: 9
         value: 112.
         norm_class_idx: 14
         splits:
            - { var:84, quality:7.6992483139038086e+00,
                le:8.8500000000000000e+01 }
      -
         depth: 10
         value: 112.
         norm_class_idx: 14
      -
         depth: 10
         value: 107.
         norm_class_idx: 10
      -
         depth: 8
         value: 112.
         norm_class_idx: 14
         splits:
            - { var:403, quality:2.6733333587646484e+01, le:11. }
      -
         depth: 9
         value: 112.
         norm_class_idx: 14
         splits:
            - { var:402, quality:14., le:79. }
      -
         depth: 10
         value: 97.
         norm_class_idx: 0
      -
         depth: 10
         value: 112.
         norm_class_idx: 14
      -
         depth: 9
         value: 102.
         norm_class_idx: 5
         splits:
            - { var:25, quality:2.1851852416992188e+01,
                le:2.2650000000000000e+02 }
      -
         depth: 10
         value: 102.
         norm_class_idx: 5
      -
         depth: 10
         value: 104.
         norm_class_idx: 7
      -
         depth: 6
         value: 109.
         norm_class_idx: 12
         splits:
            - { var:223, quality:2.3903381347656250e+01,
                le:2.4450000000000000e+02 }
      -
         depth: 7
         value: 109.
         norm_class_idx: 12
         splits:
            - { var:185, quality:1.9654762268066406e+01, le:191. }
      -
         depth: 8
         value: 109.
         norm_class_idx: 12
         splits:
            - { var:52, quality:1.9111110687255859e+01,
                le:1.5850000000000000e+02 }
      -
         depth: 9
         value: 98.
         norm_class_idx: 1
      -
         depth: 9
         value: 109.
         norm_class_idx: 12
         splits:
            - { var:3, quality:17., le:246. }
      -
         depth: 10
         value: 107.
         norm_class_idx: 10
      -
         depth: 10
         value: 109.
         norm_class_idx: 12
      -
         depth: 8
         value: 99.
         norm_class_idx: 2
         splits:
            - { var:230, quality:9., le:2.5350000000000000e+02 }
      -
         depth: 9
         value: 109.
         norm_class_idx: 12
         splits:
            - { var:237, quality:6.4571428298950195e+00,
                le:2.5450000000000000e+02 }
      -
         depth: 10
         value: 109.
         norm_class_idx: 12
      -
         depth: 10
         value: 112.
         norm_class_idx: 14
      -
         depth: 9
         value: 99.
         norm_class_idx: 2
         splits:
            - { var:294, quality:7.5555553436279297e+00,
                le:2.5450000000000000e+02 }
      -
         depth: 10
         value: 107.
         norm_class_idx: 10
      -
         depth: 10
         value: 99.
         norm_class_idx: 2
      -
         depth: 7
         value: 99.
         norm_class_idx: 2
         splits:
            - { var:190, quality:1.3372549057006836e+01,
                le:1.3350000000000000e+02 }
      -
         depth: 8
         value: 107.
         norm_class_idx: 10
      -
         depth: 8
         value: 99.
         norm_class_idx: 2
         splits:
            - { var:179, quality:1.4133333206176758e+01,
                le:2.5450000000000000e+02 }
      -
         depth: 9
         value: 107.
         norm_class_idx: 10
      -
         depth: 9
         value: 99.
         norm_class_idx: 2
         splits:
            - { var:26, quality:15., le:2.1950000000000000e+02 }
      -
         depth: 10
         value: 104.
         norm_class_idx: 7
      -
         depth: 10
         value: 99.
         norm_class_idx: 2
      -
         depth: 3
         value: 104.
         norm_class_idx: 7
         splits:
            - { var:401, quality:2.1660968017578125e+02,
                le:1.3500000000000000e+01 }
      -
         depth: 4
         value: 104.
         norm_class_idx: 7
         splits:
            - { var:373, quality:2.1637356567382812e+02,
                le:2.3350000000000000e+02 }
      -
         depth: 5
         value: 107.
         norm_class_idx: 10
         splits:
            - { var:403, quality:3.1489877700805664e+01,
                le:7.4500000000000000e+01 }
      -
         depth: 6
         value: 112.
         norm_class_idx: 14
         splits:
            - { var:375, quality:2.3197685241699219e+01,
                le:1.4050000000000000e+02 }
      -
         depth: 7
         value: 112.
         norm_class_idx: 14
         splits:
            - { var:149, quality:15., le:118. }
      -
         depth: 8
         value: 98.
         norm_class_idx: 1
      -
         depth: 8
         value: 112.
         norm_class_idx: 14
      -
         depth: 7
         value: 97.
         norm_class_idx: 0
         splits:
            - { var:46, quality:1.9415094375610352e+01,
                le:7.0500000000000000e+01 }
      -
         depth: 8
         value: 102.
         norm_class_idx: 5
      -
         depth: 8
         value: 97.
         norm_class_idx: 0
         splits:
            - { var:212, quality:1.7609523773193359e+01,
                le:7.7500000000000000e+01 }
      -
         depth: 9
         value: 112.
         norm_class_idx: 14
         splits:
            - { var:48, quality:9., le:2.5250000000000000e+02 }
      -
         depth: 10
         value: 108.
         norm_class_idx: 11
      -
         depth: 10
         value: 112.
         norm_class_idx: 14
      -
         depth: 9
         value: 97.
         norm_class_idx: 0
         splits:
            - { var:233, quality:18., le:2.0750000000000000e+02 }
      -
         depth: 10
         value: 97.
         norm_class_idx: 0
      -
         depth: 10
         value: 104.
         norm_class_idx: 7
      -
         depth: 6
         value: 107.
         norm_class_idx: 10
         splits:
            - { var:43, quality:19., le:2.5350000000000000e+02 }
      -
         depth: 7
         value: 97.
         norm_class_idx: 0
      -
         depth: 7
         value: 107.
         norm_class_idx: 10
      -
         depth: 5
         value: 104.
         norm_class_idx: 7
         splits:
            - { var:403, quality:2.2716404724121094e+02,
                le:1.5500000000000000e+01 }
      -
         depth: 6
         value: 107.
         norm_class_idx: 10
         splits:
            - { var:59, quality:2.4860466003417969e+01, le:254. }
      -
         depth: 7
         value: 112.
         norm_class_idx: 14
      -
         depth: 7
         value: 107.
         norm_class_idx: 10
         splits:
            - { var:250, quality:2.2126983642578125e+01,
                le:2.4550000000000000e+02 }
      -
         depth: 8
         value: 107.
         norm_class_idx: 10
         splits:
            - { var:34, quality:2.2787878036499023e+01, le:27. }
      -
         depth: 9
         value: 112.
         norm_class_idx: 14
      -
         depth: 9
         value: 107.
         norm_class_idx: 10
         splits:
            - { var:403, quality:2.4686956405639648e+01,
                le:9.5000000000000000e+00 }
      -
         depth: 10
         value: 107.
         norm_class_idx: 10
      -
         depth: 10
         value: 104.
         norm_class_idx: 7
      -
         depth: 8
         value: 97.
         norm_class_idx: 0
      -
         depth: 6
         value: 104.
         norm_class_idx: 7
         splits:
            - { var:384, quality:2.3682296752929688e+02,
                le:2.5250000000000000e+02 }
      -
         depth: 7
         value: 112.
         norm_class_idx: 14
         splits:
            - { var:403, quality:1.9571428298950195e+01,
                le:7.6500000000000000e+01 }
      -
         depth: 8
         value: 112.
         norm_class_idx: 14
         splits:
            - { var:106, quality:1.8479999542236328e+01, le:235. }
      -
         depth: 9
         value: 104.
         norm_class_idx: 7
      -
         depth: 9
         value: 112.
         norm_class_idx: 14
         splits:
            - { var:258, quality:1.9521739959716797e+01, le:20. }
      -
         depth: 10
         value: 108.
         norm_class_idx: 11
      -
         depth: 10
         value: 112.
         norm_class_idx: 14
      -
         depth: 8
         value: 107.
         norm_class_idx: 10
      -
         depth: 7
         value: 104.
         norm_class_idx: 7
         splits:
            - { var:78, quality:2.3550363159179688e+02,
                le:2.1150000000000000e+02 }
      -
         depth: 8
         value: 99.
         norm_class_idx: 2
         splits:
            - { var:301, quality:8., le:228. }
      -
         depth: 9
         value: 99.
         norm_class_idx: 2
      -
         depth: 9
         value: 112.
         norm_class_idx: 14
         splits:
            - { var:15, quality:6.5714287757873535e+00, le:251. }
      -
         depth: 10
         value: 112.
         norm_class_idx: 14
      -
         depth: 10
         value: 104.
         norm_class_idx: 7
      -
         depth: 8
         value: 104.
         norm_class_idx: 7
         splits:
            - { var:29, quality:2.4268978881835938e+02, le:203. }
      -
         depth: 9
         value: 97.
         norm_class_idx: 0
         splits:
            - { var:232, quality:5.7878789901733398e+00, le:242. }
      -
         depth: 10
         value: 112.
         norm_class_idx: 14
      -
         depth: 10
         value: 97.
         norm_class_idx: 0
      -
         depth: 9
         value: 104.
         norm_class_idx: 7
         splits:
            - { var:403, quality:2.4759027099609375e+02, le:79. }
      -
         depth: 10
         value: 104.
         norm_class_idx: 7
      -
         depth: 10
         value: 107.
         norm_class_idx: 10
      -
         depth: 4
         value: 99.
         norm_class_idx: 2
         splits:
            - { var:400, quality:4.5097877502441406e+01,
                le:9.5000000000000000e+00 }
      -
         depth: 5
         value: 99.
         norm_class_idx: 2
         splits:
            - { var:310, quality:3.6320213317871094e+01,
                le:2.3850000000000000e+02 }
      -
         depth: 6
         value: 104.
         norm_class_idx: 7
         splits:
            - { var:331, quality:1.5777777671813965e+01,
                le:6.4500000000000000e+01 }
      -
         depth: 7
         value: 107.
         norm_class_idx: 10
      -
         depth: 7
         value: 104.
         norm_class_idx: 7
         splits:
            - { var:304, quality:1.1785714149475098e+01, le:107. }
      -
         depth: 8
         value: 99.
         norm_class_idx: 2
      -
         depth: 8
         value: 104.
         norm_class_idx: 7
         splits:
            - { var:403, quality:1.2500000000000000e+01,
                le:1.1500000000000000e+01 }
      -
         depth: 9
         value: 107.
         norm_class_idx: 10
      -
         depth: 9
         value: 104.
         norm_class_idx: 7
      -
         depth: 6
         value: 99.
         norm_class_idx: 2
         splits:
            - { var:403, quality:3.4351352691650391e+01,
                le:7.7500000000000000e+01 }
      -
         depth: 7
         value: 99.
         norm_class_idx: 2
         splits:
            - { var:403, quality:3.3235294342041016e+01,
                le:8.5000000000000000e+00 }
      -
         depth: 8
         value: 107.
         norm_class_idx: 10
      -
         depth: 8
         value: 99.
         norm_class_idx: 2
         splits:
            - { var:221, quality:3.2060607910156250e+01, le:35. }
      -
         depth: 9
         value: 107.
         norm_class_idx: 10
      -
         depth: 9
         value: 99.
         norm_class_idx: 2
         splits:
            - { var:324, quality:32., le:108. }
      -
         depth: 10
         value: 99.
         norm_class_idx: 2
      -
         depth: 10
         value: 99.
         norm_class_idx: 2
      -
         depth: 7
         value: 107.
         norm_class_idx: 10
      -
         depth: 5
         value: 109.
         norm_class_idx: 12
         splits:
            - { var:236, quality:2.4080951690673828e+01,
                le:2.5350000000000000e+02 }
      -
         depth: 6
         value: 109.
         norm_class_idx: 12
         splits:
            - { var:207, quality:2.4074073791503906e+01, le:222. }
      -
         depth: 7
         value: 109.
         norm_class_idx: 12
         splits:
            - { var:30, quality:17., le:2.0450000000000000e+02 }
      -
         depth: 8
         value: 109.
         norm_class_idx: 12
      -
         depth: 8
         value: 109.
         norm_class_idx: 12
      -
         depth: 7
         value: 107.
         norm_class_idx: 10
         splits:
            - { var:194, quality:1.2022727012634277e+01,
                le:2.3050000000000000e+02 }
      -
         depth: 8
         value: 109.
         norm_class_idx: 12
         splits:
            - { var:156, quality:8.9454545974731445e+00,
                le:8.9500000000000000e+01 }
      -
         depth: 9
         value: 112.
         norm_class_idx: 14
      -
         depth: 9
         value: 109.
         norm_class_idx: 12
         splits:
            - { var:152, quality:9.1999998092651367e+00,
                le:1.8850000000000000e+02 }
      -
         depth: 10
         value: 104.
         norm_class_idx: 7
      -
         depth: 10
         value: 109.
         norm_class_idx: 12
      -
         depth: 8
         value: 107.
         norm_class_idx: 10
         splits:
            - { var:157, quality:7.9166665077209473e+00, le:67. }
      -
         depth: 9
         value: 99.
         norm_class_idx: 2
      -
         depth: 9
         value: 107.
         norm_class_idx: 10
      -
         depth: 6
         value: 104.
         norm_class_idx: 7
         splits:
            - { var:78, quality:8.9025640487670898e+00, le:254. }
      -
         depth: 7
         value: 99.
         norm_class_idx: 2
         splits:
            - { var:401, quality:7.6666665077209473e+00, le:16. }
      -
         depth: 8
         value: 112.
         norm_class_idx: 14
      -
         depth: 8
         value: 99.
         norm_class_idx: 2
      -
         depth: 7
         value: 104.
         norm_class_idx: 7
         splits:
            - { var:75, quality:8.0909090042114258e+00,
                le:2.2350000000000000e+02 }
      -
         depth: 8
         value: 107.
         norm_class_idx: 10
      -
         depth: 8
         value: 104.
         norm_class_idx: 7
         splits:
            - { var:209, quality:6.6666665077209473e+00,
                le:2.4950000000000000e+02 }
      -
         depth: 9
         value: 104.
         norm_class_idx: 7
      -
         depth: 9
         value: 112.
         norm_class_idx: 14
      -
         depth: 1
         value: 109.
         norm_class_idx: 12
         splits:
            - { var:401, quality:4.7800311279296875e+02,
                le:1.5500000000000000e+01 }
      -
         depth: 2
         value: 110.
         norm_class_idx: 13
         splits:
            - { var:400, quality:2.9696380615234375e+02, le:47. }
      -
         depth: 3
         value: 110.
         norm_class_idx: 13
         splits:
            - { var:401, quality:2.4883778381347656e+02,
                le:6.5000000000000000e+00 }
      -
         depth: 4
         value: 108.
         norm_class_idx: 11
         splits:
            - { var:400, quality:9.9790184020996094e+01,
                le:2.0500000000000000e+01 }
      -
         depth: 5
         value: 108.
         norm_class_idx: 11
         splits:
            - { var:403, quality:5.1375000000000000e+01, le:16. }
      -
         depth: 6
         value: 107.
         norm_class_idx: 10
      -
         depth: 6
         value: 108.
         norm_class_idx: 11
         splits:
            - { var:403, quality:5.1493331909179688e+01, le:60. }
      -
         depth: 7
         value: 108.
         norm_class_idx: 11
         splits:
            - { var:168, quality:5.3464645385742188e+01, le:240. }
      -
         depth: 8
         value: 108.
         norm_class_idx: 11
         splits:
            - { var:355, quality:5.3523811340332031e+01,
                le:3.5000000000000000e+00 }
      -
         depth: 9
         value: 112.
         norm_class_idx: 14
      -
         depth: 9
         value: 108.
         norm_class_idx: 11
         splits:
            - { var:304, quality:5.4524589538574219e+01, le:30. }
      -
         depth: 10
         value: 107.
         norm_class_idx: 10
      -
         depth: 10
         value: 108.
         norm_class_idx: 11
      -
         depth: 8
         value: 110.
         norm_class_idx: 13
      -
         depth: 7
         value: 107.
         norm_class_idx: 10
      -
         depth: 5
         value: 106.
         norm_class_idx: 9
         splits:
            - { var:403, quality:6.8490043640136719e+01,
                le:4.3500000000000000e+01 }
      -
         depth: 6
         value: 106.
         norm_class_idx: 9
         splits:
            - { var:322, quality:6.3993591308593750e+01, le:220. }
      -
         depth: 7
         value: 110.
         norm_class_idx: 13
      -
         depth: 7
         value: 106.
         norm_class_idx: 9
         splits:
            - { var:69, quality:6.2053802490234375e+01,
                le:2.1050000000000000e+02 }
      -
         depth: 8
         value: 106.
         norm_class_idx: 9
         splits:
            - { var:83, quality:6.2063884735107422e+01,
                le:2.1450000000000000e+02 }
      -
         depth: 9
         value: 106.
         norm_class_idx: 9
         splits:
            - { var:45, quality:2.8166666030883789e+01,
                le:7.6500000000000000e+01 }
      -
         depth: 10
         value: 106.
         norm_class_idx: 9
      -
         depth: 10
         value: 108.
         norm_class_idx: 11
      -
         depth: 9
         value: 106.
         norm_class_idx: 9
         splits:
            - { var:6, quality:4.2781818389892578e+01, le:201. }
      -
         depth: 10
         value: 108.
         norm_class_idx: 11
      -
         depth: 10
         value: 106.
         norm_class_idx: 9
      -
         depth: 8
         value: 108.
         norm_class_idx: 11
      -
         depth: 6
         value: 108.
         norm_class_idx: 11
         splits:
            - { var:42, quality:15., le:2.0350000000000000e+02 }
      -
         depth: 7
         value: 106.
         norm_class_idx: 9
      -
         depth: 7
         value: 108.
         norm_class_idx: 11
      -
         depth: 4
         value: 110.
         norm_class_idx: 13
         splits:
            - { var:400, quality:2.0447999572753906e+02,
                le:1.6500000000000000e+01 }
      -
         depth: 5
         value: 97.
         norm_class_idx: 0
         splits:
            - { var:48, quality:2.5337234497070312e+01,
                le:1.0750000000000000e+02 }
      -
         depth: 6
         value: 97.
         norm_class_idx: 0
         splits:
            - { var:88, quality:2.3973333358764648e+01,
                le:6.4500000000000000e+01 }
      -
         depth: 7
         value: 110.
         norm_class_idx: 13
         splits:
            - { var:112, quality:6., le:8.5500000000000000e+01 }
      -
         depth: 8
         value: 110.
         norm_class_idx: 13
      -
         depth: 8
         value: 107.
         norm_class_idx: 10
      -
         depth: 7
         value: 97.
         norm_class_idx: 0
         splits:
            - { var:4, quality:2.3083333969116211e+01,
                le:2.4150000000000000e+02 }
      -
         depth: 8
         value: 107.
         norm_class_idx: 10
      -
         depth: 8
         value: 97.
         norm_class_idx: 0
         splits:
            - { var:51, quality:24., le:2.5150000000000000e+02 }
      -
         depth: 9
         value: 97.
         norm_class_idx: 0
      -
         depth: 9
         value: 101.
         norm_class_idx: 4
      -
         depth: 6
         value: 112.
         norm_class_idx: 14
         splits:
            - { var:346, quality:1.4409090995788574e+01,
                le:3.5000000000000000e+00 }
      -
         depth: 7
         value: 112.
         norm_class_idx: 14
      -
         depth: 7
         value: 112.
         norm_class_idx: 14
         splits:
            - { var:221, quality:1.3415778160095215e+01,
                le:1.9650000000000000e+02 }
      -
         depth: 8
         value: 112.
         norm_class_idx: 14
         splits:
            - { var:294, quality:1.0500000000000000e+01, le:217. }
      -
         depth: 9
         value: 109.
         norm_class_idx: 12
         splits:
            - { var:160, quality:7.5555553436279297e+00,
                le:2.5450000000000000e+02 }
      -
         depth: 10
         value: 112.
         norm_class_idx: 14
      -
         depth: 10
         value: 109.
         norm_class_idx: 12
      -
         depth: 9
         value: 112.
         norm_class_idx: 14
      -
         depth: 8
         value: 110.
         norm_class_idx: 13
         splits:
            - { var:105, quality:1.1838596343994141e+01, le:23. }
      -
         depth: 9
         value: 102.
         norm_class_idx: 5
      -
         depth: 9
         value: 110.
         norm_class_idx: 13
         splits:
            - { var:217, quality:1.0811224937438965e+01, le:136. }
      -
         depth: 10
         value: 99.
         norm_class_idx: 2
      -
         depth: 10
         value: 110.
         norm_class_idx: 13
      -
         depth: 5
         value: 110.
         norm_class_idx: 13
         splits:
            - { var:324, quality:2.1136204528808594e+02,
                le:2.5450000000000000e+02 }
      -
         depth: 6
         value: 110.
         norm_class_idx: 13
         splits:
            - { var:208, quality:1.8855372619628906e+02,
                le:1.2250000000000000e+02 }
      -
         depth: 7
         value: 110.
         norm_class_idx: 13
         splits:
            - { var:214, quality:1.8465608596801758e+01,
                le:2.5450000000000000e+02 }
      -
         depth: 8
         value: 109.
         norm_class_idx: 12
         splits:
            - { var:147, quality:7.8552632331848145e+00,
                le:2.5250000000000000e+02 }
      -
         depth: 9
         value: 115.
         norm_class_idx: 15
         splits:
            - { var:276, quality:6.5227274894714355e+00, le:234. }
      -
         depth: 10
         value: 115.
         norm_class_idx: 15
      -
         depth: 10
         value: 102.
         norm_class_idx: 5
      -
         depth: 9
         value: 109.
         norm_class_idx: 12
      -
         depth: 8
         value: 110.
         norm_class_idx: 13
         splits:
            - { var:132, quality:2.1079999923706055e+01, le:122. }
      -
         depth: 9
         value: 98.
         norm_class_idx: 1
      -
         depth: 9
         value: 110.
         norm_class_idx: 13
         splits:
            - { var:49, quality:2.2086956024169922e+01, le:8. }
      -
         depth: 10
         value: 103.
         norm_class_idx: 6
      -
         depth: 10
         value: 110.
         norm_class_idx: 13
      -
         depth: 7
         value: 110.
         norm_class_idx: 13
         splits:
            - { var:23, quality:1.8658569335937500e+02,
                le:1.9950000000000000e+02 }
      -
         depth: 8
         value: 107.
         norm_class_idx: 10
         splits:
            - { var:403, quality:6.4000000953674316e+00, le:16. }
      -
         depth: 9
         value: 107.
         norm_class_idx: 10
      -
         depth: 9
         value: 110.
         norm_class_idx: 13
         splits:
            - { var:22, quality:6., le:254. }
      -
         depth: 10
         value: 110.
         norm_class_idx: 13
      -
         depth: 10
         value: 109.
         norm_class_idx: 12
      -
         depth: 8
         value: 110.
         norm_class_idx: 13
         splits:
            - { var:402, quality:1.8887792968750000e+02, le:37. }
      -
         depth: 9
         value: 105.
         norm_class_idx: 8
      -
         depth: 9
         value: 110.
         norm_class_idx: 13
         splits:
            - { var:317, quality:1.9245339965820312e+02, le:83. }
      -
         depth: 10
         value: 109.
         norm_class_idx: 12
      -
         depth: 10
         value: 110.
         norm_class_idx: 13
      -
         depth: 6
         value: 110.
         norm_class_idx: 13
         splits:
            - { var:234, quality:4.9257141113281250e+01,
                le:2.5450000000000000e+02 }
      -
         depth: 7
         value: 109.
         norm_class_idx: 12
         splits:
            - { var:229, quality:1.9801742553710938e+01,
                le:2.2850000000000000e+02 }
      -
         depth: 8
         value: 115.
         norm_class_idx: 15
         splits:
            - { var:174, quality:1.9316017150878906e+01, le:146. }
      -
         depth: 9
         value: 115.
         norm_class_idx: 15
         splits:
            - { var:44, quality:2.2138889312744141e+01, le:244. }
      -
         depth: 10
         value: 97.
         norm_class_idx: 0
      -
         depth: 10
         value: 115.
         norm_class_idx: 15
      -
         depth: 9
         value: 106.
         norm_class_idx: 9
         splits:
            - { var:52, quality:8., le:251. }
      -
         depth: 10
         value: 106.
         norm_class_idx: 9
      -
         depth: 10
         value: 108.
         norm_class_idx: 11
      -
         depth: 8
         value: 109.
         norm_class_idx: 12
         splits:
            - { var:165, quality:1.2176470756530762e+01,
                le:2.5350000000000000e+02 }
      -
         depth: 9
         value: 109.
         norm_class_idx: 12
         splits:
            - { var:69, quality:9.8999996185302734e+00, le:205. }
      -
         depth: 10
         value: 106.
         norm_class_idx: 9
      -
         depth: 10
         value: 109.
         norm_class_idx: 12
      -
         depth: 9
         value: 110.
         norm_class_idx: 13
         splits:
            - { var:218, quality:9.5978832244873047e+00, le:222. }
      -
         depth: 10
         value: 120.
         norm_class_idx: 17
      -
         depth: 10
         value: 110.
         norm_class_idx: 13
      -
         depth: 7
         value: 110.
         norm_class_idx: 13
         splits:
            - { var:401, quality:4.7102565765380859e+01,
                le:1.0500000000000000e+01 }
      -
         depth: 8
         value: 110.
         norm_class_idx: 13
         splits:
            - { var:251, quality:4.1478260040283203e+01,
                le:1.2550000000000000e+02 }
      -
         depth: 9
         value: 108.
         norm_class_idx: 11
      -
         depth: 9
         value: 110.
         norm_class_idx: 13
         splits:
            - { var:22, quality:4.1136363983154297e+01,
                le:1.9050000000000000e+02 }
      -
         depth: 10
         value: 106.
         norm_class_idx: 9
      -
         depth: 10
         value: 110.
         norm_class_idx: 13
      -
         depth: 8
         value: 109.
         norm_class_idx: 12
         splits:
            - { var:393, quality:1.5362903594970703e+01,
                le:2.5450000000000000e+02 }
      -
         depth: 9
         value: 110.
         norm_class_idx: 13
      -
         depth: 9
         value: 109.
         norm_class_idx: 12
         splits:
            - { var:11, quality:1.5108695983886719e+01,
                le:2.4850000000000000e+02 }
      -
         depth: 10
         value: 110.
         norm_class_idx: 13
      -
         depth: 10
         value: 109.
         norm_class_idx: 12
      -
         depth: 3
         value: 106.
         norm_class_idx: 9
         splits:
            - { var:156, quality:1.3317701721191406e+02,
                le:5.0000000000000000e-01 }
      -
         depth: 4
         value: 98.
         norm_class_idx: 1
      -
         depth: 4
         value: 106.
         norm_class_idx: 9
         splits:
            - { var:303, quality:1.3426573181152344e+02, le:2. }
      -
         depth: 5
         value: 98.
         norm_class_idx: 1
      -
         depth: 5
         value: 106.
         norm_class_idx: 9
         splits:
            - { var:175, quality:1.3516902160644531e+02, le:5. }
      -
         depth: 6
         value: 109.
         norm_class_idx: 12
      -
         depth: 6
         value: 106.
         norm_class_idx: 9
         splits:
            - { var:403, quality:1.3565840148925781e+02, le:42. }
      -
         depth: 7
         value: 106.
         norm_class_idx: 9
         splits:
            - { var:400, quality:1.3368159484863281e+02,
                le:4.9500000000000000e+01 }
      -
         depth: 8
         value: 106.
         norm_class_idx: 9
      -
         depth: 8
         value: 106.
         norm_class_idx: 9
         splits:
            - { var:11, quality:1.3214285278320312e+02,
                le:4.0500000000000000e+01 }
      -
         depth: 9
         value: 106.
         norm_class_idx: 9
         splits:
            - { var:11, quality:14., le:36. }
      -
         depth: 10
         value: 106.
         norm_class_idx: 9
      -
         depth: 10
         value: 109.
         norm_class_idx: 12
      -
         depth: 9
         value: 106.
         norm_class_idx: 9
      -
         depth: 7
         value: 106.
         norm_class_idx: 9
      -
         depth: 2
         value: 109.
         norm_class_idx: 12
         splits:
            - { var:402, quality:3.0189019775390625e+02,
                le:2.1500000000000000e+01 }
      -
         depth: 3
         value: 109.
         norm_class_idx: 12
         splits:
            - { var:88, quality:2.3825805664062500e+01,
                le:2.2750000000000000e+02 }
      -
         depth: 4
         value: 103.
         norm_class_idx: 6
         splits:
            - { var:402, quality:1.8399999618530273e+01,
                le:9.5000000000000000e+00 }
      -
         depth: 5
         value: 109.
         norm_class_idx: 12
      -
         depth: 5
         value: 103.
         norm_class_idx: 6
      -
         depth: 4
         value: 109.
         norm_class_idx: 12
         splits:
            - { var:83, quality:1.6587718963623047e+01,
                le:1.9250000000000000e+02 }
      -
         depth: 5
         value: 105.
         norm_class_idx: 8
         splits:
            - { var:343, quality:1.0666666984558105e+01,
                le:4.7500000000000000e+01 }
      -
         depth: 6
         value: 109.
         norm_class_idx: 12
      -
         depth: 6
         value: 105.
         norm_class_idx: 8
      -
         depth: 5
         value: 109.
         norm_class_idx: 12
         splits:
            - { var:270, quality:1.3571428298950195e+01,
                le:1.5550000000000000e+02 }
      -
         depth: 6
         value: 97.
         norm_class_idx: 0
      -
         depth: 6
         value: 109.
         norm_class_idx: 12
      -
         depth: 3
         value: 109.
         norm_class_idx: 12
         splits:
            - { var:358, quality:2.9546630859375000e+02, le:37. }
      -
         depth: 4
         value: 99.
         norm_class_idx: 2
         splits:
            - { var:376, quality:1.6666666030883789e+01,
                le:2.5250000000000000e+02 }
      -
         depth: 5
         value: 109.
         norm_class_idx: 12
      -
         depth: 5
         value: 99.
         norm_class_idx: 2
      -
         depth: 4
         value: 109.
         norm_class_idx: 12
         splits:
            - { var:28, quality:2.9182666015625000e+02,
                le:9.3500000000000000e+01 }
      -
         depth: 5
         value: 109.
         norm_class_idx: 12
         splits:
            - { var:11, quality:1.4888889312744141e+01, le:248. }
      -
         depth: 6
         value: 110.
         norm_class_idx: 13
      -
         depth: 6
         value: 109.
         norm_class_idx: 12
         splits:
            - { var:296, quality:1.1466666221618652e+01, le:96. }
      -
         depth: 7
         value: 97.
         norm_class_idx: 0
      -
         depth: 7
         value: 109.
         norm_class_idx: 12
         splits:
            - { var:148, quality:1.1833333015441895e+01, le:153. }
      -
         depth: 8
         value: 110.
         norm_class_idx: 13
      -
         depth: 8
         value: 109.
         norm_class_idx: 12
         splits:
            - { var:48, quality:12., le:1.7650000000000000e+02 }
      -
         depth: 9
         value: 109.
         norm_class_idx: 12
      -
         depth: 9
         value: 106.
         norm_class_idx: 9
      -
         depth: 5
         value: 109.
         norm_class_idx: 12
         splits:
            - { var:400, quality:2.8933404541015625e+02,
                le:2.4500000000000000e+01 }
      -
         depth: 6
         value: 109.
         norm_class_idx: 12
         splits:
            - { var:184, quality:1.1221070098876953e+02, le:248. }
      -
         depth: 7
         value: 109.
         norm_class_idx: 12
         splits:
            - { var:16, quality:6.6067565917968750e+01,
                le:2.5050000000000000e+02 }
      -
         depth: 8
         value: 107.
         norm_class_idx: 10
      -
         depth: 8
         value: 109.
         norm_class_idx: 12
         splits:
            - { var:402, quality:6.6940834045410156e+01,
                le:6.1500000000000000e+01 }
      -
         depth: 9
         value: 109.
         norm_class_idx: 12
         splits:
            - { var:185, quality:9.3999996185302734e+00,
                le:1.6950000000000000e+02 }
      -
         depth: 10
         value: 97.
         norm_class_idx: 0
      -
         depth: 10
         value: 109.
         norm_class_idx: 12
      -
         depth: 9
         value: 109.
         norm_class_idx: 12
         splits:
            - { var:2, quality:63., le:99. }
      -
         depth: 10
         value: 107.
         norm_class_idx: 10
      -
         depth: 10
         value: 109.
         norm_class_idx: 12
      -
         depth: 7
         value: 109.
         norm_class_idx: 12
         splits:
            - { var:242, quality:5.6725490570068359e+01, le:96. }
      -
         depth: 8
         value: 109.
         norm_class_idx: 12
         splits:
            - { var:11, quality:2.9411764144897461e+01, le:213. }
      -
         depth: 9
         value: 107.
         norm_class_idx: 10
      -
         depth: 9
         value: 109.
         norm_class_idx: 12
         splits:
            - { var:61, quality:3.0242424011230469e+01,
                le:5.5000000000000000e+00 }
      -
         depth: 10
         value: 99.
         norm_class_idx: 2
      -
         depth: 10
         value: 109.
         norm_class_idx: 12
      -
         depth: 8
         value: 109.
         norm_class_idx: 12
         splits:
            - { var:214, quality:3.6470394134521484e+01,
                le:2.3950000000000000e+02 }
      -
         depth: 9
         value: 109.
         norm_class_idx: 12
         splits:
            - { var:14, quality:2.4705883026123047e+01, le:51. }
      -
         depth: 10
         value: 107.
         norm_class_idx: 10
      -
         depth: 10
         value: 109.
         norm_class_idx: 12
      -
         depth: 9
         value: 99.
         norm_class_idx: 2
         splits:
            - { var:152, quality:2.1501876831054688e+01,
                le:1.5250000000000000e+02 }
      -
         depth: 10
         value: 97.
         norm_class_idx: 0
      -
         depth: 10
         value: 109.
         norm_class_idx: 12
      -
         depth: 6
         value: 109.
         norm_class_idx: 12
         splits:
            - { var:322, quality:1.8726747131347656e+02, le:5. }
      -
         depth: 7
         value: 97.
         norm_class_idx: 0
      -
         depth: 7
         value: 109.
         norm_class_idx: 12
         splits:
            - { var:353, quality:1.8818991088867188e+02, le:37. }
      -
         depth: 8
         value: 109.
         norm_class_idx: 12
         splits:
            - { var:54, quality:1.3515151977539062e+01, le:58. }
      -
         depth: 9
         value: 110.
         norm_class_idx: 13
      -
         depth: 9
         value: 109.
         norm_class_idx: 12
         splits:
            - { var:28, quality:11., le:2.0250000000000000e+02 }
      -
         depth: 10
         value: 99.
         norm_class_idx: 2
      -
         depth: 10
         value: 109.
         norm_class_idx: 12
      -
         depth: 8
         value: 109.
         norm_class_idx: 12
         splits:
            - { var:37, quality:1.8182608032226562e+02,
                le:5.0000000000000000e-01 }
      -
         depth: 9
         value: 99.
         norm_class_idx: 2
      -
         depth: 9
         value: 109.
         norm_class_idx: 12
         splits:
            - { var:12, quality:1.8201942443847656e+02, le:121. }
      -
         depth: 10
         value: 106.
         norm_class_idx: 9
      -
         depth: 10
         value: 109.
         norm_class_idx: 12
